<?xml version="1.0"?>
<MethodSetup Method="MLP::kMLP_pca_ce_500">
  <GeneralInfo>
    <Info name="TMVA Release" value="4.2.0 [262656]"/>
    <Info name="ROOT Release" value="5.34/34 [336418]"/>
    <Info name="Creator" value="knowakow"/>
    <Info name="Date" value="Wed Mar 27 21:14:28 2019"/>
    <Info name="Host" value="Linux lxbuild05 3.16.0-4-amd64 #1 SMP Debian 3.16.7-ckt20-1+deb8u4 (2016-02-29) x86_64 GNU/Linux"/>
    <Info name="Dir" value="/lustre/nyx/hades/user/knowakow/PP/FAT/TMVA"/>
    <Info name="Training events" value="2354"/>
    <Info name="TrainingTime" value="1.87786360e+01"/>
    <Info name="AnalysisType" value="Classification"/>
  </GeneralInfo>
  <Options>
    <Option name="NCycles" modified="Yes">500</Option>
    <Option name="HiddenLayers" modified="Yes">N+1,N</Option>
    <Option name="NeuronType" modified="Yes">sigmoid</Option>
    <Option name="RandomSeed" modified="No">1</Option>
    <Option name="EstimatorType" modified="Yes">CE</Option>
    <Option name="NeuronInputType" modified="Yes">sum</Option>
    <Option name="V" modified="Yes">False</Option>
    <Option name="VerbosityLevel" modified="No">Default</Option>
    <Option name="VarTransform" modified="Yes">N,P</Option>
    <Option name="H" modified="Yes">False</Option>
    <Option name="CreateMVAPdfs" modified="No">False</Option>
    <Option name="IgnoreNegWeightsInTraining" modified="No">False</Option>
    <Option name="TrainingMethod" modified="Yes">BP</Option>
    <Option name="LearningRate" modified="No">2.000000e-02</Option>
    <Option name="DecayRate" modified="No">1.000000e-02</Option>
    <Option name="TestRate" modified="No">10</Option>
    <Option name="EpochMonitoring" modified="No">False</Option>
    <Option name="Sampling" modified="No">1.000000e+00</Option>
    <Option name="SamplingEpoch" modified="No">1.000000e+00</Option>
    <Option name="SamplingImportance" modified="No">1.000000e+00</Option>
    <Option name="SamplingTraining" modified="No">True</Option>
    <Option name="SamplingTesting" modified="No">False</Option>
    <Option name="ResetStep" modified="No">50</Option>
    <Option name="Tau" modified="No">3.000000e+00</Option>
    <Option name="BPMode" modified="Yes">sequential</Option>
    <Option name="BatchSize" modified="No">-1</Option>
    <Option name="ConvergenceImprove" modified="No">1.000000e-30</Option>
    <Option name="ConvergenceTests" modified="No">-1</Option>
    <Option name="UseRegulator" modified="No">False</Option>
    <Option name="UpdateLimit" modified="No">10000</Option>
    <Option name="CalculateErrors" modified="No">False</Option>
    <Option name="WeightRange" modified="No">1.000000e+00</Option>
  </Options>
  <Variables NVar="9">
    <Variable VarIndex="0" Expression="dist_p_pim" Label="dist_p_pim" Title="dist_p_pim" Unit="mm" Internal="dist_p_pim" Type="F" Min="4.67730599e-04" Max="1.93118484e+02"/>
    <Variable VarIndex="1" Expression="dist_pip_pim" Label="dist_pip_pim" Title="dist_pip_pim" Unit="mm" Internal="dist_pip_pim" Type="F" Min="6.16299547e-03" Max="2.75433563e+02"/>
    <Variable VarIndex="2" Expression="eVert_x" Label="eVert_x" Title="eVert_x" Unit="mm" Internal="eVert_x" Type="F" Min="-5.19747238e+01" Max="4.73017960e+01"/>
    <Variable VarIndex="3" Expression="eVert_y" Label="eVert_y" Title="eVert_y" Unit="mm" Internal="eVert_y" Type="F" Min="-2.56527271e+01" Max="6.43770065e+01"/>
    <Variable VarIndex="4" Expression="eVert_z" Label="eVert_z" Title="eVert_z" Unit="mm" Internal="eVert_z" Type="F" Min="-8.99312820e+01" Max="2.14432312e+02"/>
    <Variable VarIndex="5" Expression="dist_p_eVert" Label="dist_p_eVert" Title="dist_p_eVert" Unit="mm" Internal="dist_p_eVert" Type="F" Min="8.93397331e-01" Max="1.73723068e+02"/>
    <Variable VarIndex="6" Expression="dist_pim_eVert" Label="dist_pim_eVert" Title="dist_pim_eVert" Unit="mm" Internal="dist_pim_eVert" Type="F" Min="4.10466492e-01" Max="1.49376495e+02"/>
    <Variable VarIndex="7" Expression="dist_lambda_eVert" Label="dist_lambda_eVert" Title="dist_lambda_eVert" Unit="mm" Internal="dist_lambda_eVert" Type="F" Min="6.87124670e-01" Max="1.30440125e+03"/>
    <Variable VarIndex="8" Expression="dist_lambda_ver_pip_pim" Label="dist_lambda_ver_pip_pim" Title="dist_lambda_ver_pip_pim" Unit="mm" Internal="dist_lambda_ver_pip_pim" Type="F" Min="1.46781886e+00" Max="6.85357849e+02"/>
  </Variables>
  <Spectators NSpec="0"/>
  <Classes NClass="2">
    <Class Name="Signal" Index="0"/>
    <Class Name="Background" Index="1"/>
  </Classes>
  <Transformations NTransformations="2">
    <Transform Name="Normalize">
      <Selection>
        <Input NInputs="9">
          <Input Type="Variable" Label="dist_p_pim" Expression="dist_p_pim"/>
          <Input Type="Variable" Label="dist_pip_pim" Expression="dist_pip_pim"/>
          <Input Type="Variable" Label="eVert_x" Expression="eVert_x"/>
          <Input Type="Variable" Label="eVert_y" Expression="eVert_y"/>
          <Input Type="Variable" Label="eVert_z" Expression="eVert_z"/>
          <Input Type="Variable" Label="dist_p_eVert" Expression="dist_p_eVert"/>
          <Input Type="Variable" Label="dist_pim_eVert" Expression="dist_pim_eVert"/>
          <Input Type="Variable" Label="dist_lambda_eVert" Expression="dist_lambda_eVert"/>
          <Input Type="Variable" Label="dist_lambda_ver_pip_pim" Expression="dist_lambda_ver_pip_pim"/>
        </Input>
        <Output NOutputs="9">
          <Output Type="Variable" Label="dist_p_pim" Expression="dist_p_pim"/>
          <Output Type="Variable" Label="dist_pip_pim" Expression="dist_pip_pim"/>
          <Output Type="Variable" Label="eVert_x" Expression="eVert_x"/>
          <Output Type="Variable" Label="eVert_y" Expression="eVert_y"/>
          <Output Type="Variable" Label="eVert_z" Expression="eVert_z"/>
          <Output Type="Variable" Label="dist_p_eVert" Expression="dist_p_eVert"/>
          <Output Type="Variable" Label="dist_pim_eVert" Expression="dist_pim_eVert"/>
          <Output Type="Variable" Label="dist_lambda_eVert" Expression="dist_lambda_eVert"/>
          <Output Type="Variable" Label="dist_lambda_ver_pip_pim" Expression="dist_lambda_ver_pip_pim"/>
        </Output>
      </Selection>
      <Class ClassIndex="0">
        <Ranges>
          <Range Index="0" Min="4.6773059875704348e-04" Max="1.0768445587158203e+02"/>
          <Range Index="1" Min="6.1629954725503922e-03" Max="2.2523158264160156e+02"/>
          <Range Index="2" Min="-2.8668344497680664e+01" Max="3.9888107299804688e+01"/>
          <Range Index="3" Min="-2.3910804748535156e+01" Max="6.4377006530761719e+01"/>
          <Range Index="4" Min="-7.3763862609863281e+01" Max="2.1443231201171875e+02"/>
          <Range Index="5" Min="8.9339733123779297e-01" Max="1.4354609680175781e+02"/>
          <Range Index="6" Min="6.3308006525039673e-01" Max="1.4937649536132812e+02"/>
          <Range Index="7" Min="6.8712466955184937e-01" Max="1.4250509643554688e+02"/>
          <Range Index="8" Min="2.1955311298370361e+00" Max="6.8535784912109375e+02"/>
        </Ranges>
      </Class>
      <Class ClassIndex="1">
        <Ranges>
          <Range Index="0" Min="1.5611188486218452e-02" Max="1.9311848449707031e+02"/>
          <Range Index="1" Min="2.5495314970612526e-02" Max="2.7543356323242188e+02"/>
          <Range Index="2" Min="-5.1974723815917969e+01" Max="4.7301795959472656e+01"/>
          <Range Index="3" Min="-2.5652727127075195e+01" Max="2.8827011108398438e+01"/>
          <Range Index="4" Min="-8.9931282043457031e+01" Max="1.5992741394042969e+02"/>
          <Range Index="5" Min="1.4438147544860840e+00" Max="1.7372306823730469e+02"/>
          <Range Index="6" Min="4.1046649217605591e-01" Max="1.2746899414062500e+02"/>
          <Range Index="7" Min="3.0571944713592529e+00" Max="1.3044012451171875e+03"/>
          <Range Index="8" Min="1.4678188562393188e+00" Max="5.5627954101562500e+02"/>
        </Ranges>
      </Class>
      <Class ClassIndex="2">
        <Ranges>
          <Range Index="0" Min="4.6773059875704348e-04" Max="1.9311848449707031e+02"/>
          <Range Index="1" Min="6.1629954725503922e-03" Max="2.7543356323242188e+02"/>
          <Range Index="2" Min="-5.1974723815917969e+01" Max="4.7301795959472656e+01"/>
          <Range Index="3" Min="-2.5652727127075195e+01" Max="6.4377006530761719e+01"/>
          <Range Index="4" Min="-8.9931282043457031e+01" Max="2.1443231201171875e+02"/>
          <Range Index="5" Min="8.9339733123779297e-01" Max="1.7372306823730469e+02"/>
          <Range Index="6" Min="4.1046649217605591e-01" Max="1.4937649536132812e+02"/>
          <Range Index="7" Min="6.8712466955184937e-01" Max="1.3044012451171875e+03"/>
          <Range Index="8" Min="1.4678188562393188e+00" Max="6.8535784912109375e+02"/>
        </Ranges>
      </Class>
    </Transform>
    <Transform Name="PCA">
      <Selection>
        <Input NInputs="9">
          <Input Type="Variable" Label="dist_p_pim" Expression="dist_p_pim"/>
          <Input Type="Variable" Label="dist_pip_pim" Expression="dist_pip_pim"/>
          <Input Type="Variable" Label="eVert_x" Expression="eVert_x"/>
          <Input Type="Variable" Label="eVert_y" Expression="eVert_y"/>
          <Input Type="Variable" Label="eVert_z" Expression="eVert_z"/>
          <Input Type="Variable" Label="dist_p_eVert" Expression="dist_p_eVert"/>
          <Input Type="Variable" Label="dist_pim_eVert" Expression="dist_pim_eVert"/>
          <Input Type="Variable" Label="dist_lambda_eVert" Expression="dist_lambda_eVert"/>
          <Input Type="Variable" Label="dist_lambda_ver_pip_pim" Expression="dist_lambda_ver_pip_pim"/>
        </Input>
        <Output NOutputs="9">
          <Output Type="Variable" Label="dist_p_pim" Expression="dist_p_pim"/>
          <Output Type="Variable" Label="dist_pip_pim" Expression="dist_pip_pim"/>
          <Output Type="Variable" Label="eVert_x" Expression="eVert_x"/>
          <Output Type="Variable" Label="eVert_y" Expression="eVert_y"/>
          <Output Type="Variable" Label="eVert_z" Expression="eVert_z"/>
          <Output Type="Variable" Label="dist_p_eVert" Expression="dist_p_eVert"/>
          <Output Type="Variable" Label="dist_pim_eVert" Expression="dist_pim_eVert"/>
          <Output Type="Variable" Label="dist_lambda_eVert" Expression="dist_lambda_eVert"/>
          <Output Type="Variable" Label="dist_lambda_ver_pip_pim" Expression="dist_lambda_ver_pip_pim"/>
        </Output>
      </Selection>
      <Statistics Class="Signal" ClassIndex="0" NRows="9">
        -9.34719199e-01 -9.07064223e-01 4.69407424e-02 -4.28455398e-01 -5.61957606e-01 -6.70915437e-01 -6.72008952e-01 -9.59692570e-01 -8.60632129e-01 
      </Statistics>
      <Statistics Class="Background" ClassIndex="1" NRows="9">
        -8.38309153e-01 -8.74063916e-01 4.56287995e-02 -4.45781909e-01 -5.56267381e-01 -6.76653328e-01 -6.45598773e-01 -8.98957136e-01 -8.39097257e-01 
      </Statistics>
      <Statistics Class="Combined" ClassIndex="2" NRows="9">
        -8.86514176e-01 -8.90564070e-01 4.62847709e-02 -4.37118654e-01 -5.59112493e-01 -6.73784382e-01 -6.58803863e-01 -9.29324853e-01 -8.49864693e-01 
      </Statistics>
      <Eigenvectors Class="Signal" ClassIndex="0" NRows="9" NCols="9">
        6.50787665e-02 -5.27292019e-02 -6.97296303e-02 -1.53885160e-01 -3.39495196e-01 -3.49894186e-01 -8.18225597e-01 2.39296815e-01 1.58049217e-03 3.70346131e-02 2.71691479e-01 -8.41182503e-01 -3.04877222e-01 -2.72532913e-01 5.47569957e-02 2.14095000e-01 3.41010055e-02 -1.41074492e-03 -9.51004819e-03 -3.83657324e-02 5.15903395e-02 -9.31966879e-02 1.77988043e-01 -5.90622278e-01 3.90615488e-01 6.73790826e-01 -1.21987554e-03 4.89546096e-02 -7.17403693e-02 -9.51995562e-02 -3.85241638e-01 6.02440042e-01 5.03771465e-01 -2.63470714e-01 3.85802886e-01 1.52092573e-03 -1.19972853e-01 -3.00474057e-01 -2.11578958e-01 -3.09183953e-01 4.67424726e-01 -4.78390135e-01 -6.44757401e-02 -5.50818540e-01 -7.76549056e-03 5.18664273e-01 6.00073362e-01 3.48042636e-01 -4.28315447e-01 4.97311255e-02 -1.26394068e-01 3.24300872e-02 -1.86936283e-01 1.08931192e-01 8.16036466e-01 -5.35316642e-01 -1.33431805e-01 1.21392980e-01 -6.22634019e-02 3.73725348e-02 9.79566894e-02 4.81747699e-04 1.05401434e-02 6.68749599e-02 6.25571516e-02 3.87856772e-02 -4.25010199e-02 2.37026904e-03 -9.10630124e-03 2.26783209e-03 -1.60650814e-02 -9.93957697e-01 1.95223743e-01 4.19445776e-01 -3.01027491e-01 6.56262953e-01 4.37051104e-01 -1.60134794e-01 -2.18777143e-01 1.14741247e-02 1.55056386e-03 
      </Eigenvectors>
      <Eigenvectors Class="Background" ClassIndex="1" NRows="9" NCols="9">
        4.73091211e-01 -7.31279172e-01 -3.81509428e-01 -1.76112523e-01 -2.57026798e-02 2.02379551e-01 4.83018866e-02 -1.15819494e-02 -1.44100974e-01 4.95127932e-02 2.29517800e-01 -7.05818303e-01 4.26863357e-01 4.71042744e-01 -1.96372271e-01 5.90895123e-02 -2.23639904e-02 6.57313480e-03 -2.63902090e-02 9.44089495e-02 6.25378999e-02 -2.39741542e-02 1.24106414e-01 7.51770700e-02 -3.27442689e-01 -6.31272792e-01 -6.77588896e-01 -5.98900682e-02 1.67891991e-01 -6.52500862e-02 -3.05654492e-02 2.26666899e-01 8.81020784e-01 -1.20368858e-01 -1.17247282e-01 3.27448540e-01 -7.66128913e-02 -2.50850789e-01 -4.78379890e-02 -1.13100659e-02 -2.73668162e-02 -3.08816641e-01 -5.02737461e-01 -4.66274623e-01 6.02091618e-01 4.47475683e-01 4.37726539e-01 -9.71219474e-02 -6.36595299e-01 5.78218823e-02 -1.56128334e-01 2.67015213e-01 -2.60119819e-01 1.63694445e-01 7.19958486e-01 1.06751373e-01 4.10380382e-01 5.33869795e-01 1.65316821e-02 2.20468432e-02 -6.30479082e-02 -5.64893766e-02 9.43899302e-02 1.83734868e-01 1.23101250e-01 5.31888794e-03 -2.86502230e-01 2.72776811e-01 -7.16193606e-02 -6.92676790e-01 5.45332256e-01 -1.10683496e-01 1.06052724e-01 3.07198905e-01 -4.09806080e-01 1.13053388e-01 -7.94924539e-01 1.15204445e-01 -2.54263107e-01 3.82201995e-02 -4.87028004e-02 
      </Eigenvectors>
      <Eigenvectors Class="Combined" ClassIndex="2" NRows="9" NCols="9">
        3.03120351e-01 -5.75150260e-01 -6.02524238e-01 -3.60531799e-01 -6.70600409e-02 -1.55922890e-01 -1.60792690e-01 -1.28760203e-01 -1.14276503e-01 5.53877491e-02 2.75126850e-01 -6.49473058e-01 5.16137938e-01 4.20614255e-01 2.30839576e-01 3.44367865e-02 -1.18991045e-02 -3.86399690e-02 -1.68316207e-02 3.51504870e-02 7.98400903e-02 8.24867179e-03 1.24257506e-01 -1.75538242e-01 4.01455197e-01 -8.82850509e-01 -7.20677496e-02 -1.53738238e-02 1.33665112e-01 6.57026694e-02 1.35093150e-01 3.33535984e-01 -8.15106403e-01 -4.27717937e-01 2.72185155e-02 1.44907509e-03 -1.01509666e-01 -2.50982895e-01 -7.97198350e-02 1.06686947e-01 8.20870977e-02 -3.80526839e-01 7.62553376e-01 4.19439458e-01 3.15279372e-03 4.88640545e-01 5.21298918e-01 8.38846582e-03 -5.57652172e-01 2.64456644e-01 -7.29972259e-03 1.99705320e-01 1.53771330e-01 -2.11927123e-01 7.81742662e-01 -2.40636844e-01 3.35335816e-01 4.65316141e-01 -2.02438992e-02 3.58523018e-02 1.14354640e-02 6.36489255e-03 -1.16882359e-02 1.44832533e-01 3.23754229e-02 -6.83533662e-02 -1.48070463e-01 1.21366935e-01 -4.06656956e-03 5.03114860e-02 -4.70703675e-02 9.65341903e-01 1.52835681e-01 4.25095567e-01 -2.84447003e-01 1.56519099e-01 -7.74651575e-01 -2.84663193e-01 6.94192230e-02 -3.58069820e-02 5.75093341e-02 
      </Eigenvectors>
    </Transform>
  </Transformations>
  <MVAPdfs/>
  <Weights>
    <Layout NLayers="4">
      <Layer Index="0" NNeurons="10">
        <Neuron NSynapses="10">
          5.8684181581284522e-01 2.6273390737032134e+00 9.6640676678329462e-01 1.3182417414955945e+00 -1.5087105102703953e+00 -9.4859130363764943e-01 -1.6169259809489378e-01 2.2729287290964186e+00 -1.9654236315659717e+00 -1.2642753376697042e+00 
        </Neuron>
        <Neuron NSynapses="10">
          3.5171407328222681e-01 -4.0409330888549783e-01 -1.0931857860840530e+00 -9.5531529192186687e-02 -1.0728070813065993e+00 -5.8928637138874654e-02 7.0109698200325352e-02 1.3587311123432149e+00 5.2087112389926542e+00 -1.0751988661979064e+00 
        </Neuron>
        <Neuron NSynapses="10">
          -7.0064538738570692e-01 -8.9941103430877500e-01 9.8515275972563143e-01 2.6515807469658009e-01 -1.2320803644501406e+00 -1.2204921004862114e-01 5.1933591161743342e-01 -1.8800134375240396e+00 -2.9497032016066158e+00 3.1481707759902995e+00 
        </Neuron>
        <Neuron NSynapses="10">
          -1.2505044322283125e+00 1.3833341419599425e+00 -6.9123645459496552e-01 -1.1539732673216101e-01 -1.2948145357332916e+00 1.3078658053457723e-01 -1.2446308996672537e+00 1.9431098933475921e+00 -6.5822640508675745e+00 4.7856374442795264e+00 
        </Neuron>
        <Neuron NSynapses="10">
          1.8507737110793483e+00 6.3230603020522302e-02 1.4786251441755502e+00 1.3503225609799701e+00 5.1279331917821258e-01 -1.6135815185168725e+00 6.1657396392989161e-01 2.1478561304833249e-02 1.8046549117459765e+00 -2.5646328462478936e+00 
        </Neuron>
        <Neuron NSynapses="10">
          7.8246840984732191e-01 1.9432493168149474e+00 -1.9680265357233351e+00 1.0390876759621808e+00 -1.9108011395993982e+00 -1.2065562323251711e+00 -1.1667334201251198e+00 -1.2197724911507251e+00 3.0187448844722847e-01 6.1935045249863674e-01 
        </Neuron>
        <Neuron NSynapses="10">
          -4.6049306103350512e-01 2.0455915339597834e+00 -2.5769579685524874e-01 6.9017106119721228e-01 2.4687027518136093e-01 -5.8880399424962337e-01 -2.4979438044662611e-01 -1.5171460625217845e+00 5.2128466605102342e-01 -7.4199719570347755e-01 
        </Neuron>
        <Neuron NSynapses="10">
          -1.1637120325322217e+00 -2.8051462253088355e-01 7.1371476638885045e-01 1.1610168061672816e+00 1.5014544564536412e+00 -8.1937545064114436e-02 -1.1656873240030994e+00 -1.6396712183216828e+00 2.2464922616454199e+00 1.0719640208250092e+00 
        </Neuron>
        <Neuron NSynapses="10">
          1.0488873564979521e+01 9.5067758657151042e+00 6.6976264278846798e-01 -8.7294222419981193e-01 5.7256084580771862e+00 -1.6410805531999157e+00 5.2953841998613438e+00 -8.2186889410717834e-01 -7.0529803056228264e+00 -2.2275641796779514e+01 
        </Neuron>
        <Neuron NSynapses="10">
          2.3681958439848549e-01 1.7075183663440691e-01 4.5586181861645469e-01 -1.9810779560855332e+00 -2.9548992138151758e-01 -2.8726141742529774e-03 1.2181947649085051e-01 -1.9673909672204786e+00 -1.3400064524149145e+00 -7.4886739721670870e-01 
        </Neuron>
      </Layer>
      <Layer Index="1" NNeurons="11">
        <Neuron NSynapses="9">
          -1.3433207426835714e+00 -5.0330850862582652e+00 2.3750519584897978e+00 2.9254364092276202e+00 2.7062145814417780e+00 -6.2271435634824002e-01 -3.9385880183382023e+00 -2.6755377077247000e-01 1.7868006496961084e-01 
        </Neuron>
        <Neuron NSynapses="9">
          1.0152195036010614e+00 -4.4976965342648816e+00 1.5614757710477469e+00 1.2144115878870272e+00 3.8872731192771801e+00 -3.4612618625316225e+00 -7.7918273496895585e-01 8.8445112015307026e-01 -7.8550826220098036e-01 
        </Neuron>
        <Neuron NSynapses="9">
          1.2866037741732037e+00 -1.9723708211756197e+00 -9.4479119768630060e-01 1.6407320717316398e-01 5.3844748366653516e-01 1.7749074009925045e+00 -1.0846307979498290e-01 -3.1430733183659321e-01 -2.6392742610965714e-01 
        </Neuron>
        <Neuron NSynapses="9">
          2.8756387471666878e-01 -8.2665229160642417e-01 6.7606900621217458e-01 -2.7533100776412994e-01 -2.3489322010458729e+00 1.1813506966748126e+00 -9.3566488803325254e-01 -1.0509037082480673e-01 1.1494122413845538e+00 
        </Neuron>
        <Neuron NSynapses="9">
          1.9080258742868528e+00 -3.0395040180663728e+00 6.0732200220961885e-01 1.6705308813426720e+00 2.2322562961530110e+00 -4.6353467516375568e-01 -1.8432446260627993e+00 -1.4366543185691105e-01 -1.3918572307564594e+00 
        </Neuron>
        <Neuron NSynapses="9">
          1.8706183822148643e+00 1.1478061754615958e+00 -1.1168582441903638e+00 -1.1537437550684437e+00 -7.3135371341209898e-01 -1.0498546187445084e+00 1.1138363824655830e+00 1.2595793281365497e+00 -5.7752214519927536e-01 
        </Neuron>
        <Neuron NSynapses="9">
          -4.2463015797624176e-01 -1.6061895631081691e+00 1.8177547398025333e+00 1.1444254210414733e+00 2.1851323459753611e+00 -2.2288688903268463e+00 3.8855558127258194e-01 8.4400494892992683e-01 5.8038679626089706e-01 
        </Neuron>
        <Neuron NSynapses="9">
          7.6570259893316128e-01 1.6373891992905498e+00 -1.1205906986595437e+00 -1.2313279767106218e+00 5.6604706002621252e-01 -7.6783439643636764e-01 -1.9824246102049911e-01 1.6252008816937231e+00 9.6501298267508107e-01 
        </Neuron>
        <Neuron NSynapses="9">
          -3.4100741470438889e-01 5.2907216133219261e+00 -1.8081443677895959e-01 -3.8503829569912353e+00 -3.0618821884826026e+00 2.2663385413899206e+00 3.2731448646081454e+00 -2.5331531341325055e+00 -1.6079132911944918e+00 
        </Neuron>
        <Neuron NSynapses="9">
          8.7218710104052688e-01 9.3902026073001217e+00 -5.5264875513315550e+00 -3.7360318923050406e+00 -8.0842312616907570e+00 5.2478486379449016e+00 7.1434662542543341e+00 -1.9441280260900926e+00 -7.9183475329372344e-01 
        </Neuron>
        <Neuron NSynapses="9">
          -5.5575527399093860e-01 1.3690547400587478e+00 9.7921888049944816e-01 1.9837346915807880e-01 -3.2824883420165124e-01 -3.8137486258666231e-01 -1.6814714436133154e+00 6.4469155365842212e-01 4.9672686934549815e-01 
        </Neuron>
      </Layer>
      <Layer Index="2" NNeurons="10">
        <Neuron NSynapses="1">
          -7.5360495886435186e-01 
        </Neuron>
        <Neuron NSynapses="1">
          1.1710730296370553e+01 
        </Neuron>
        <Neuron NSynapses="1">
          -5.3590538618368333e+00 
        </Neuron>
        <Neuron NSynapses="1">
          -5.6055426609238488e+00 
        </Neuron>
        <Neuron NSynapses="1">
          -9.3892913708896302e+00 
        </Neuron>
        <Neuron NSynapses="1">
          5.8058152007434378e+00 
        </Neuron>
        <Neuron NSynapses="1">
          7.3764314906739088e+00 
        </Neuron>
        <Neuron NSynapses="1">
          -2.4950641314201309e+00 
        </Neuron>
        <Neuron NSynapses="1">
          -5.9155537409817849e-01 
        </Neuron>
        <Neuron NSynapses="1">
          1.3010517991487998e+00 
        </Neuron>
      </Layer>
      <Layer Index="3" NNeurons="1">
        <Neuron NSynapses="0"/>
      </Layer>
    </Layout>
  </Weights>
</MethodSetup>
