<?xml version="1.0"?>
<MethodSetup Method="MLP::kMLP_pca_mse_1000">
  <GeneralInfo>
    <Info name="TMVA Release" value="4.2.0 [262656]"/>
    <Info name="ROOT Release" value="5.34/34 [336418]"/>
    <Info name="Creator" value="knowakow"/>
    <Info name="Date" value="Wed Mar 27 21:33:10 2019"/>
    <Info name="Host" value="Linux lxbuild05 3.16.0-4-amd64 #1 SMP Debian 3.16.7-ckt20-1+deb8u4 (2016-02-29) x86_64 GNU/Linux"/>
    <Info name="Dir" value="/lustre/nyx/hades/user/knowakow/PP/FAT/TMVA"/>
    <Info name="Training events" value="20749"/>
    <Info name="TrainingTime" value="5.16623619e+02"/>
    <Info name="AnalysisType" value="Classification"/>
  </GeneralInfo>
  <Options>
    <Option name="NCycles" modified="Yes">1000</Option>
    <Option name="HiddenLayers" modified="Yes">N+1,N</Option>
    <Option name="NeuronType" modified="Yes">sigmoid</Option>
    <Option name="RandomSeed" modified="No">1</Option>
    <Option name="EstimatorType" modified="Yes">MSE</Option>
    <Option name="NeuronInputType" modified="Yes">sum</Option>
    <Option name="V" modified="Yes">False</Option>
    <Option name="VerbosityLevel" modified="No">Default</Option>
    <Option name="VarTransform" modified="Yes">N,P</Option>
    <Option name="H" modified="Yes">False</Option>
    <Option name="CreateMVAPdfs" modified="No">False</Option>
    <Option name="IgnoreNegWeightsInTraining" modified="No">False</Option>
    <Option name="TrainingMethod" modified="Yes">BP</Option>
    <Option name="LearningRate" modified="No">2.000000e-02</Option>
    <Option name="DecayRate" modified="No">1.000000e-02</Option>
    <Option name="TestRate" modified="No">10</Option>
    <Option name="EpochMonitoring" modified="No">False</Option>
    <Option name="Sampling" modified="No">1.000000e+00</Option>
    <Option name="SamplingEpoch" modified="No">1.000000e+00</Option>
    <Option name="SamplingImportance" modified="No">1.000000e+00</Option>
    <Option name="SamplingTraining" modified="No">True</Option>
    <Option name="SamplingTesting" modified="No">False</Option>
    <Option name="ResetStep" modified="No">50</Option>
    <Option name="Tau" modified="No">3.000000e+00</Option>
    <Option name="BPMode" modified="Yes">sequential</Option>
    <Option name="BatchSize" modified="No">-1</Option>
    <Option name="ConvergenceImprove" modified="No">1.000000e-30</Option>
    <Option name="ConvergenceTests" modified="No">-1</Option>
    <Option name="UseRegulator" modified="No">False</Option>
    <Option name="UpdateLimit" modified="No">10000</Option>
    <Option name="CalculateErrors" modified="No">False</Option>
    <Option name="WeightRange" modified="No">1.000000e+00</Option>
  </Options>
  <Variables NVar="9">
    <Variable VarIndex="0" Expression="dist_p_pim" Label="dist_p_pim" Title="dist_p_pim" Unit="mm" Internal="dist_p_pim" Type="F" Min="3.92466871e-04" Max="3.69215057e+02"/>
    <Variable VarIndex="1" Expression="dist_pip_pim" Label="dist_pip_pim" Title="dist_pip_pim" Unit="mm" Internal="dist_pip_pim" Type="F" Min="6.03823981e-04" Max="4.60604095e+02"/>
    <Variable VarIndex="2" Expression="eVert_x" Label="eVert_x" Title="eVert_x" Unit="mm" Internal="eVert_x" Type="F" Min="-2.64420898e+02" Max="2.08465637e+02"/>
    <Variable VarIndex="3" Expression="eVert_y" Label="eVert_y" Title="eVert_y" Unit="mm" Internal="eVert_y" Type="F" Min="-1.26187492e+02" Max="1.92305557e+02"/>
    <Variable VarIndex="4" Expression="eVert_z" Label="eVert_z" Title="eVert_z" Unit="mm" Internal="eVert_z" Type="F" Min="-9.92704697e+01" Max="4.89156738e+02"/>
    <Variable VarIndex="5" Expression="dist_p_eVert" Label="dist_p_eVert" Title="dist_p_eVert" Unit="mm" Internal="dist_p_eVert" Type="F" Min="1.75389260e-01" Max="4.04899658e+02"/>
    <Variable VarIndex="6" Expression="dist_pim_eVert" Label="dist_pim_eVert" Title="dist_pim_eVert" Unit="mm" Internal="dist_pim_eVert" Type="F" Min="5.47629409e-02" Max="3.57598816e+02"/>
    <Variable VarIndex="7" Expression="dist_lambda_eVert" Label="dist_lambda_eVert" Title="dist_lambda_eVert" Unit="mm" Internal="dist_lambda_eVert" Type="F" Min="6.87124670e-01" Max="5.28234912e+03"/>
    <Variable VarIndex="8" Expression="dist_lambda_ver_pip_pim" Label="dist_lambda_ver_pip_pim" Title="dist_lambda_ver_pip_pim" Unit="mm" Internal="dist_lambda_ver_pip_pim" Type="F" Min="4.63410437e-01" Max="3.57604688e+03"/>
  </Variables>
  <Spectators NSpec="0"/>
  <Classes NClass="2">
    <Class Name="Signal" Index="0"/>
    <Class Name="Background" Index="1"/>
  </Classes>
  <Transformations NTransformations="2">
    <Transform Name="Normalize">
      <Selection>
        <Input NInputs="9">
          <Input Type="Variable" Label="dist_p_pim" Expression="dist_p_pim"/>
          <Input Type="Variable" Label="dist_pip_pim" Expression="dist_pip_pim"/>
          <Input Type="Variable" Label="eVert_x" Expression="eVert_x"/>
          <Input Type="Variable" Label="eVert_y" Expression="eVert_y"/>
          <Input Type="Variable" Label="eVert_z" Expression="eVert_z"/>
          <Input Type="Variable" Label="dist_p_eVert" Expression="dist_p_eVert"/>
          <Input Type="Variable" Label="dist_pim_eVert" Expression="dist_pim_eVert"/>
          <Input Type="Variable" Label="dist_lambda_eVert" Expression="dist_lambda_eVert"/>
          <Input Type="Variable" Label="dist_lambda_ver_pip_pim" Expression="dist_lambda_ver_pip_pim"/>
        </Input>
        <Output NOutputs="9">
          <Output Type="Variable" Label="dist_p_pim" Expression="dist_p_pim"/>
          <Output Type="Variable" Label="dist_pip_pim" Expression="dist_pip_pim"/>
          <Output Type="Variable" Label="eVert_x" Expression="eVert_x"/>
          <Output Type="Variable" Label="eVert_y" Expression="eVert_y"/>
          <Output Type="Variable" Label="eVert_z" Expression="eVert_z"/>
          <Output Type="Variable" Label="dist_p_eVert" Expression="dist_p_eVert"/>
          <Output Type="Variable" Label="dist_pim_eVert" Expression="dist_pim_eVert"/>
          <Output Type="Variable" Label="dist_lambda_eVert" Expression="dist_lambda_eVert"/>
          <Output Type="Variable" Label="dist_lambda_ver_pip_pim" Expression="dist_lambda_ver_pip_pim"/>
        </Output>
      </Selection>
      <Class ClassIndex="0">
        <Ranges>
          <Range Index="0" Min="9.9876923486590385e-03" Max="1.1076734924316406e+02"/>
          <Range Index="1" Min="6.0382398078218102e-04" Max="1.5127163696289062e+02"/>
          <Range Index="2" Min="-6.9596122741699219e+01" Max="4.4675201416015625e+01"/>
          <Range Index="3" Min="-6.6592407226562500e+01" Max="4.0672153472900391e+01"/>
          <Range Index="4" Min="-7.3763862609863281e+01" Max="2.1443231201171875e+02"/>
          <Range Index="5" Min="1.0515649318695068e+00" Max="1.0616751098632812e+02"/>
          <Range Index="6" Min="1.0799268484115601e+00" Max="1.5776969909667969e+02"/>
          <Range Index="7" Min="6.8712466955184937e-01" Max="9.8763740539550781e+01"/>
          <Range Index="8" Min="2.0683512687683105e+00" Max="6.8535784912109375e+02"/>
        </Ranges>
      </Class>
      <Class ClassIndex="1">
        <Ranges>
          <Range Index="0" Min="3.9246687083505094e-04" Max="3.6921505737304688e+02"/>
          <Range Index="1" Min="1.0538299102336168e-03" Max="4.6060409545898438e+02"/>
          <Range Index="2" Min="-2.6442089843750000e+02" Max="2.0846563720703125e+02"/>
          <Range Index="3" Min="-1.2618749237060547e+02" Max="1.9230555725097656e+02"/>
          <Range Index="4" Min="-9.9270469665527344e+01" Max="4.8915673828125000e+02"/>
          <Range Index="5" Min="1.7538926005363464e-01" Max="4.0489965820312500e+02"/>
          <Range Index="6" Min="5.4762940853834152e-02" Max="3.5759881591796875e+02"/>
          <Range Index="7" Min="8.4947222471237183e-01" Max="5.2823491210937500e+03"/>
          <Range Index="8" Min="4.6341043710708618e-01" Max="3.5760468750000000e+03"/>
        </Ranges>
      </Class>
      <Class ClassIndex="2">
        <Ranges>
          <Range Index="0" Min="3.9246687083505094e-04" Max="3.6921505737304688e+02"/>
          <Range Index="1" Min="6.0382398078218102e-04" Max="4.6060409545898438e+02"/>
          <Range Index="2" Min="-2.6442089843750000e+02" Max="2.0846563720703125e+02"/>
          <Range Index="3" Min="-1.2618749237060547e+02" Max="1.9230555725097656e+02"/>
          <Range Index="4" Min="-9.9270469665527344e+01" Max="4.8915673828125000e+02"/>
          <Range Index="5" Min="1.7538926005363464e-01" Max="4.0489965820312500e+02"/>
          <Range Index="6" Min="5.4762940853834152e-02" Max="3.5759881591796875e+02"/>
          <Range Index="7" Min="6.8712466955184937e-01" Max="5.2823491210937500e+03"/>
          <Range Index="8" Min="4.6341043710708618e-01" Max="3.5760468750000000e+03"/>
        </Ranges>
      </Class>
    </Transform>
    <Transform Name="PCA">
      <Selection>
        <Input NInputs="9">
          <Input Type="Variable" Label="dist_p_pim" Expression="dist_p_pim"/>
          <Input Type="Variable" Label="dist_pip_pim" Expression="dist_pip_pim"/>
          <Input Type="Variable" Label="eVert_x" Expression="eVert_x"/>
          <Input Type="Variable" Label="eVert_y" Expression="eVert_y"/>
          <Input Type="Variable" Label="eVert_z" Expression="eVert_z"/>
          <Input Type="Variable" Label="dist_p_eVert" Expression="dist_p_eVert"/>
          <Input Type="Variable" Label="dist_pim_eVert" Expression="dist_pim_eVert"/>
          <Input Type="Variable" Label="dist_lambda_eVert" Expression="dist_lambda_eVert"/>
          <Input Type="Variable" Label="dist_lambda_ver_pip_pim" Expression="dist_lambda_ver_pip_pim"/>
        </Input>
        <Output NOutputs="9">
          <Output Type="Variable" Label="dist_p_pim" Expression="dist_p_pim"/>
          <Output Type="Variable" Label="dist_pip_pim" Expression="dist_pip_pim"/>
          <Output Type="Variable" Label="eVert_x" Expression="eVert_x"/>
          <Output Type="Variable" Label="eVert_y" Expression="eVert_y"/>
          <Output Type="Variable" Label="eVert_z" Expression="eVert_z"/>
          <Output Type="Variable" Label="dist_p_eVert" Expression="dist_p_eVert"/>
          <Output Type="Variable" Label="dist_pim_eVert" Expression="dist_pim_eVert"/>
          <Output Type="Variable" Label="dist_lambda_eVert" Expression="dist_lambda_eVert"/>
          <Output Type="Variable" Label="dist_lambda_ver_pip_pim" Expression="dist_lambda_ver_pip_pim"/>
        </Output>
      </Selection>
      <Statistics Class="Signal" ClassIndex="0" NRows="9">
        -9.64236303e-01 -9.41006407e-01 1.17875842e-01 -2.07585717e-01 -7.40593314e-01 -8.54217352e-01 -8.57266614e-01 -9.89881417e-01 -9.71909448e-01 
      </Statistics>
      <Statistics Class="Background" ClassIndex="1" NRows="9">
        -9.14073855e-01 -9.23884006e-01 1.17668476e-01 -2.08151486e-01 -7.40350143e-01 -8.52651253e-01 -8.41296156e-01 -9.72313888e-01 -9.65545020e-01 
      </Statistics>
      <Statistics Class="Combined" ClassIndex="2" NRows="9">
        -9.16919352e-01 -9.24855285e-01 1.17680239e-01 -2.08119392e-01 -7.40363937e-01 -8.52740091e-01 -8.42202090e-01 -9.73310417e-01 -9.65906047e-01 
      </Statistics>
      <Eigenvectors Class="Signal" ClassIndex="0" NRows="9" NCols="9">
        9.78729169e-02 -1.58507330e-02 1.14036527e-01 -9.68394129e-01 -1.96545606e-01 2.27031199e-02 -4.24448520e-03 -1.45994629e-02 -1.16619126e-03 8.88632403e-02 9.91340655e-01 2.70500599e-02 6.17780400e-03 -5.05161866e-02 -1.22701010e-02 -7.65330192e-02 4.17286426e-03 5.22178115e-05 -1.04147075e-02 -1.50602377e-02 -8.31314863e-03 9.15746999e-03 -6.94264601e-04 -1.95384052e-01 -2.29561357e-01 -9.53214471e-01 -4.48344461e-03 -6.92688831e-03 -7.22327623e-03 -1.36993265e-02 -2.25605856e-02 -2.79796932e-02 -9.79401568e-01 7.71577913e-02 1.82295940e-01 -2.78587917e-03 -1.08561226e-01 3.10292206e-02 6.59442984e-01 -8.41812001e-02 7.37662611e-01 -2.73044780e-02 1.93329737e-02 -5.44994313e-03 -2.23508407e-03 4.16220677e-01 4.56460043e-03 -6.38227847e-01 -1.58490918e-01 6.16090198e-01 -1.13697532e-02 -9.93954780e-02 2.49421389e-02 6.39326384e-02 8.90800970e-01 -1.00165993e-01 3.69144858e-01 1.70628364e-01 -1.75618564e-01 -1.10807093e-02 -1.57986592e-03 -6.98141644e-03 6.52248284e-03 3.27635572e-02 -1.64093674e-04 -4.01209858e-02 -7.71689647e-03 3.70453677e-02 2.88927634e-03 -4.20989515e-03 5.00873601e-03 -9.97914706e-01 5.23713501e-02 7.54756389e-02 -7.70047472e-02 -1.42257124e-02 4.59031069e-02 3.04256006e-02 9.61872910e-01 -2.39153017e-01 1.44695571e-03 
      </Eigenvectors>
      <Eigenvectors Class="Background" ClassIndex="1" NRows="9" NCols="9">
        6.43215763e-01 -1.66806403e-02 7.54403428e-01 1.07292157e-01 -6.40170618e-02 -3.03582298e-02 -1.37563903e-02 -2.70498121e-03 1.19472756e-02 1.27034772e-01 9.81834050e-01 -9.09826908e-02 2.45313827e-02 6.30561660e-03 -7.08229387e-02 7.69800889e-02 -8.65908445e-04 -1.44670089e-03 -7.16760140e-03 -2.90664329e-03 -9.51790967e-03 1.36921385e-02 7.76929577e-03 1.67434094e-02 6.50999199e-02 -1.35863844e-01 9.88243100e-01 -1.21955023e-02 2.29285283e-03 -8.14573187e-03 6.66169885e-02 -8.87765152e-02 -4.47628706e-02 -6.02340906e-02 9.81044254e-01 1.39215224e-01 -3.29043086e-03 3.72713637e-02 1.67055745e-01 -7.68432280e-01 6.01728567e-01 7.72103484e-02 -4.25792297e-03 1.08108589e-01 2.14458568e-02 4.03093242e-01 -1.08997344e-01 -3.48129853e-01 4.59616398e-01 6.78393415e-01 5.74401896e-02 1.64559513e-01 4.77897292e-02 -1.76945360e-02 6.25238863e-01 -1.15982859e-01 -5.05161962e-01 -4.17921245e-01 -3.92376529e-01 7.15422396e-02 8.16880892e-02 4.68077884e-03 2.25367689e-03 1.14676812e-01 -2.38776091e-02 -1.27809217e-01 -2.06675416e-02 1.06727827e-01 -6.98633688e-01 -6.80571811e-01 -6.87368089e-02 4.61968249e-02 5.80185196e-02 9.17508011e-02 -4.26010883e-02 8.02532878e-02 1.65939592e-02 6.99507181e-01 -6.99335245e-01 -1.91608330e-02 3.06205766e-02 
      </Eigenvectors>
      <Eigenvectors Class="Combined" ClassIndex="2" NRows="9" NCols="9">
        6.33409073e-01 -1.18450001e-02 7.62384912e-01 1.05228592e-01 -7.42468333e-02 -2.50210433e-02 -8.83079331e-03 2.25696804e-03 -1.12743389e-02 1.29617440e-01 9.81041122e-01 -9.69417417e-02 2.40824198e-02 3.18268359e-03 -7.19331104e-02 7.47953899e-02 3.11179463e-04 1.01159456e-03 -7.28166131e-03 -3.35085891e-03 -9.07183697e-03 1.37238803e-02 6.49400528e-03 1.33080325e-02 6.57779828e-02 1.25496946e-01 -9.89631044e-01 -1.19814532e-02 1.88825016e-03 -8.01659808e-03 5.80427272e-02 -9.05574015e-02 -4.31785790e-02 -6.49206212e-02 -9.82580627e-01 -1.29132674e-01 -5.96305226e-03 3.91824960e-02 1.71674824e-01 -7.26111756e-01 6.51822545e-01 7.40767938e-02 -3.08815094e-03 -1.04650443e-01 -1.99347413e-02 4.03924985e-01 -1.10291831e-01 -3.39743705e-01 5.04760621e-01 6.50106864e-01 4.95310606e-02 1.63714758e-01 -4.77281338e-02 1.72768945e-02 6.34094074e-01 -1.22340416e-01 -4.99322043e-01 -4.42983635e-01 -3.56580487e-01 6.41214054e-02 7.81582454e-02 -4.82309997e-03 -2.71161406e-03 1.14387922e-01 -2.28981889e-02 -1.15087066e-01 -8.88456483e-03 1.06796641e-01 -6.79522652e-01 -7.01931995e-01 7.13997287e-02 -4.58705088e-02 5.86928037e-02 9.06209643e-02 -4.19453902e-02 8.03409880e-02 1.29511433e-02 7.19968607e-01 -6.78348687e-01 2.07307574e-02 -3.19323233e-02 
      </Eigenvectors>
    </Transform>
  </Transformations>
  <MVAPdfs/>
  <Weights>
    <Layout NLayers="4">
      <Layer Index="0" NNeurons="10">
        <Neuron NSynapses="10">
          -1.2867111457289755e+00 3.3528748811972617e+00 6.5766579896078048e-01 1.6099201204556890e+00 -2.1530745258134565e+00 -1.0470663881026061e+00 -1.4617680097652413e-01 2.1749687818235395e+00 -2.9678361647602505e+00 -1.2085349898081514e+00 
        </Neuron>
        <Neuron NSynapses="10">
          -1.2464956882931968e+00 -5.7476312654991327e-02 -1.1261026359140465e+00 -3.8245764711008678e-01 -6.7476003014841790e-01 5.4889734506046939e-01 -5.7192951534956527e-01 6.1514011115880318e-01 6.4110325911517840e-01 1.4434181271031639e+00 
        </Neuron>
        <Neuron NSynapses="10">
          -9.2453097395882089e-01 3.0792815431141016e-02 5.3756113614390144e-01 -1.1139887245054944e-01 -9.1154452003785402e-01 -2.3626561945505262e-01 1.7892016875050241e+00 -1.4253056444619585e+00 -1.9463774117790555e+00 -3.9118394717867710e-01 
        </Neuron>
        <Neuron NSynapses="10">
          1.1194129605132690e+00 1.7440467682820477e+00 -2.2287495280480885e-01 -2.0899204673112023e-01 3.9328604027186820e-01 -6.3912400150762094e-01 -1.7392382405848792e+00 1.1230227634012602e+00 -1.2749916552025017e-01 1.1285072914784440e+00 
        </Neuron>
        <Neuron NSynapses="10">
          7.8660213370347642e-01 5.0338668896483074e-01 1.8863815433895470e+00 1.1849229488575235e+00 -5.8786016390380114e-01 -1.1381069121350396e+00 8.4419532050826862e-01 9.0537105429010700e-01 8.8240312039231605e-01 1.6419072050326515e+00 
        </Neuron>
        <Neuron NSynapses="10">
          2.0187592641598857e+00 1.7836247353783863e+00 -1.9438078271477042e+00 1.3069838805713760e+00 -1.4560203693366101e+00 -1.0751378164656076e+00 -1.6769999728238827e+00 -3.3169908390080165e+00 3.2520441075037931e+00 3.6838125744585543e-01 
        </Neuron>
        <Neuron NSynapses="10">
          -2.2697077155078363e-01 1.4721671600395116e+00 -6.7127429131466254e-01 7.7402595039077560e-01 2.4269129556498301e+00 -8.6960625556667537e-01 -5.9159935606040337e-01 -4.2580335914281022e+00 4.1063221897093491e+00 -1.2489855243602035e+00 
        </Neuron>
        <Neuron NSynapses="10">
          -1.2585979550837376e+00 -1.9385566161905927e+00 7.8161393777031674e-01 1.1316968126039739e+00 1.1476252047559505e+00 -8.1462195822757724e-02 -1.6383288435511416e+00 -8.9419543481173336e-01 -3.4216025112630985e-02 5.4437975895068802e-01 
        </Neuron>
        <Neuron NSynapses="10">
          2.0210929066391183e+00 7.8658969598480721e-01 9.5049931302302426e-01 -8.0668867733885885e-01 -7.9155918516400248e-01 -2.3628898681226063e-01 1.0849243118860477e+00 -1.3210623117570421e+00 -1.2903843754059472e+00 -1.7116221367739441e+00 
        </Neuron>
        <Neuron NSynapses="10">
          -3.9656481233837898e-01 1.6824985484237931e-01 1.2753402560845624e+00 -1.6627216924803045e+00 -1.1801798966301302e+00 1.4711849976044866e+00 -6.9743462443349247e-01 4.8592454541658359e-01 -7.8423783562823102e-01 3.0214795696900493e-01 
        </Neuron>
      </Layer>
      <Layer Index="1" NNeurons="11">
        <Neuron NSynapses="9">
          -1.8245243243020499e+00 -1.5898802995114418e+00 4.6141290645214844e-01 1.5940162899455890e+00 -1.0417456857478056e+00 1.5946836311632806e+00 -1.5404204261386190e+00 -1.2705568147962394e+00 3.1215245243056314e-02 
        </Neuron>
        <Neuron NSynapses="9">
          2.0307529347627193e-01 -2.3646776160912637e+00 1.4387233312911942e+00 -4.9934677717775523e-02 -1.2524101464345905e-01 -1.3487638445897543e+00 2.6539024855938806e+00 -2.8079467676999553e-01 -2.0408455306056656e+00 
        </Neuron>
        <Neuron NSynapses="9">
          9.6985970363741481e-01 -1.2827558109939501e+00 -2.2633447918611043e+00 -1.9628014443880426e-01 -3.1333337658611465e-01 1.0906265273063431e+00 5.1308797114306282e-01 -1.2751264969571685e-01 6.0091232923157623e-01 
        </Neuron>
        <Neuron NSynapses="9">
          3.1901805463314437e-01 -1.8634318730224546e+00 9.5597750695617989e-01 6.5244074781961300e-02 -1.7480242820386380e+00 2.6884698838924509e-01 -1.5798523261368798e+00 2.0946995578349104e-01 1.3086882680324745e+00 
        </Neuron>
        <Neuron NSynapses="9">
          1.5190846707681325e+00 -1.9146423442285068e+00 5.4998719644222172e-01 1.4832342730963348e+00 1.0453988744837914e+00 6.7546171030343227e-01 -1.4678277533964015e+00 -6.2048575135928019e-01 -1.7177824345154733e+00 
        </Neuron>
        <Neuron NSynapses="9">
          1.4015185611945384e+00 9.3833068833245104e-01 -6.4601876101417777e-01 -7.4325377734625642e-01 -4.0047528888708861e-01 -1.3994988914528077e+00 7.1292524667876467e-01 1.2574689029921500e+00 -8.5015756754862060e-02 
        </Neuron>
        <Neuron NSynapses="9">
          -4.6691791607875555e-01 1.7212820873093412e-01 5.6277752479095799e-01 4.2029431099848608e-01 1.0986289708971104e+00 -1.9256535733877054e+00 1.3986895904342829e+00 8.7008707591372492e-01 1.0473176838284692e+00 
        </Neuron>
        <Neuron NSynapses="9">
          7.5120885333521314e-01 1.0511196045681197e+00 -2.0799418178822147e+00 -7.2716447936356499e-01 9.6447467398056408e-01 -1.4706432335646478e+00 -7.4721156401973243e-01 2.3775681822594064e+00 2.7185251302785516e+00 
        </Neuron>
        <Neuron NSynapses="9">
          -5.6096059832416523e-01 1.3065402881206551e+00 2.9541568544275418e+00 -2.0786277847664922e+00 -5.4996412002801375e-03 6.2634385915338087e-01 6.9355049260815094e-01 -2.6229953760585984e+00 -2.9621974093004866e+00 
        </Neuron>
        <Neuron NSynapses="9">
          1.2202283205724820e+00 1.8014373649866180e+00 -2.4720165240189842e+00 -3.3479708072049125e-01 -7.6269524412011136e-01 2.0599091409514506e-01 1.3634030146774352e+00 -5.9056893936330457e-01 1.1666538613102136e-01 
        </Neuron>
        <Neuron NSynapses="9">
          -1.0638353436605026e+00 7.1707194948174879e-01 1.3912436963712420e+00 6.8686358468471975e-01 -1.3418875380226722e-01 -1.1681294848963955e+00 -2.0556891312196375e+00 6.6784947384249149e-01 9.8105986796053957e-01 
        </Neuron>
      </Layer>
      <Layer Index="2" NNeurons="10">
        <Neuron NSynapses="1">
          -2.0063025681452859e-01 
        </Neuron>
        <Neuron NSynapses="1">
          -7.8998209894136107e-01 
        </Neuron>
        <Neuron NSynapses="1">
          3.0257419347713914e+00 
        </Neuron>
        <Neuron NSynapses="1">
          -3.4314882885529424e-01 
        </Neuron>
        <Neuron NSynapses="1">
          -2.8561879485825163e-02 
        </Neuron>
        <Neuron NSynapses="1">
          1.1900813469381843e+00 
        </Neuron>
        <Neuron NSynapses="1">
          2.2805270064072243e+00 
        </Neuron>
        <Neuron NSynapses="1">
          -1.5889398039966860e+00 
        </Neuron>
        <Neuron NSynapses="1">
          -2.7978947629111923e+00 
        </Neuron>
        <Neuron NSynapses="1">
          2.4740439682373854e+00 
        </Neuron>
      </Layer>
      <Layer Index="3" NNeurons="1">
        <Neuron NSynapses="0"/>
      </Layer>
    </Layout>
  </Weights>
</MethodSetup>
