<?xml version="1.0"?>
<MethodSetup Method="MLP::kMLP_pca_ce">
  <GeneralInfo>
    <Info name="TMVA Release" value="4.2.0 [262656]"/>
    <Info name="ROOT Release" value="5.34/34 [336418]"/>
    <Info name="Creator" value="knowakow"/>
    <Info name="Date" value="Wed Mar 27 20:10:06 2019"/>
    <Info name="Host" value="Linux lxbuild05 3.16.0-4-amd64 #1 SMP Debian 3.16.7-ckt20-1+deb8u4 (2016-02-29) x86_64 GNU/Linux"/>
    <Info name="Dir" value="/lustre/nyx/hades/user/knowakow/PP/FAT/TMVA"/>
    <Info name="Training events" value="2354"/>
    <Info name="TrainingTime" value="3.20607080e+01"/>
    <Info name="AnalysisType" value="Classification"/>
  </GeneralInfo>
  <Options>
    <Option name="NCycles" modified="Yes">1000</Option>
    <Option name="HiddenLayers" modified="Yes">N+1,N</Option>
    <Option name="NeuronType" modified="Yes">sigmoid</Option>
    <Option name="RandomSeed" modified="No">1</Option>
    <Option name="EstimatorType" modified="Yes">CE</Option>
    <Option name="NeuronInputType" modified="Yes">sum</Option>
    <Option name="V" modified="Yes">False</Option>
    <Option name="VerbosityLevel" modified="No">Default</Option>
    <Option name="VarTransform" modified="Yes">N,P</Option>
    <Option name="H" modified="Yes">False</Option>
    <Option name="CreateMVAPdfs" modified="No">False</Option>
    <Option name="IgnoreNegWeightsInTraining" modified="No">False</Option>
    <Option name="TrainingMethod" modified="Yes">BP</Option>
    <Option name="LearningRate" modified="No">2.000000e-02</Option>
    <Option name="DecayRate" modified="No">1.000000e-02</Option>
    <Option name="TestRate" modified="No">10</Option>
    <Option name="EpochMonitoring" modified="No">False</Option>
    <Option name="Sampling" modified="No">1.000000e+00</Option>
    <Option name="SamplingEpoch" modified="No">1.000000e+00</Option>
    <Option name="SamplingImportance" modified="No">1.000000e+00</Option>
    <Option name="SamplingTraining" modified="No">True</Option>
    <Option name="SamplingTesting" modified="No">False</Option>
    <Option name="ResetStep" modified="No">50</Option>
    <Option name="Tau" modified="No">3.000000e+00</Option>
    <Option name="BPMode" modified="Yes">sequential</Option>
    <Option name="BatchSize" modified="No">-1</Option>
    <Option name="ConvergenceImprove" modified="No">1.000000e-30</Option>
    <Option name="ConvergenceTests" modified="No">-1</Option>
    <Option name="UseRegulator" modified="No">False</Option>
    <Option name="UpdateLimit" modified="No">10000</Option>
    <Option name="CalculateErrors" modified="No">False</Option>
    <Option name="WeightRange" modified="No">1.000000e+00</Option>
  </Options>
  <Variables NVar="9">
    <Variable VarIndex="0" Expression="dist_p_pim" Label="dist_p_pim" Title="dist_p_pim" Unit="mm" Internal="dist_p_pim" Type="F" Min="3.92466871e-04" Max="1.93118484e+02"/>
    <Variable VarIndex="1" Expression="dist_pip_pim" Label="dist_pip_pim" Title="dist_pip_pim" Unit="mm" Internal="dist_pip_pim" Type="F" Min="2.90864613e-03" Max="2.75433563e+02"/>
    <Variable VarIndex="2" Expression="eVert_x" Label="eVert_x" Title="eVert_x" Unit="mm" Internal="eVert_x" Type="F" Min="-6.95961227e+01" Max="4.73017960e+01"/>
    <Variable VarIndex="3" Expression="eVert_y" Label="eVert_y" Title="eVert_y" Unit="mm" Internal="eVert_y" Type="F" Min="-6.65924072e+01" Max="3.28105011e+01"/>
    <Variable VarIndex="4" Expression="eVert_z" Label="eVert_z" Title="eVert_z" Unit="mm" Internal="eVert_z" Type="F" Min="-8.99312820e+01" Max="1.82428162e+02"/>
    <Variable VarIndex="5" Expression="dist_p_eVert" Label="dist_p_eVert" Title="dist_p_eVert" Unit="mm" Internal="dist_p_eVert" Type="F" Min="7.28023797e-02" Max="1.73723068e+02"/>
    <Variable VarIndex="6" Expression="dist_pim_eVert" Label="dist_pim_eVert" Title="dist_pim_eVert" Unit="mm" Internal="dist_pim_eVert" Type="F" Min="4.10466492e-01" Max="1.57769699e+02"/>
    <Variable VarIndex="7" Expression="dist_lambda_eVert" Label="dist_lambda_eVert" Title="dist_lambda_eVert" Unit="mm" Internal="dist_lambda_eVert" Type="F" Min="3.41899633e-01" Max="1.30440125e+03"/>
    <Variable VarIndex="8" Expression="dist_lambda_ver_pip_pim" Label="dist_lambda_ver_pip_pim" Title="dist_lambda_ver_pip_pim" Unit="mm" Internal="dist_lambda_ver_pip_pim" Type="F" Min="1.46781886e+00" Max="6.85357849e+02"/>
  </Variables>
  <Spectators NSpec="0"/>
  <Classes NClass="2">
    <Class Name="Signal" Index="0"/>
    <Class Name="Background" Index="1"/>
  </Classes>
  <Transformations NTransformations="2">
    <Transform Name="Normalize">
      <Selection>
        <Input NInputs="9">
          <Input Type="Variable" Label="dist_p_pim" Expression="dist_p_pim"/>
          <Input Type="Variable" Label="dist_pip_pim" Expression="dist_pip_pim"/>
          <Input Type="Variable" Label="eVert_x" Expression="eVert_x"/>
          <Input Type="Variable" Label="eVert_y" Expression="eVert_y"/>
          <Input Type="Variable" Label="eVert_z" Expression="eVert_z"/>
          <Input Type="Variable" Label="dist_p_eVert" Expression="dist_p_eVert"/>
          <Input Type="Variable" Label="dist_pim_eVert" Expression="dist_pim_eVert"/>
          <Input Type="Variable" Label="dist_lambda_eVert" Expression="dist_lambda_eVert"/>
          <Input Type="Variable" Label="dist_lambda_ver_pip_pim" Expression="dist_lambda_ver_pip_pim"/>
        </Input>
        <Output NOutputs="9">
          <Output Type="Variable" Label="dist_p_pim" Expression="dist_p_pim"/>
          <Output Type="Variable" Label="dist_pip_pim" Expression="dist_pip_pim"/>
          <Output Type="Variable" Label="eVert_x" Expression="eVert_x"/>
          <Output Type="Variable" Label="eVert_y" Expression="eVert_y"/>
          <Output Type="Variable" Label="eVert_z" Expression="eVert_z"/>
          <Output Type="Variable" Label="dist_p_eVert" Expression="dist_p_eVert"/>
          <Output Type="Variable" Label="dist_pim_eVert" Expression="dist_pim_eVert"/>
          <Output Type="Variable" Label="dist_lambda_eVert" Expression="dist_lambda_eVert"/>
          <Output Type="Variable" Label="dist_lambda_ver_pip_pim" Expression="dist_lambda_ver_pip_pim"/>
        </Output>
      </Selection>
      <Class ClassIndex="0">
        <Ranges>
          <Range Index="0" Min="3.9246687083505094e-04" Max="1.4628904724121094e+02"/>
          <Range Index="1" Min="1.4665067195892334e-02" Max="2.2523158264160156e+02"/>
          <Range Index="2" Min="-6.9596122741699219e+01" Max="3.9888107299804688e+01"/>
          <Range Index="3" Min="-6.6592407226562500e+01" Max="3.2810501098632812e+01"/>
          <Range Index="4" Min="-7.1911727905273438e+01" Max="1.8242816162109375e+02"/>
          <Range Index="5" Min="7.2802379727363586e-02" Max="1.4354609680175781e+02"/>
          <Range Index="6" Min="4.7674450278282166e-01" Max="1.5776969909667969e+02"/>
          <Range Index="7" Min="3.4189963340759277e-01" Max="1.4250509643554688e+02"/>
          <Range Index="8" Min="2.0683512687683105e+00" Max="6.8535784912109375e+02"/>
        </Ranges>
      </Class>
      <Class ClassIndex="1">
        <Ranges>
          <Range Index="0" Min="7.7364118769764900e-03" Max="1.9311848449707031e+02"/>
          <Range Index="1" Min="2.9086461290717125e-03" Max="2.7543356323242188e+02"/>
          <Range Index="2" Min="-5.1974723815917969e+01" Max="4.7301795959472656e+01"/>
          <Range Index="3" Min="-2.5652727127075195e+01" Max="2.8827011108398438e+01"/>
          <Range Index="4" Min="-8.9931282043457031e+01" Max="1.5992741394042969e+02"/>
          <Range Index="5" Min="1.4438147544860840e+00" Max="1.7372306823730469e+02"/>
          <Range Index="6" Min="4.1046649217605591e-01" Max="1.5776969909667969e+02"/>
          <Range Index="7" Min="3.0571944713592529e+00" Max="1.3044012451171875e+03"/>
          <Range Index="8" Min="1.4678188562393188e+00" Max="5.7386712646484375e+02"/>
        </Ranges>
      </Class>
      <Class ClassIndex="2">
        <Ranges>
          <Range Index="0" Min="3.9246687083505094e-04" Max="1.9311848449707031e+02"/>
          <Range Index="1" Min="2.9086461290717125e-03" Max="2.7543356323242188e+02"/>
          <Range Index="2" Min="-6.9596122741699219e+01" Max="4.7301795959472656e+01"/>
          <Range Index="3" Min="-6.6592407226562500e+01" Max="3.2810501098632812e+01"/>
          <Range Index="4" Min="-8.9931282043457031e+01" Max="1.8242816162109375e+02"/>
          <Range Index="5" Min="7.2802379727363586e-02" Max="1.7372306823730469e+02"/>
          <Range Index="6" Min="4.1046649217605591e-01" Max="1.5776969909667969e+02"/>
          <Range Index="7" Min="3.4189963340759277e-01" Max="1.3044012451171875e+03"/>
          <Range Index="8" Min="1.4678188562393188e+00" Max="6.8535784912109375e+02"/>
        </Ranges>
      </Class>
    </Transform>
    <Transform Name="PCA">
      <Selection>
        <Input NInputs="9">
          <Input Type="Variable" Label="dist_p_pim" Expression="dist_p_pim"/>
          <Input Type="Variable" Label="dist_pip_pim" Expression="dist_pip_pim"/>
          <Input Type="Variable" Label="eVert_x" Expression="eVert_x"/>
          <Input Type="Variable" Label="eVert_y" Expression="eVert_y"/>
          <Input Type="Variable" Label="eVert_z" Expression="eVert_z"/>
          <Input Type="Variable" Label="dist_p_eVert" Expression="dist_p_eVert"/>
          <Input Type="Variable" Label="dist_pim_eVert" Expression="dist_pim_eVert"/>
          <Input Type="Variable" Label="dist_lambda_eVert" Expression="dist_lambda_eVert"/>
          <Input Type="Variable" Label="dist_lambda_ver_pip_pim" Expression="dist_lambda_ver_pip_pim"/>
        </Input>
        <Output NOutputs="9">
          <Output Type="Variable" Label="dist_p_pim" Expression="dist_p_pim"/>
          <Output Type="Variable" Label="dist_pip_pim" Expression="dist_pip_pim"/>
          <Output Type="Variable" Label="eVert_x" Expression="eVert_x"/>
          <Output Type="Variable" Label="eVert_y" Expression="eVert_y"/>
          <Output Type="Variable" Label="eVert_z" Expression="eVert_z"/>
          <Output Type="Variable" Label="dist_p_eVert" Expression="dist_p_eVert"/>
          <Output Type="Variable" Label="dist_pim_eVert" Expression="dist_pim_eVert"/>
          <Output Type="Variable" Label="dist_lambda_eVert" Expression="dist_lambda_eVert"/>
          <Output Type="Variable" Label="dist_lambda_ver_pip_pim" Expression="dist_lambda_ver_pip_pim"/>
        </Output>
      </Selection>
      <Statistics Class="Signal" ClassIndex="0" NRows="9">
        -9.28119603e-01 -9.05683098e-01 1.87371661e-01 3.41373544e-01 -5.12510992e-01 -6.60382186e-01 -6.79943514e-01 -9.58656316e-01 -8.62572781e-01 
      </Statistics>
      <Statistics Class="Background" ClassIndex="1" NRows="9">
        -8.35239751e-01 -8.62281234e-01 1.88314300e-01 3.29019123e-01 -5.11892692e-01 -6.62629238e-01 -6.54001979e-01 -8.94967758e-01 -8.29169839e-01 
      </Statistics>
      <Statistics Class="Combined" ClassIndex="2" NRows="9">
        -8.81679677e-01 -8.83982166e-01 1.87842980e-01 3.35196333e-01 -5.12201842e-01 -6.61505712e-01 -6.66972746e-01 -9.26812037e-01 -8.45871310e-01 
      </Statistics>
      <Eigenvectors Class="Signal" ClassIndex="0" NRows="9" NCols="9">
        8.63955192e-02 -2.69083330e-02 -1.77202066e-01 -9.04273512e-01 -2.00518126e-01 2.80513256e-01 -1.46926696e-01 4.70840027e-02 -1.01775486e-03 3.92363053e-02 2.58614322e-01 -8.87958067e-01 1.87098391e-01 -2.84944958e-01 -1.62125375e-01 -2.13995124e-02 1.28512911e-02 -1.56407076e-03 -1.15419358e-02 8.90074622e-03 6.31334867e-02 1.00272675e-01 -1.96160871e-01 1.74166139e-01 1.98738644e-01 9.36706169e-01 -4.32285394e-03 1.11277609e-02 7.72080512e-03 9.42204960e-03 6.18961485e-02 -3.05788537e-01 4.44508784e-01 7.76688798e-01 -3.18677150e-01 -1.16237981e-03 -1.21458187e-01 -3.87892195e-01 -3.07452075e-01 -2.37228803e-01 5.79675289e-01 -3.10998504e-01 4.85518761e-01 1.24497619e-01 -3.41110417e-03 4.60196459e-01 6.21715478e-01 2.18661741e-01 -2.13611389e-01 4.31410158e-02 -4.53669989e-01 2.94515453e-01 3.93040945e-02 1.10835603e-01 8.55142522e-01 -4.82856347e-01 -7.03156834e-02 1.46561287e-01 -3.41280844e-02 5.95390333e-02 -6.57876524e-02 -3.37722138e-05 1.09027594e-02 6.14951999e-02 6.60707598e-02 2.54908819e-02 -2.10025858e-02 6.11718172e-03 -4.84942923e-02 2.86242502e-02 2.98658095e-04 -9.93757288e-01 1.70751335e-01 3.97177105e-01 -1.67694573e-01 9.78223654e-02 6.38377946e-01 5.98892854e-01 -8.71601257e-02 3.99976118e-02 2.80975702e-03 
      </Eigenvectors>
      <Eigenvectors Class="Background" ClassIndex="1" NRows="9" NCols="9">
        4.81870075e-01 -1.42976184e-01 7.90923104e-01 2.56695374e-01 2.76890532e-02 -9.33473276e-02 -2.02652715e-01 1.11859096e-03 -7.31941882e-02 4.01594313e-02 8.61678066e-01 2.30839924e-01 -3.29049534e-01 2.87876491e-01 -8.77701363e-02 5.44593897e-02 -2.68138082e-02 -8.72855190e-03 -2.75918696e-02 1.68530294e-03 -7.45776124e-02 -2.80017015e-02 3.02044765e-02 1.34923685e-02 -4.38487960e-02 2.21241680e-01 -9.70012877e-01 -4.23016381e-02 6.83658700e-02 -8.55435591e-02 1.24153465e-02 8.08737471e-02 4.11236295e-02 -5.48649364e-01 7.93701373e-01 2.16460452e-01 -9.20544872e-02 -1.03103923e-01 2.98372674e-01 -9.09967940e-02 2.79024199e-02 4.38382544e-01 6.84171128e-01 4.67278632e-01 6.47428145e-02 4.45729769e-01 1.33780110e-01 -3.80198032e-01 5.61621856e-01 3.69511154e-01 -2.20126081e-01 3.34853336e-01 1.59444860e-01 3.02456173e-02 7.01184829e-01 -1.23590923e-01 -2.31305811e-01 -6.03191046e-01 -2.45754732e-01 -3.83940936e-02 6.29641789e-02 9.60124811e-02 2.59021935e-02 2.20609743e-01 -1.97295412e-03 -1.31561006e-01 2.96975896e-02 3.84940534e-01 8.05409968e-01 -2.62099884e-01 -2.59098599e-01 -2.10793773e-02 1.27121332e-01 4.34264715e-01 -6.23424388e-02 3.69424880e-01 -7.50343873e-01 3.01521831e-01 -1.22263743e-02 1.57338331e-02 -2.37617787e-02 
      </Eigenvectors>
      <Eigenvectors Class="Combined" ClassIndex="2" NRows="9" NCols="9">
        3.19408099e-01 1.57898894e-02 8.05872553e-01 4.35379898e-01 8.86678258e-03 2.18878997e-01 -4.77387900e-03 9.04962475e-02 -5.04373055e-02 5.65244955e-02 8.16678468e-01 1.93623603e-01 -4.22359057e-01 -3.30711420e-01 -1.72126934e-02 5.39491374e-02 3.23504963e-02 -1.84554503e-02 -1.96313001e-02 -1.12649144e-02 -6.63383989e-02 -2.08635544e-02 -5.09802908e-02 1.63093734e-01 -2.18757381e-01 -1.64582131e-01 -9.43668913e-01 -1.96552701e-02 3.80925449e-02 -8.48197639e-02 -3.83725570e-02 -7.03269574e-02 3.94172864e-01 -8.61831386e-01 1.51227561e-01 2.52100262e-01 -1.12459522e-01 -1.02927998e-01 3.44077833e-01 -1.85314384e-01 1.49887748e-01 -7.88503282e-01 -4.10972935e-01 6.98015185e-02 -7.78006339e-02 4.64734843e-01 2.00134976e-01 -4.01508279e-01 5.29326338e-01 -3.08810190e-01 -3.68996464e-01 -1.05146053e-01 2.37555319e-01 -5.96816612e-02 7.83176005e-01 -2.94658657e-01 -3.30037033e-02 -5.37169077e-01 7.73600223e-02 4.82483648e-02 1.73584537e-02 3.91182662e-02 -5.26570004e-03 1.61637462e-01 2.99523431e-02 1.76495953e-02 1.12765544e-01 -1.53205613e-01 -9.65899014e-02 -1.51335190e-01 -9.33340083e-01 1.81991741e-01 1.60918576e-01 4.39135481e-01 -1.43125631e-01 1.19812151e-01 8.57741140e-01 1.64488561e-02 -5.74497166e-02 -8.27531971e-02 -1.69220228e-02 
      </Eigenvectors>
    </Transform>
  </Transformations>
  <MVAPdfs/>
  <Weights>
    <Layout NLayers="4">
      <Layer Index="0" NNeurons="10">
        <Neuron NSynapses="10">
          -1.4586254475348945e+00 1.2754998053860693e+00 9.3726787068577427e-02 3.5977955449832011e-01 -3.2834831121650696e+00 -9.8140927357110086e-01 5.5129190938192973e-01 1.2043624617011370e+00 -1.3182159190056322e+00 -1.2490827579604455e+00 
        </Neuron>
        <Neuron NSynapses="10">
          -2.1205917863050328e+00 -6.7944687391540615e-01 -7.5863541324741757e-01 -8.4362147784421138e-01 3.3482662798728664e+00 6.4612227560769808e-01 9.5310457481798827e-01 8.8786075532301867e-01 -4.0496430203306988e-01 1.9118259676273341e+00 
        </Neuron>
        <Neuron NSynapses="10">
          -3.7362373351374523e-01 -1.1678187435060267e-01 8.2375513553426305e-01 8.2676034473837301e-01 -3.9941374937945504e+00 -7.6598621683073498e-01 1.2437470018296131e+00 1.3165694379733586e-01 -2.4469896098149255e+00 2.2799685639861084e-01 
        </Neuron>
        <Neuron NSynapses="10">
          4.1438487424726805e-01 2.8048353574806906e+00 -5.6012167830367576e-01 -1.2188668857434568e+00 6.2669397407338634e+00 6.0095310063792218e-01 1.4689756465915531e+00 2.4975460840766379e+00 -3.1684299474766715e+00 1.2808479425894306e+00 
        </Neuron>
        <Neuron NSynapses="10">
          1.9275436179042633e+00 -5.0936904985497466e-01 1.6679533742167540e+00 2.7375573882599218e+00 -1.6695692744695239e+00 -2.3755485522859869e+00 -8.5855103829271129e-01 -1.0733884219220373e+00 2.1555406159525345e+00 1.7696467106905864e+00 
        </Neuron>
        <Neuron NSynapses="10">
          1.5019390137610835e+00 3.9948202000707334e-01 -1.2351278640814027e+00 8.0263474737271390e-01 -2.2583428119223377e+00 -7.5909830542516954e-01 -1.8696954534793018e+00 -1.4467356399667426e+00 1.9577619840179949e+00 9.6494273559138455e-01 
        </Neuron>
        <Neuron NSynapses="10">
          -7.5296481703204954e-01 -2.0218758778496491e+00 9.2944087366789452e-01 1.9226110358718866e+00 3.6181563004987366e-01 -1.0291928368550554e+00 -1.7781223628627656e+00 -2.9885240287064350e+00 1.5390504820801061e+00 -3.6767478245608881e-01 
        </Neuron>
        <Neuron NSynapses="10">
          6.6491872077688363e+00 -1.0591972519942832e+01 5.9233672983247629e+00 9.3570478173583833e+00 1.0261934366309504e+01 -3.8107712828433975e+00 -1.4489115975356373e+01 -1.1133011579485487e+01 6.3076365801593033e+00 2.2930910288141040e+00 
        </Neuron>
        <Neuron NSynapses="10">
          2.1913704759928315e-01 1.7481454432446371e+00 -1.3604584609964221e-01 -1.7357984699443356e+00 -2.4057116428763838e+00 2.8637144251897240e-01 4.5795898489715805e+00 2.2767115277133279e-01 -2.4914835970819516e+00 -2.1342929608443173e+00 
        </Neuron>
        <Neuron NSynapses="10">
          7.9356817115103867e-02 8.4948860046863273e-01 -3.4948400532309476e-01 -2.3100314600187422e-01 -1.5741663577895231e+00 -2.6600775948549504e-01 3.2592115865454352e-01 6.3850882736408221e-01 -7.0927436382136511e-01 -2.8881040177259398e-01 
        </Neuron>
      </Layer>
      <Layer Index="1" NNeurons="11">
        <Neuron NSynapses="9">
          -1.8879917568820597e+00 -2.0805434618731962e+00 7.5427918994013321e-01 1.6378446406740610e+00 -2.1137835609002678e+00 3.5512702193576526e+00 -1.5788325717281138e+00 -1.6871875815215014e+00 -6.1175242739753188e-01 
        </Neuron>
        <Neuron NSynapses="9">
          7.3567259963927445e-01 -6.8111630880216356e-01 -1.0917276414368615e+00 -2.9798313009872424e-01 3.6890350002180248e+00 -6.2373368599233485e+00 3.4065900630305337e+00 1.8017386299594109e+00 6.6145737536048432e-01 
        </Neuron>
        <Neuron NSynapses="9">
          8.1048386962202323e-01 -1.4271997136153325e+00 -1.5399955250333872e+00 5.1422738182110322e-02 -1.7818927137346718e+00 4.4557239246394067e+00 5.5300688868633457e-02 -1.4882663091986117e+00 -9.6830133499585547e-01 
        </Neuron>
        <Neuron NSynapses="9">
          -7.3047221025741765e-02 -2.6018367261200188e+00 1.6558203994142378e+00 2.7561495558405807e-01 -4.0401174046434676e+00 5.0990977884806998e+00 -2.8407890232484245e+00 -1.6374715719857487e+00 -3.1561728552158796e-01 
        </Neuron>
        <Neuron NSynapses="9">
          1.4134769526809325e+00 -3.5048774503262323e+00 1.6065094498274717e+00 1.8523770979272951e+00 -3.2547362134072806e+00 7.1626583654996407e+00 -3.3623551245377299e+00 -2.9138814909109527e+00 -3.7088278680775835e+00 
        </Neuron>
        <Neuron NSynapses="9">
          1.7164346778973443e+00 1.3829672130238475e+00 -1.0379005804611312e+00 -7.2058921176822532e-01 2.2693807819003345e-01 -2.0788624818349666e+00 1.1480481013249992e+00 1.5793877407096792e+00 -2.6624670343924309e-02 
        </Neuron>
        <Neuron NSynapses="9">
          -2.2867526154181270e-01 1.8685354670803904e+00 -5.3632188023434113e-01 -2.5235224159079851e-02 4.8166966625736460e+00 -7.7154140036589567e+00 3.4960433876160395e+00 2.7562815403184406e+00 2.8929295203358993e+00 
        </Neuron>
        <Neuron NSynapses="9">
          8.8557589084917610e-01 2.0584601491791035e+00 -1.6979825554730787e+00 -1.1481207427561564e+00 3.7158715760097869e+00 -5.5256061453847423e+00 1.0653560194460654e+00 2.9592160576738542e+00 2.3540067642538238e+00 
        </Neuron>
        <Neuron NSynapses="9">
          -5.6697237028958403e-01 6.9105698806216009e-01 2.4659043830509315e+00 -1.7654495706558961e+00 -1.8113469408709453e+00 4.1726381604144489e+00 -7.0781126638750691e-01 -3.0886615025739417e+00 -2.8953012103298357e+00 
        </Neuron>
        <Neuron NSynapses="9">
          1.2301333454900576e+00 1.3394644344930273e+00 -1.6346086189385014e+00 -2.6559673469691036e-01 -1.9128453347611380e+00 2.1903812067637265e+00 1.1060531553389059e+00 -1.3688423548204141e+00 -1.0226843581987721e+00 
        </Neuron>
        <Neuron NSynapses="9">
          -1.0120538969171609e+00 8.7601802822068831e-01 1.2914193971989276e+00 7.7916452197643982e-01 -5.7724072076303534e-01 8.4481284626195030e-01 -2.2027201444329347e+00 3.7374427254322669e-02 1.9411981825812757e-01 
        </Neuron>
      </Layer>
      <Layer Index="2" NNeurons="10">
        <Neuron NSynapses="1">
          -2.1110609485314324e-01 
        </Neuron>
        <Neuron NSynapses="1">
          -3.3101950116811034e+00 
        </Neuron>
        <Neuron NSynapses="1">
          3.1345793990450943e+00 
        </Neuron>
        <Neuron NSynapses="1">
          1.6812773691667684e+00 
        </Neuron>
        <Neuron NSynapses="1">
          -7.9549461006135083e+00 
        </Neuron>
        <Neuron NSynapses="1">
          1.4967824039889798e+01 
        </Neuron>
        <Neuron NSynapses="1">
          -5.1674914763407029e+00 
        </Neuron>
        <Neuron NSynapses="1">
          -5.4427081452659705e+00 
        </Neuron>
        <Neuron NSynapses="1">
          -4.6158109328393575e+00 
        </Neuron>
        <Neuron NSynapses="1">
          3.1254098295770070e+00 
        </Neuron>
      </Layer>
      <Layer Index="3" NNeurons="1">
        <Neuron NSynapses="0"/>
      </Layer>
    </Layout>
  </Weights>
</MethodSetup>
