<?xml version="1.0"?>
<MethodSetup Method="MLP::MLP">
  <GeneralInfo>
    <Info name="TMVA Release" value="4.2.0 [262656]"/>
    <Info name="ROOT Release" value="5.34/34 [336418]"/>
    <Info name="Creator" value="knowakow"/>
    <Info name="Date" value="Sun Mar 24 09:26:50 2019"/>
    <Info name="Host" value="Linux lxbuild05 3.16.0-4-amd64 #1 SMP Debian 3.16.7-ckt20-1+deb8u4 (2016-02-29) x86_64 GNU/Linux"/>
    <Info name="Dir" value="/lustre/nyx/hades/user/knowakow/PP/FAT/TMVA"/>
    <Info name="Training events" value="2354"/>
    <Info name="TrainingTime" value="2.57987959e+01"/>
    <Info name="AnalysisType" value="Classification"/>
  </GeneralInfo>
  <Options>
    <Option name="NCycles" modified="Yes">1000</Option>
    <Option name="HiddenLayers" modified="Yes">N+1,N</Option>
    <Option name="NeuronType" modified="Yes">sigmoid</Option>
    <Option name="RandomSeed" modified="No">1</Option>
    <Option name="EstimatorType" modified="Yes">MSE</Option>
    <Option name="NeuronInputType" modified="Yes">sum</Option>
    <Option name="V" modified="Yes">False</Option>
    <Option name="VerbosityLevel" modified="No">Default</Option>
    <Option name="VarTransform" modified="Yes">N</Option>
    <Option name="H" modified="Yes">False</Option>
    <Option name="CreateMVAPdfs" modified="No">False</Option>
    <Option name="IgnoreNegWeightsInTraining" modified="No">False</Option>
    <Option name="TrainingMethod" modified="Yes">BP</Option>
    <Option name="LearningRate" modified="No">2.000000e-02</Option>
    <Option name="DecayRate" modified="No">1.000000e-02</Option>
    <Option name="TestRate" modified="No">10</Option>
    <Option name="EpochMonitoring" modified="No">False</Option>
    <Option name="Sampling" modified="No">1.000000e+00</Option>
    <Option name="SamplingEpoch" modified="No">1.000000e+00</Option>
    <Option name="SamplingImportance" modified="No">1.000000e+00</Option>
    <Option name="SamplingTraining" modified="No">True</Option>
    <Option name="SamplingTesting" modified="No">False</Option>
    <Option name="ResetStep" modified="No">50</Option>
    <Option name="Tau" modified="No">3.000000e+00</Option>
    <Option name="BPMode" modified="Yes">sequential</Option>
    <Option name="BatchSize" modified="No">-1</Option>
    <Option name="ConvergenceImprove" modified="No">1.000000e-30</Option>
    <Option name="ConvergenceTests" modified="No">-1</Option>
    <Option name="UseRegulator" modified="No">False</Option>
    <Option name="UpdateLimit" modified="No">10000</Option>
    <Option name="CalculateErrors" modified="No">False</Option>
    <Option name="WeightRange" modified="No">1.000000e+00</Option>
  </Options>
  <Variables NVar="9">
    <Variable VarIndex="0" Expression="dist_p_pim" Label="dist_p_pim" Title="dist_p_pim" Unit="mm" Internal="dist_p_pim" Type="F" Min="3.92466871e-04" Max="1.98737778e+02"/>
    <Variable VarIndex="1" Expression="dist_pip_pim" Label="dist_pip_pim" Title="dist_pip_pim" Unit="mm" Internal="dist_pip_pim" Type="F" Min="6.03823981e-04" Max="2.25231583e+02"/>
    <Variable VarIndex="2" Expression="eVert_x" Label="eVert_x" Title="eVert_x" Unit="mm" Internal="eVert_x" Type="F" Min="-5.19747238e+01" Max="8.90086441e+01"/>
    <Variable VarIndex="3" Expression="eVert_y" Label="eVert_y" Title="eVert_y" Unit="mm" Internal="eVert_y" Type="F" Min="-9.17984848e+01" Max="8.13874283e+01"/>
    <Variable VarIndex="4" Expression="eVert_z" Label="eVert_z" Title="eVert_z" Unit="mm" Internal="eVert_z" Type="F" Min="-8.99312820e+01" Max="4.27286438e+02"/>
    <Variable VarIndex="5" Expression="dist_p_eVert" Label="dist_p_eVert" Title="dist_p_eVert" Unit="mm" Internal="dist_p_eVert" Type="F" Min="3.25089991e-01" Max="2.73124847e+02"/>
    <Variable VarIndex="6" Expression="dist_pim_eVert" Label="dist_pim_eVert" Title="dist_pim_eVert" Unit="mm" Internal="dist_pim_eVert" Type="F" Min="2.03255862e-01" Max="1.57769699e+02"/>
    <Variable VarIndex="7" Expression="dist_lambda_eVert" Label="dist_lambda_eVert" Title="dist_lambda_eVert" Unit="mm" Internal="dist_lambda_eVert" Type="F" Min="3.41899633e-01" Max="1.50563904e+03"/>
    <Variable VarIndex="8" Expression="dist_lambda_ver_pip_pim" Label="dist_lambda_ver_pip_pim" Title="dist_lambda_ver_pip_pim" Unit="mm" Internal="dist_lambda_ver_pip_pim" Type="F" Min="1.46781886e+00" Max="1.18074023e+03"/>
  </Variables>
  <Spectators NSpec="0"/>
  <Classes NClass="2">
    <Class Name="Signal" Index="0"/>
    <Class Name="Background" Index="1"/>
  </Classes>
  <Transformations NTransformations="1">
    <Transform Name="Normalize">
      <Selection>
        <Input NInputs="9">
          <Input Type="Variable" Label="dist_p_pim" Expression="dist_p_pim"/>
          <Input Type="Variable" Label="dist_pip_pim" Expression="dist_pip_pim"/>
          <Input Type="Variable" Label="eVert_x" Expression="eVert_x"/>
          <Input Type="Variable" Label="eVert_y" Expression="eVert_y"/>
          <Input Type="Variable" Label="eVert_z" Expression="eVert_z"/>
          <Input Type="Variable" Label="dist_p_eVert" Expression="dist_p_eVert"/>
          <Input Type="Variable" Label="dist_pim_eVert" Expression="dist_pim_eVert"/>
          <Input Type="Variable" Label="dist_lambda_eVert" Expression="dist_lambda_eVert"/>
          <Input Type="Variable" Label="dist_lambda_ver_pip_pim" Expression="dist_lambda_ver_pip_pim"/>
        </Input>
        <Output NOutputs="9">
          <Output Type="Variable" Label="dist_p_pim" Expression="dist_p_pim"/>
          <Output Type="Variable" Label="dist_pip_pim" Expression="dist_pip_pim"/>
          <Output Type="Variable" Label="eVert_x" Expression="eVert_x"/>
          <Output Type="Variable" Label="eVert_y" Expression="eVert_y"/>
          <Output Type="Variable" Label="eVert_z" Expression="eVert_z"/>
          <Output Type="Variable" Label="dist_p_eVert" Expression="dist_p_eVert"/>
          <Output Type="Variable" Label="dist_pim_eVert" Expression="dist_pim_eVert"/>
          <Output Type="Variable" Label="dist_lambda_eVert" Expression="dist_lambda_eVert"/>
          <Output Type="Variable" Label="dist_lambda_ver_pip_pim" Expression="dist_lambda_ver_pip_pim"/>
        </Output>
      </Selection>
      <Class ClassIndex="0">
        <Ranges>
          <Range Index="0" Min="3.9246687083505094e-04" Max="1.9873777770996094e+02"/>
          <Range Index="1" Min="6.0382398078218102e-04" Max="2.2523158264160156e+02"/>
          <Range Index="2" Min="-3.9761508941650391e+01" Max="8.9008644104003906e+01"/>
          <Range Index="3" Min="-9.1798484802246094e+01" Max="8.1387428283691406e+01"/>
          <Range Index="4" Min="-7.1911727905273438e+01" Max="4.2728643798828125e+02"/>
          <Range Index="5" Min="3.2508999109268188e-01" Max="2.7312484741210938e+02"/>
          <Range Index="6" Min="2.0325586199760437e-01" Max="1.5776969909667969e+02"/>
          <Range Index="7" Min="3.4189963340759277e-01" Max="2.3916937255859375e+02"/>
          <Range Index="8" Min="2.0683512687683105e+00" Max="1.1807402343750000e+03"/>
        </Ranges>
      </Class>
      <Class ClassIndex="1">
        <Ranges>
          <Range Index="0" Min="7.7364118769764900e-03" Max="1.9311848449707031e+02"/>
          <Range Index="1" Min="2.9086461290717125e-03" Max="1.4791030883789062e+02"/>
          <Range Index="2" Min="-5.1974723815917969e+01" Max="4.7301795959472656e+01"/>
          <Range Index="3" Min="-2.5652727127075195e+01" Max="2.8827011108398438e+01"/>
          <Range Index="4" Min="-8.9931282043457031e+01" Max="1.5992741394042969e+02"/>
          <Range Index="5" Min="1.4438147544860840e+00" Max="1.0657028961181641e+02"/>
          <Range Index="6" Min="4.1046649217605591e-01" Max="1.3296931457519531e+02"/>
          <Range Index="7" Min="3.0571944713592529e+00" Max="1.5056390380859375e+03"/>
          <Range Index="8" Min="1.4678188562393188e+00" Max="5.5627954101562500e+02"/>
        </Ranges>
      </Class>
      <Class ClassIndex="2">
        <Ranges>
          <Range Index="0" Min="3.9246687083505094e-04" Max="1.9873777770996094e+02"/>
          <Range Index="1" Min="6.0382398078218102e-04" Max="2.2523158264160156e+02"/>
          <Range Index="2" Min="-5.1974723815917969e+01" Max="8.9008644104003906e+01"/>
          <Range Index="3" Min="-9.1798484802246094e+01" Max="8.1387428283691406e+01"/>
          <Range Index="4" Min="-8.9931282043457031e+01" Max="4.2728643798828125e+02"/>
          <Range Index="5" Min="3.2508999109268188e-01" Max="2.7312484741210938e+02"/>
          <Range Index="6" Min="2.0325586199760437e-01" Max="1.5776969909667969e+02"/>
          <Range Index="7" Min="3.4189963340759277e-01" Max="1.5056390380859375e+03"/>
          <Range Index="8" Min="1.4678188562393188e+00" Max="1.1807402343750000e+03"/>
        </Ranges>
      </Class>
    </Transform>
  </Transformations>
  <MVAPdfs/>
  <Weights>
    <Layout NLayers="4">
      <Layer Index="0" NNeurons="10">
        <Neuron NSynapses="10">
          -1.2666433973861444e+00 1.8704668240685622e+00 3.9797208355049468e-01 1.7264013671871037e+00 -1.8413275541493708e+00 -1.4742623125876777e+00 -2.8317996859072350e-02 2.6187290486490249e+00 -2.0601653054500488e+00 -9.4213703157357565e-01 
        </Neuron>
        <Neuron NSynapses="10">
          -1.0925401336196099e+00 -9.3217653284551116e-01 -6.1293675554070359e-01 -3.2660468644376667e-01 -3.4530438275581277e-01 5.2778871217593459e-01 2.0058700297317465e-03 2.0424364793309051e+00 -7.7165545144055853e-02 9.7871524629708584e-01 
        </Neuron>
        <Neuron NSynapses="10">
          -2.1788237555377299e-01 -9.0642776178495998e-01 5.6373483063428298e-01 7.6223945873604149e-02 -9.7382432387576512e-01 -1.3567514363133448e-01 1.2198389728347190e+00 -9.3190012182722071e-01 -2.1534411360909504e+00 -9.5774623384749610e-02 
        </Neuron>
        <Neuron NSynapses="10">
          1.3148022422474401e+00 1.7252331813397090e+00 -6.8006999073607888e-01 -1.7815625481655506e-01 1.6695518360529940e-01 -3.9738942682302758e-01 -8.9113279521747990e-01 1.5065561309452467e+00 -8.4139661070643279e-01 1.1407643241520000e+00 
        </Neuron>
        <Neuron NSynapses="10">
          1.1130318684644502e+00 8.6291415291310458e-01 1.8752629749114829e+00 1.2388580707400250e+00 -4.7666777410756800e-01 -1.5754022138661403e+00 1.1458227214760839e+00 3.3131587655479927e-01 1.2751903228141768e+00 1.3052244893605629e+00 
        </Neuron>
        <Neuron NSynapses="10">
          2.0947401142901865e+00 9.2250636138475084e-01 -1.7622952534913257e+00 1.4226311096263462e+00 -2.0628290424956890e+00 -8.0938849159375093e-01 -1.1764432967865774e+00 -1.5580152810945873e+00 7.6496547496134182e-01 5.2443237905620244e-01 
        </Neuron>
        <Neuron NSynapses="10">
          -2.0185533479320825e+00 2.6548646966791684e-01 -1.5687028930904618e+00 6.6481466912533738e-01 2.1222720521025784e+00 -4.2490919867189203e-01 -4.0165936471007288e-02 -1.1661138898746852e+00 4.3703143537171246e-01 2.1661873484444163e-01 
        </Neuron>
        <Neuron NSynapses="10">
          -3.3392914199992343e+00 -2.8695239258290082e+00 5.0835891307629861e+00 1.1032483526323260e+00 2.4084285208293466e+00 -4.9961607284084369e-01 -6.2965796971562940e+00 -1.0614127171768231e+00 -7.6458167669223476e-01 1.4559579218325545e+00 
        </Neuron>
        <Neuron NSynapses="10">
          1.8785395437994936e+00 3.2233744967385564e-01 1.7200637433015957e+00 -7.6749997870303610e-01 -7.0191534215019191e-01 -3.7671191897025597e-01 8.9613639759381614e-01 -6.3761700806984623e-01 -2.0259098706742851e+00 -1.7220167511144411e+00 
        </Neuron>
        <Neuron NSynapses="10">
          -2.5003960011762745e+00 -9.8078595358474097e-01 5.0839335178407463e+00 -1.6270014987398516e+00 6.0617779726859215e-02 1.8468459477095265e+00 -4.9474224616738951e+00 -1.6621542726738592e+00 -2.6948095210989833e+00 6.0227207823484552e-01 
        </Neuron>
      </Layer>
      <Layer Index="1" NNeurons="11">
        <Neuron NSynapses="9">
          -4.0452859223843882e+00 -2.1605328912784714e+00 1.1987073834307482e+00 1.5690067514356365e+00 -8.2597972647447926e-01 4.9865215672774210e-01 -1.2759373341300342e+00 -1.5912049238380941e+00 2.0101989416608942e-01 
        </Neuron>
        <Neuron NSynapses="9">
          -4.6341366753470514e-01 -1.9422851618721710e+00 6.6948623133620344e-01 5.0778376115053966e-02 8.5412472621004143e-01 -1.5322988686988688e+00 2.3701968708607617e+00 2.8143682095191264e-01 -9.0462792153515059e-01 
        </Neuron>
        <Neuron NSynapses="9">
          5.0121489816508209e+00 -1.1629512454354756e+00 -4.5119858339522922e+00 -1.6231837688531242e-01 3.9225934105998633e-01 2.3130166043268008e+00 -1.4778879944555601e+00 -5.4315699302647361e-02 -2.6830315664147958e-01 
        </Neuron>
        <Neuron NSynapses="9">
          5.1041514616960526e-01 -1.7989347716432957e+00 6.8953759668162695e-01 1.1344503014672395e-01 -1.4269037561236295e+00 4.9111321816195252e-01 -1.9191215392107539e+00 1.2621342202744959e-01 1.2428037638549234e+00 
        </Neuron>
        <Neuron NSynapses="9">
          2.2833271566805320e+00 -2.1184047926196459e+00 -6.2760226824864707e-01 1.0546911734254103e+00 1.6358121710858959e+00 8.9720120569602668e-01 -1.0723023965128287e+00 -4.7930008666473728e-01 -1.5463858713294267e+00 
        </Neuron>
        <Neuron NSynapses="9">
          2.1264303328626313e+00 7.2994159865556996e-01 -1.7275338224614751e+00 -8.9015456975160279e-01 3.5066097792073031e-01 -8.4392896080941493e-01 2.5189898691281087e-01 1.2686127212664116e+00 -4.8239002367280603e-01 
        </Neuron>
        <Neuron NSynapses="9">
          -4.2403173570695420e+00 -9.1474468864291156e-02 3.0959874606681534e+00 4.2349157443751173e-01 1.1398904464216144e+00 -2.6799344425347131e+00 3.1863246454407643e+00 1.7677817848913427e-01 6.1619678812475109e-01 
        </Neuron>
        <Neuron NSynapses="9">
          1.8420315493676900e-01 7.9164400912125543e-01 -2.1238552700287802e-01 -6.1177863635205665e-01 1.0138955992996215e+00 -9.5099184393639991e-01 -9.7483021079436641e-02 1.4989734906816781e+00 1.1250367208972729e+00 
        </Neuron>
        <Neuron NSynapses="9">
          -1.0333299924585484e+00 1.3781395392977409e+00 1.8195421596298651e+00 -2.1553677161618463e+00 7.9524016088704030e-01 7.8448815826710996e-02 5.1337286540813698e-01 -1.9574423364253866e+00 -1.4499541312101321e+00 
        </Neuron>
        <Neuron NSynapses="9">
          1.4580369822278549e+00 1.5994750153565607e+00 -2.3614112146112949e+00 -3.0255822498652185e-01 -4.7951709213135862e-01 5.3154154563607425e-01 1.4420884871329316e+00 -4.8785710136942595e-01 -3.9040880540408013e-01 
        </Neuron>
        <Neuron NSynapses="9">
          -1.8090564269042150e-01 5.4689329506724937e-01 3.6300008971914842e-02 5.7346578688853544e-01 8.6151237896599697e-01 -4.7723552720331469e-01 -2.7915436159355367e+00 7.1045353338160933e-01 6.0643247069477180e-01 
        </Neuron>
      </Layer>
      <Layer Index="2" NNeurons="10">
        <Neuron NSynapses="1">
          -4.0401833303578067e+00 
        </Neuron>
        <Neuron NSynapses="1">
          5.5155536519136505e-01 
        </Neuron>
        <Neuron NSynapses="1">
          2.9879802275685119e+00 
        </Neuron>
        <Neuron NSynapses="1">
          -4.6538105007961661e-01 
        </Neuron>
        <Neuron NSynapses="1">
          -3.4656868965093734e-01 
        </Neuron>
        <Neuron NSynapses="1">
          2.0250145341424761e+00 
        </Neuron>
        <Neuron NSynapses="1">
          2.1525387392533872e+00 
        </Neuron>
        <Neuron NSynapses="1">
          1.1921825988608248e+00 
        </Neuron>
        <Neuron NSynapses="1">
          -9.0402475574026464e-01 
        </Neuron>
        <Neuron NSynapses="1">
          2.2321257762251188e+00 
        </Neuron>
      </Layer>
      <Layer Index="3" NNeurons="1">
        <Neuron NSynapses="0"/>
      </Layer>
    </Layout>
  </Weights>
</MethodSetup>
