<?xml version="1.0"?>
<MethodSetup Method="MLP::MLP">
  <GeneralInfo>
    <Info name="TMVA Release" value="4.2.0 [262656]"/>
    <Info name="ROOT Release" value="5.34/34 [336418]"/>
    <Info name="Creator" value="knowakow"/>
    <Info name="Date" value="Sat Mar 23 15:21:07 2019"/>
    <Info name="Host" value="Linux lxbuild05 3.16.0-4-amd64 #1 SMP Debian 3.16.7-ckt20-1+deb8u4 (2016-02-29) x86_64 GNU/Linux"/>
    <Info name="Dir" value="/lustre/nyx/hades/user/knowakow/PP/FAT/TMVA"/>
    <Info name="Training events" value="108"/>
    <Info name="TrainingTime" value="1.35933709e+00"/>
    <Info name="AnalysisType" value="Classification"/>
  </GeneralInfo>
  <Options>
    <Option name="NCycles" modified="Yes">1000</Option>
    <Option name="HiddenLayers" modified="Yes">N+1,N</Option>
    <Option name="NeuronType" modified="Yes">sigmoid</Option>
    <Option name="RandomSeed" modified="No">1</Option>
    <Option name="EstimatorType" modified="Yes">MSE</Option>
    <Option name="NeuronInputType" modified="Yes">sum</Option>
    <Option name="V" modified="Yes">False</Option>
    <Option name="VerbosityLevel" modified="No">Default</Option>
    <Option name="VarTransform" modified="Yes">N</Option>
    <Option name="H" modified="Yes">False</Option>
    <Option name="CreateMVAPdfs" modified="No">False</Option>
    <Option name="IgnoreNegWeightsInTraining" modified="No">False</Option>
    <Option name="TrainingMethod" modified="Yes">BP</Option>
    <Option name="LearningRate" modified="No">2.000000e-02</Option>
    <Option name="DecayRate" modified="No">1.000000e-02</Option>
    <Option name="TestRate" modified="No">10</Option>
    <Option name="EpochMonitoring" modified="No">False</Option>
    <Option name="Sampling" modified="No">1.000000e+00</Option>
    <Option name="SamplingEpoch" modified="No">1.000000e+00</Option>
    <Option name="SamplingImportance" modified="No">1.000000e+00</Option>
    <Option name="SamplingTraining" modified="No">True</Option>
    <Option name="SamplingTesting" modified="No">False</Option>
    <Option name="ResetStep" modified="No">50</Option>
    <Option name="Tau" modified="No">3.000000e+00</Option>
    <Option name="BPMode" modified="Yes">sequential</Option>
    <Option name="BatchSize" modified="No">-1</Option>
    <Option name="ConvergenceImprove" modified="No">1.000000e-30</Option>
    <Option name="ConvergenceTests" modified="No">-1</Option>
    <Option name="UseRegulator" modified="No">False</Option>
    <Option name="UpdateLimit" modified="No">10000</Option>
    <Option name="CalculateErrors" modified="No">False</Option>
    <Option name="WeightRange" modified="No">1.000000e+00</Option>
  </Options>
  <Variables NVar="9">
    <Variable VarIndex="0" Expression="dist_p_pim" Label="dist_p_pim" Title="dist_p_pim" Unit="mm" Internal="dist_p_pim" Type="F" Min="5.58451051e-03" Max="6.37781677e+01"/>
    <Variable VarIndex="1" Expression="dist_pip_pim" Label="dist_pip_pim" Title="dist_pip_pim" Unit="mm" Internal="dist_pip_pim" Type="F" Min="2.20608681e-01" Max="8.78612442e+01"/>
    <Variable VarIndex="2" Expression="eVert_x" Label="eVert_x" Title="eVert_x" Unit="mm" Internal="eVert_x" Type="F" Min="-6.95961227e+01" Max="3.71072159e+01"/>
    <Variable VarIndex="3" Expression="eVert_y" Label="eVert_y" Title="eVert_y" Unit="mm" Internal="eVert_y" Type="F" Min="-6.65924072e+01" Max="1.36942568e+01"/>
    <Variable VarIndex="4" Expression="eVert_z" Label="eVert_z" Title="eVert_z" Unit="mm" Internal="eVert_z" Type="F" Min="-6.18079605e+01" Max="1.82428162e+02"/>
    <Variable VarIndex="5" Expression="dist_p_eVert" Label="dist_p_eVert" Title="dist_p_eVert" Unit="mm" Internal="dist_p_eVert" Type="F" Min="5.65902138e+00" Max="9.22974243e+01"/>
    <Variable VarIndex="6" Expression="dist_pim_eVert" Label="dist_pim_eVert" Title="dist_pim_eVert" Unit="mm" Internal="dist_pim_eVert" Type="F" Min="8.92934513e+00" Max="1.57769699e+02"/>
    <Variable VarIndex="7" Expression="dist_lambda_eVert" Label="dist_lambda_eVert" Title="dist_lambda_eVert" Unit="mm" Internal="dist_lambda_eVert" Type="F" Min="1.51481476e+01" Max="8.11329712e+02"/>
    <Variable VarIndex="8" Expression="dist_lambda_ver_pip_pim" Label="dist_lambda_ver_pip_pim" Title="dist_lambda_ver_pip_pim" Unit="mm" Internal="dist_lambda_ver_pip_pim" Type="F" Min="7.79223251e+00" Max="6.85357849e+02"/>
  </Variables>
  <Spectators NSpec="0"/>
  <Classes NClass="2">
    <Class Name="Signal" Index="0"/>
    <Class Name="Background" Index="1"/>
  </Classes>
  <Transformations NTransformations="1">
    <Transform Name="Normalize">
      <Selection>
        <Input NInputs="9">
          <Input Type="Variable" Label="dist_p_pim" Expression="dist_p_pim"/>
          <Input Type="Variable" Label="dist_pip_pim" Expression="dist_pip_pim"/>
          <Input Type="Variable" Label="eVert_x" Expression="eVert_x"/>
          <Input Type="Variable" Label="eVert_y" Expression="eVert_y"/>
          <Input Type="Variable" Label="eVert_z" Expression="eVert_z"/>
          <Input Type="Variable" Label="dist_p_eVert" Expression="dist_p_eVert"/>
          <Input Type="Variable" Label="dist_pim_eVert" Expression="dist_pim_eVert"/>
          <Input Type="Variable" Label="dist_lambda_eVert" Expression="dist_lambda_eVert"/>
          <Input Type="Variable" Label="dist_lambda_ver_pip_pim" Expression="dist_lambda_ver_pip_pim"/>
        </Input>
        <Output NOutputs="9">
          <Output Type="Variable" Label="dist_p_pim" Expression="dist_p_pim"/>
          <Output Type="Variable" Label="dist_pip_pim" Expression="dist_pip_pim"/>
          <Output Type="Variable" Label="eVert_x" Expression="eVert_x"/>
          <Output Type="Variable" Label="eVert_y" Expression="eVert_y"/>
          <Output Type="Variable" Label="eVert_z" Expression="eVert_z"/>
          <Output Type="Variable" Label="dist_p_eVert" Expression="dist_p_eVert"/>
          <Output Type="Variable" Label="dist_pim_eVert" Expression="dist_pim_eVert"/>
          <Output Type="Variable" Label="dist_lambda_eVert" Expression="dist_lambda_eVert"/>
          <Output Type="Variable" Label="dist_lambda_ver_pip_pim" Expression="dist_lambda_ver_pip_pim"/>
        </Output>
      </Selection>
      <Class ClassIndex="0">
        <Ranges>
          <Range Index="0" Min="5.5845105089247227e-03" Max="9.2630825042724609e+00"/>
          <Range Index="1" Min="3.2331335544586182e-01" Max="8.3651069641113281e+01"/>
          <Range Index="2" Min="-6.9596122741699219e+01" Max="3.7107215881347656e+01"/>
          <Range Index="3" Min="-6.6592407226562500e+01" Max="1.3617176055908203e+01"/>
          <Range Index="4" Min="-6.1807960510253906e+01" Max="1.8242816162109375e+02"/>
          <Range Index="5" Min="4.9682704925537109e+01" Max="8.9090370178222656e+01"/>
          <Range Index="6" Min="1.7785882949829102e+01" Max="1.5776969909667969e+02"/>
          <Range Index="7" Min="5.0141006469726562e+01" Max="9.8763740539550781e+01"/>
          <Range Index="8" Min="7.7922325134277344e+00" Max="6.8535784912109375e+02"/>
        </Ranges>
      </Class>
      <Class ClassIndex="1">
        <Ranges>
          <Range Index="0" Min="2.5782388448715210e-01" Max="6.3778167724609375e+01"/>
          <Range Index="1" Min="2.2060868144035339e-01" Max="8.7861244201660156e+01"/>
          <Range Index="2" Min="-1.7460458755493164e+01" Max="1.7224977493286133e+01"/>
          <Range Index="3" Min="-6.5078167915344238e+00" Max="1.3694256782531738e+01"/>
          <Range Index="4" Min="-5.5185649871826172e+01" Max="6.4985060691833496e+00"/>
          <Range Index="5" Min="5.6590213775634766e+00" Max="9.2297424316406250e+01"/>
          <Range Index="6" Min="8.9293451309204102e+00" Max="1.0505117797851562e+02"/>
          <Range Index="7" Min="1.5148147583007812e+01" Max="8.1132971191406250e+02"/>
          <Range Index="8" Min="7.9111113548278809e+00" Max="5.5627954101562500e+02"/>
        </Ranges>
      </Class>
      <Class ClassIndex="2">
        <Ranges>
          <Range Index="0" Min="5.5845105089247227e-03" Max="6.3778167724609375e+01"/>
          <Range Index="1" Min="2.2060868144035339e-01" Max="8.7861244201660156e+01"/>
          <Range Index="2" Min="-6.9596122741699219e+01" Max="3.7107215881347656e+01"/>
          <Range Index="3" Min="-6.6592407226562500e+01" Max="1.3694256782531738e+01"/>
          <Range Index="4" Min="-6.1807960510253906e+01" Max="1.8242816162109375e+02"/>
          <Range Index="5" Min="5.6590213775634766e+00" Max="9.2297424316406250e+01"/>
          <Range Index="6" Min="8.9293451309204102e+00" Max="1.5776969909667969e+02"/>
          <Range Index="7" Min="1.5148147583007812e+01" Max="8.1132971191406250e+02"/>
          <Range Index="8" Min="7.7922325134277344e+00" Max="6.8535784912109375e+02"/>
        </Ranges>
      </Class>
    </Transform>
  </Transformations>
  <MVAPdfs/>
  <Weights>
    <Layout NLayers="4">
      <Layer Index="0" NNeurons="10">
        <Neuron NSynapses="10">
          -6.2761264470935219e-01 1.6815313701369430e+00 9.7499160841098031e-01 1.8226998912875161e+00 -1.6795718729534033e+00 -1.6047891815147859e+00 -1.0724402613244359e+00 2.4809474917975449e+00 -1.6142255531692788e+00 -1.0800100645074184e+00 
        </Neuron>
        <Neuron NSynapses="10">
          -1.3907753579711339e+00 -5.3330696698354407e-01 -1.2948121612711112e+00 -2.9722369944040716e-01 -7.5879218719515684e-01 5.0109731561397841e-01 -5.3970987591925634e-01 1.4103350432964086e+00 2.1325014475900195e-01 1.3860480172980449e+00 
        </Neuron>
        <Neuron NSynapses="10">
          -4.1097203308119457e-01 -6.6614832915661526e-01 8.3779823647262563e-01 3.0197806959952625e-02 -1.2071618286538635e+00 -1.8178267238060933e-01 1.5390807424554296e+00 -9.8134673136129669e-01 -1.9158587960798774e+00 1.6226144390721911e-01 
        </Neuron>
        <Neuron NSynapses="10">
          6.5812829130858885e-01 1.7836027221601363e+00 -2.6079188689628779e-01 -2.5774497192375195e-01 8.7916694482041619e-02 -2.2502103779664651e-01 -1.3380609031521087e+00 1.6841018202352638e+00 -1.1063274255445659e+00 1.1679992168413278e+00 
        </Neuron>
        <Neuron NSynapses="10">
          1.0938634505396947e+00 7.3188920852963679e-01 1.8397850680952823e+00 1.2795591778519764e+00 -4.3585350184222682e-01 -1.6416286966633842e+00 6.6774195265159131e-01 2.6628917997272233e-01 1.3733352525667109e+00 1.4162249025589364e+00 
        </Neuron>
        <Neuron NSynapses="10">
          1.5523680076996951e+00 1.4724249254386907e+00 -1.7003975828540254e+00 1.1922853163438853e+00 -1.7219508968678070e+00 -7.5829859959896195e-01 -1.2071512879559168e+00 -2.4242293971145763e+00 1.3777464954424345e+00 5.6595332795335973e-01 
        </Neuron>
        <Neuron NSynapses="10">
          -1.3783329122850760e+00 5.9883902752292928e-01 -3.4385757869133010e-01 7.1190500221793207e-01 1.9494170640017521e+00 -3.7628200937242656e-01 2.7347877957105432e-01 -1.4942216379263791e+00 8.0985806167623364e-01 -8.3849876487362096e-01 
        </Neuron>
        <Neuron NSynapses="10">
          -1.0522457542748602e+00 -1.6739358615777189e+00 7.5109805685498765e-01 1.1948042777836687e+00 1.7409046682800915e+00 -4.7193967233874384e-01 -2.1043961588815274e+00 -1.7179351410684620e+00 6.5527476194787948e-01 3.9873719366654825e-01 
        </Neuron>
        <Neuron NSynapses="10">
          2.0173059360912600e+00 3.6884933187526642e-01 1.0168934842289896e+00 -6.5507754948773755e-01 -5.4347311083528127e-01 -3.6275807804561816e-01 9.2655355905285375e-01 -8.4655665705098770e-01 -1.6957551375072222e+00 -1.7408987228553046e+00 
        </Neuron>
        <Neuron NSynapses="10">
          -3.2594238860318836e-01 8.2790263534823341e-02 1.7599245856254804e+00 -1.7943639553067654e+00 -8.7871438532701429e-01 1.8180286689837621e+00 -7.0668348655362645e-01 -1.4924741894882703e+00 -1.3720295891568497e+00 1.2667762574259026e-01 
        </Neuron>
      </Layer>
      <Layer Index="1" NNeurons="11">
        <Neuron NSynapses="9">
          -1.6302921754303177e+00 -1.6179037786203596e+00 4.6747959842704062e-01 1.6200790225230284e+00 -7.3668505426779662e-01 1.2876572480506201e+00 -1.2703836088530727e+00 -7.3838196073800466e-01 9.6870844721464039e-02 
        </Neuron>
        <Neuron NSynapses="9">
          6.0461480261816902e-01 -1.7772263354353270e+00 1.9521693402260673e-01 2.7475821126382999e-01 7.7688791164486770e-01 -1.5940292050347831e+00 1.7573830558992647e+00 3.8246511083259721e-01 -8.7468532659310450e-01 
        </Neuron>
        <Neuron NSynapses="9">
          1.2532093051641719e+00 -9.8527427951320312e-01 -2.1778555907272259e+00 8.5231957017900151e-02 3.7095155306534655e-01 1.4060980811419141e+00 2.6688477732613158e-01 3.5584888703511272e-02 -1.3151957130874956e-01 
        </Neuron>
        <Neuron NSynapses="9">
          2.5004000124355463e-01 -1.7878329877748396e+00 9.8414967398471109e-01 1.3267773552011852e-01 -1.6597841822957378e+00 5.8602659754049424e-01 -1.5446695991768826e+00 8.7193640176297327e-02 1.1985685322166058e+00 
        </Neuron>
        <Neuron NSynapses="9">
          1.6433529448905626e+00 -1.9654573046098163e+00 4.6663683212487750e-01 1.5500690080876609e+00 1.5118012707369139e+00 7.6976922230377245e-03 -1.1843497680905084e+00 -2.0940768214438985e-01 -1.4958619400652775e+00 
        </Neuron>
        <Neuron NSynapses="9">
          1.6815753035814149e+00 1.2081219416168951e+00 -5.8015606250626439e-01 -4.1481534272124704e-01 3.3522842683435544e-01 -1.7162396648855105e+00 6.0325081285327464e-01 1.7400774018797096e+00 -5.0297708557297249e-01 
        </Neuron>
        <Neuron NSynapses="9">
          -5.0549198323746647e-01 2.7830034328542252e-01 1.0059579198927346e+00 5.5628761885279865e-01 9.1276586589057573e-01 -1.6474280432054735e+00 1.6442780393076564e+00 7.4419198868513847e-01 5.2495346926071207e-01 
        </Neuron>
        <Neuron NSynapses="9">
          7.4047708257928435e-01 1.0486136114065265e+00 -8.7868494009373377e-01 -6.1665010930577135e-01 1.2396129177976212e+00 -1.0163984973839617e+00 -7.6094295522551247e-01 1.5767194216516163e+00 1.1181641457490785e+00 
        </Neuron>
        <Neuron NSynapses="9">
          -1.8093480497242900e-01 1.5157362167572639e+00 1.8198736776255813e+00 -1.9618752955470109e+00 8.8682712530921648e-01 -1.5945827283304542e-01 4.0686790718814742e-01 -1.6427385425042400e+00 -1.5380163438630743e+00 
        </Neuron>
        <Neuron NSynapses="9">
          1.0727744161740687e+00 1.7792520415563327e+00 -1.6294427036057106e+00 -1.9700322841421250e-01 -6.0763191903580649e-01 3.6857791070440585e-02 1.8975802139774784e+00 -3.2991102649938125e-01 -5.4893411952769466e-01 
        </Neuron>
        <Neuron NSynapses="9">
          -8.6623726309889348e-01 1.0406331910399720e+00 1.4622537186740989e+00 1.0728074783024102e+00 5.9718883685247237e-01 -1.2232561820783820e+00 -2.0662443077936450e+00 1.1389053403466236e+00 5.4487477474234691e-01 
        </Neuron>
      </Layer>
      <Layer Index="2" NNeurons="10">
        <Neuron NSynapses="1">
          -8.7448286273179532e-01 
        </Neuron>
        <Neuron NSynapses="1">
          1.5579513350093280e-01 
        </Neuron>
        <Neuron NSynapses="1">
          1.0374938259584121e+00 
        </Neuron>
        <Neuron NSynapses="1">
          8.0223768341138035e-02 
        </Neuron>
        <Neuron NSynapses="1">
          -1.5847317408375263e+00 
        </Neuron>
        <Neuron NSynapses="1">
          1.0842236116923012e+00 
        </Neuron>
        <Neuron NSynapses="1">
          1.2498481336631242e+00 
        </Neuron>
        <Neuron NSynapses="1">
          -2.7358068896062865e-01 
        </Neuron>
        <Neuron NSynapses="1">
          -6.9959397626392095e-01 
        </Neuron>
        <Neuron NSynapses="1">
          1.6168333197180274e+00 
        </Neuron>
      </Layer>
      <Layer Index="3" NNeurons="1">
        <Neuron NSynapses="0"/>
      </Layer>
    </Layout>
  </Weights>
</MethodSetup>
