<?xml version="1.0"?>
<MethodSetup Method="MLP::kMLP_pca_mse_500">
  <GeneralInfo>
    <Info name="TMVA Release" value="4.2.0 [262656]"/>
    <Info name="ROOT Release" value="5.34/34 [336418]"/>
    <Info name="Creator" value="knowakow"/>
    <Info name="Date" value="Thu Mar 28 21:38:46 2019"/>
    <Info name="Host" value="Linux lxbuild05 3.16.0-4-amd64 #1 SMP Debian 3.16.7-ckt20-1+deb8u4 (2016-02-29) x86_64 GNU/Linux"/>
    <Info name="Dir" value="/lustre/nyx/hades/user/knowakow/PP/FAT/TMVA"/>
    <Info name="Training events" value="20749"/>
    <Info name="TrainingTime" value="1.33809035e+02"/>
    <Info name="AnalysisType" value="Classification"/>
  </GeneralInfo>
  <Options>
    <Option name="NCycles" modified="Yes">500</Option>
    <Option name="HiddenLayers" modified="Yes">N+1,N</Option>
    <Option name="NeuronType" modified="Yes">sigmoid</Option>
    <Option name="RandomSeed" modified="No">1</Option>
    <Option name="EstimatorType" modified="Yes">MSE</Option>
    <Option name="NeuronInputType" modified="Yes">sum</Option>
    <Option name="V" modified="Yes">False</Option>
    <Option name="VerbosityLevel" modified="No">Default</Option>
    <Option name="VarTransform" modified="Yes">N,P</Option>
    <Option name="H" modified="Yes">False</Option>
    <Option name="CreateMVAPdfs" modified="No">False</Option>
    <Option name="IgnoreNegWeightsInTraining" modified="No">False</Option>
    <Option name="TrainingMethod" modified="Yes">BP</Option>
    <Option name="LearningRate" modified="No">2.000000e-02</Option>
    <Option name="DecayRate" modified="No">1.000000e-02</Option>
    <Option name="TestRate" modified="No">10</Option>
    <Option name="EpochMonitoring" modified="No">False</Option>
    <Option name="Sampling" modified="No">1.000000e+00</Option>
    <Option name="SamplingEpoch" modified="No">1.000000e+00</Option>
    <Option name="SamplingImportance" modified="No">1.000000e+00</Option>
    <Option name="SamplingTraining" modified="No">True</Option>
    <Option name="SamplingTesting" modified="No">False</Option>
    <Option name="ResetStep" modified="No">50</Option>
    <Option name="Tau" modified="No">3.000000e+00</Option>
    <Option name="BPMode" modified="Yes">sequential</Option>
    <Option name="BatchSize" modified="No">-1</Option>
    <Option name="ConvergenceImprove" modified="No">1.000000e-30</Option>
    <Option name="ConvergenceTests" modified="No">-1</Option>
    <Option name="UseRegulator" modified="No">False</Option>
    <Option name="UpdateLimit" modified="No">10000</Option>
    <Option name="CalculateErrors" modified="No">False</Option>
    <Option name="WeightRange" modified="No">1.000000e+00</Option>
  </Options>
  <Variables NVar="9">
    <Variable VarIndex="0" Expression="dist_p_pim" Label="dist_p_pim" Title="dist_p_pim" Unit="mm" Internal="dist_p_pim" Type="F" Min="3.92466871e-04" Max="3.69215057e+02"/>
    <Variable VarIndex="1" Expression="dist_pip_pim" Label="dist_pip_pim" Title="dist_pip_pim" Unit="mm" Internal="dist_pip_pim" Type="F" Min="6.03823981e-04" Max="4.60604095e+02"/>
    <Variable VarIndex="2" Expression="eVert_x" Label="eVert_x" Title="eVert_x" Unit="mm" Internal="eVert_x" Type="F" Min="-2.64420898e+02" Max="2.08465637e+02"/>
    <Variable VarIndex="3" Expression="eVert_y" Label="eVert_y" Title="eVert_y" Unit="mm" Internal="eVert_y" Type="F" Min="-1.49419037e+02" Max="1.92305557e+02"/>
    <Variable VarIndex="4" Expression="eVert_z" Label="eVert_z" Title="eVert_z" Unit="mm" Internal="eVert_z" Type="F" Min="-9.92704697e+01" Max="4.89156738e+02"/>
    <Variable VarIndex="5" Expression="dist_p_eVert" Label="dist_p_eVert" Title="dist_p_eVert" Unit="mm" Internal="dist_p_eVert" Type="F" Min="7.28023797e-02" Max="4.04899658e+02"/>
    <Variable VarIndex="6" Expression="dist_pim_eVert" Label="dist_pim_eVert" Title="dist_pim_eVert" Unit="mm" Internal="dist_pim_eVert" Type="F" Min="5.47629409e-02" Max="3.57598816e+02"/>
    <Variable VarIndex="7" Expression="dist_lambda_eVert" Label="dist_lambda_eVert" Title="dist_lambda_eVert" Unit="mm" Internal="dist_lambda_eVert" Type="F" Min="1.58101276e-01" Max="3.63446533e+02"/>
    <Variable VarIndex="8" Expression="dist_lambda_ver_pip_pim" Label="dist_lambda_ver_pip_pim" Title="dist_lambda_ver_pip_pim" Unit="mm" Internal="dist_lambda_ver_pip_pim" Type="F" Min="4.63410437e-01" Max="3.57604688e+03"/>
  </Variables>
  <Spectators NSpec="0"/>
  <Classes NClass="2">
    <Class Name="Signal" Index="0"/>
    <Class Name="Background" Index="1"/>
  </Classes>
  <Transformations NTransformations="2">
    <Transform Name="Normalize">
      <Selection>
        <Input NInputs="9">
          <Input Type="Variable" Label="dist_p_pim" Expression="dist_p_pim"/>
          <Input Type="Variable" Label="dist_pip_pim" Expression="dist_pip_pim"/>
          <Input Type="Variable" Label="eVert_x" Expression="eVert_x"/>
          <Input Type="Variable" Label="eVert_y" Expression="eVert_y"/>
          <Input Type="Variable" Label="eVert_z" Expression="eVert_z"/>
          <Input Type="Variable" Label="dist_p_eVert" Expression="dist_p_eVert"/>
          <Input Type="Variable" Label="dist_pim_eVert" Expression="dist_pim_eVert"/>
          <Input Type="Variable" Label="dist_lambda_eVert" Expression="dist_lambda_eVert"/>
          <Input Type="Variable" Label="dist_lambda_ver_pip_pim" Expression="dist_lambda_ver_pip_pim"/>
        </Input>
        <Output NOutputs="9">
          <Output Type="Variable" Label="dist_p_pim" Expression="dist_p_pim"/>
          <Output Type="Variable" Label="dist_pip_pim" Expression="dist_pip_pim"/>
          <Output Type="Variable" Label="eVert_x" Expression="eVert_x"/>
          <Output Type="Variable" Label="eVert_y" Expression="eVert_y"/>
          <Output Type="Variable" Label="eVert_z" Expression="eVert_z"/>
          <Output Type="Variable" Label="dist_p_eVert" Expression="dist_p_eVert"/>
          <Output Type="Variable" Label="dist_pim_eVert" Expression="dist_pim_eVert"/>
          <Output Type="Variable" Label="dist_lambda_eVert" Expression="dist_lambda_eVert"/>
          <Output Type="Variable" Label="dist_lambda_ver_pip_pim" Expression="dist_lambda_ver_pip_pim"/>
        </Output>
      </Selection>
      <Class ClassIndex="0">
        <Ranges>
          <Range Index="0" Min="3.9246687083505094e-04" Max="1.4628904724121094e+02"/>
          <Range Index="1" Min="6.0382398078218102e-04" Max="2.2523158264160156e+02"/>
          <Range Index="2" Min="-6.9596122741699219e+01" Max="3.7107215881347656e+01"/>
          <Range Index="3" Min="-6.6592407226562500e+01" Max="8.1387428283691406e+01"/>
          <Range Index="4" Min="-7.0005859375000000e+01" Max="2.1443231201171875e+02"/>
          <Range Index="5" Min="7.2802379727363586e-02" Max="1.4354609680175781e+02"/>
          <Range Index="6" Min="6.2037980556488037e-01" Max="1.4977827453613281e+02"/>
          <Range Index="7" Min="6.4272022247314453e-01" Max="1.4250509643554688e+02"/>
          <Range Index="8" Min="2.0683512687683105e+00" Max="6.8535784912109375e+02"/>
        </Ranges>
      </Class>
      <Class ClassIndex="1">
        <Ranges>
          <Range Index="0" Min="7.5488456059247255e-04" Max="3.6921505737304688e+02"/>
          <Range Index="1" Min="1.0538299102336168e-03" Max="4.6060409545898438e+02"/>
          <Range Index="2" Min="-2.6442089843750000e+02" Max="2.0846563720703125e+02"/>
          <Range Index="3" Min="-1.4941903686523438e+02" Max="1.9230555725097656e+02"/>
          <Range Index="4" Min="-9.9270469665527344e+01" Max="4.8915673828125000e+02"/>
          <Range Index="5" Min="1.7538926005363464e-01" Max="4.0489965820312500e+02"/>
          <Range Index="6" Min="5.4762940853834152e-02" Max="3.5759881591796875e+02"/>
          <Range Index="7" Min="1.5810127556324005e-01" Max="3.6344653320312500e+02"/>
          <Range Index="8" Min="4.6341043710708618e-01" Max="3.5760468750000000e+03"/>
        </Ranges>
      </Class>
      <Class ClassIndex="2">
        <Ranges>
          <Range Index="0" Min="3.9246687083505094e-04" Max="3.6921505737304688e+02"/>
          <Range Index="1" Min="6.0382398078218102e-04" Max="4.6060409545898438e+02"/>
          <Range Index="2" Min="-2.6442089843750000e+02" Max="2.0846563720703125e+02"/>
          <Range Index="3" Min="-1.4941903686523438e+02" Max="1.9230555725097656e+02"/>
          <Range Index="4" Min="-9.9270469665527344e+01" Max="4.8915673828125000e+02"/>
          <Range Index="5" Min="7.2802379727363586e-02" Max="4.0489965820312500e+02"/>
          <Range Index="6" Min="5.4762940853834152e-02" Max="3.5759881591796875e+02"/>
          <Range Index="7" Min="1.5810127556324005e-01" Max="3.6344653320312500e+02"/>
          <Range Index="8" Min="4.6341043710708618e-01" Max="3.5760468750000000e+03"/>
        </Ranges>
      </Class>
    </Transform>
    <Transform Name="PCA">
      <Selection>
        <Input NInputs="9">
          <Input Type="Variable" Label="dist_p_pim" Expression="dist_p_pim"/>
          <Input Type="Variable" Label="dist_pip_pim" Expression="dist_pip_pim"/>
          <Input Type="Variable" Label="eVert_x" Expression="eVert_x"/>
          <Input Type="Variable" Label="eVert_y" Expression="eVert_y"/>
          <Input Type="Variable" Label="eVert_z" Expression="eVert_z"/>
          <Input Type="Variable" Label="dist_p_eVert" Expression="dist_p_eVert"/>
          <Input Type="Variable" Label="dist_pim_eVert" Expression="dist_pim_eVert"/>
          <Input Type="Variable" Label="dist_lambda_eVert" Expression="dist_lambda_eVert"/>
          <Input Type="Variable" Label="dist_lambda_ver_pip_pim" Expression="dist_lambda_ver_pip_pim"/>
        </Input>
        <Output NOutputs="9">
          <Output Type="Variable" Label="dist_p_pim" Expression="dist_p_pim"/>
          <Output Type="Variable" Label="dist_pip_pim" Expression="dist_pip_pim"/>
          <Output Type="Variable" Label="eVert_x" Expression="eVert_x"/>
          <Output Type="Variable" Label="eVert_y" Expression="eVert_y"/>
          <Output Type="Variable" Label="eVert_z" Expression="eVert_z"/>
          <Output Type="Variable" Label="dist_p_eVert" Expression="dist_p_eVert"/>
          <Output Type="Variable" Label="dist_pim_eVert" Expression="dist_pim_eVert"/>
          <Output Type="Variable" Label="dist_lambda_eVert" Expression="dist_lambda_eVert"/>
          <Output Type="Variable" Label="dist_lambda_ver_pip_pim" Expression="dist_lambda_ver_pip_pim"/>
        </Output>
      </Selection>
      <Statistics Class="Signal" ClassIndex="0" NRows="9">
        -9.61386298e-01 -9.46985460e-01 1.17086790e-01 -1.23293792e-01 -7.40976290e-01 -8.53535716e-01 -8.56513681e-01 -8.49442496e-01 -9.72377929e-01 
      </Statistics>
      <Statistics Class="Background" ClassIndex="1" NRows="9">
        -9.14224445e-01 -9.23652571e-01 1.17429613e-01 -1.26204901e-01 -7.39674753e-01 -8.52427830e-01 -8.40507109e-01 -8.45209401e-01 -9.65293253e-01 
      </Statistics>
      <Statistics Class="Combined" ClassIndex="2" NRows="9">
        -9.16899731e-01 -9.24976144e-01 1.17410166e-01 -1.26039766e-01 -7.39748583e-01 -8.52490676e-01 -8.41415092e-01 -8.45449526e-01 -9.65695136e-01 
      </Statistics>
      <Eigenvectors Class="Signal" ClassIndex="0" NRows="9" NCols="9">
        1.07441427e-01 -2.40294942e-01 2.54063994e-02 9.58222934e-01 1.07548921e-01 5.72292525e-04 1.73432169e-02 5.70230649e-05 -3.18057784e-03 -2.95473235e-02 -1.01378713e-02 -9.96894408e-01 3.15790340e-02 -2.98352964e-02 -6.57705443e-03 -5.68988677e-02 -7.34990131e-03 -1.89171392e-03 -1.31939037e-02 1.19923503e-02 1.02442853e-02 9.52860685e-03 -3.84282696e-02 1.45887462e-01 -4.18131238e-02 -9.83998891e-01 8.20019879e-02 -3.73546868e-03 -3.05408953e-02 -8.65164892e-03 -1.05678319e-02 2.62011903e-02 9.87948943e-01 5.40502746e-03 1.46716466e-01 2.41291962e-02 -1.44942403e-01 -4.04428746e-01 -2.58086944e-02 -1.84026425e-01 8.80571785e-01 -3.27849437e-02 4.44344036e-02 -4.43608471e-02 2.17589996e-02 4.92620797e-01 4.26508202e-01 -2.27415690e-02 1.75420102e-02 2.97761504e-01 3.37402935e-02 -5.24756936e-02 -6.34869541e-02 -6.91379773e-01 6.57404670e-01 -6.75809246e-01 -1.10893757e-02 -2.15185659e-01 -2.46622470e-01 -1.04803010e-02 -1.16520022e-02 -1.55112657e-02 -5.80023472e-02 5.36494942e-01 3.68747744e-01 -2.56772132e-02 8.69997577e-03 2.45082512e-01 -1.73130974e-02 -4.58725646e-02 4.64905637e-02 7.14725418e-01 6.08604091e-02 5.39824885e-02 -5.84011707e-02 -7.42266753e-03 -2.05715265e-02 2.70363609e-03 9.93839023e-01 -4.20236408e-02 -1.90289512e-03 
      </Eigenvectors>
      <Eigenvectors Class="Background" ClassIndex="1" NRows="9" NCols="9">
        5.18534857e-01 1.34189867e-01 7.99097120e-01 2.66288179e-01 -5.27749245e-02 2.12222939e-02 1.05851927e-02 -5.59948228e-03 1.64347531e-02 8.94002426e-02 9.63121938e-01 -2.29842782e-01 1.99785530e-02 -1.10443250e-02 1.04925886e-01 -6.68936524e-03 -7.87669019e-04 3.08623784e-04 -2.64179459e-03 -6.31637587e-03 -8.52928150e-03 1.30148284e-02 -5.60737992e-03 2.47024505e-02 -9.83388208e-02 -9.94596000e-01 1.33270356e-02 -1.25393070e-02 -3.55214638e-03 -1.19600163e-02 -1.83904904e-03 -8.57168310e-02 7.07579270e-02 9.89052554e-01 -9.54183905e-02 -2.00116419e-04 -7.50184349e-03 5.38218839e-02 1.29554057e-01 -2.11161568e-01 9.61346107e-01 -5.71186254e-02 8.68080074e-02 -1.93803918e-02 1.77020075e-02 4.22886177e-01 -1.36824566e-01 -3.62452202e-01 4.04074766e-01 1.62849226e-01 4.46250924e-02 1.18155359e-02 -2.11166264e-03 -6.92201538e-01 5.77905115e-01 -6.62459799e-02 -1.09453333e-01 -7.88963997e-01 -1.47688577e-01 1.00935294e-02 -1.01417046e-02 -9.36943936e-03 -7.13336601e-02 4.54703226e-01 -1.41739185e-01 -3.82527156e-01 3.10896096e-01 1.19061737e-01 2.77319623e-02 1.11896934e-02 1.55667918e-02 7.17536953e-01 5.78501762e-02 9.07767277e-02 -4.40157703e-02 3.91471475e-02 -5.49562699e-02 -9.88331119e-01 6.35958069e-02 -3.05284039e-02 -1.21677401e-02 
      </Eigenvectors>
      <Eigenvectors Class="Combined" ClassIndex="2" NRows="9" NCols="9">
        5.07235335e-01 1.59078076e-01 7.98638730e-01 2.75849832e-01 -5.15196501e-02 2.10572601e-02 1.11196110e-02 -4.81144919e-03 1.56541514e-02 8.70097224e-02 9.57022177e-01 -2.55480741e-01 1.80502005e-02 -1.10311163e-02 1.03780267e-01 -6.98675599e-03 -8.85535254e-04 1.14906623e-04 -2.96493602e-03 -6.32492759e-03 -7.52989680e-03 1.30526632e-02 -6.39481113e-03 2.49976754e-02 -8.63740276e-02 -9.95674851e-01 1.51484117e-02 -1.22872199e-02 -3.87745292e-03 -1.20118301e-02 -2.64162734e-03 -8.10272832e-02 7.42897467e-02 9.90274688e-01 -8.33835111e-02 1.25425890e-03 -1.18276740e-02 5.96803899e-02 1.36743950e-01 -2.30337934e-01 9.55990712e-01 -5.67867834e-02 8.20072322e-02 -1.88042621e-02 1.79476804e-02 4.25848468e-01 -1.43971742e-01 -3.55977785e-01 3.98649381e-01 1.75715481e-01 4.52396870e-02 1.29820736e-02 -4.08597166e-03 -6.92225338e-01 5.83015478e-01 -6.66942434e-02 -9.52763758e-02 -7.84375055e-01 -1.61301147e-01 1.02164282e-02 -1.09675362e-02 -9.70498262e-03 -7.06123686e-02 4.58465449e-01 -1.48939389e-01 -3.74193586e-01 3.07530463e-01 1.30232079e-01 2.83125252e-02 1.03853011e-02 1.63329128e-02 7.17561184e-01 5.82874851e-02 8.84703521e-02 -4.67682448e-02 4.00949381e-02 -5.33394814e-02 -9.88162464e-01 6.78324996e-02 -3.03908047e-02 -1.20701544e-02 
      </Eigenvectors>
    </Transform>
  </Transformations>
  <MVAPdfs/>
  <Weights>
    <Layout NLayers="4">
      <Layer Index="0" NNeurons="10">
        <Neuron NSynapses="10">
          -8.1511862993438056e-01 2.2439427152895508e+00 8.5148858129490457e-01 1.5534520325140555e+00 -1.8219361146206079e+00 -1.3103193548320313e+00 -8.2113315103054740e-01 2.0819581025366976e+00 -2.4549726881541098e+00 -1.0663990180932055e+00 
        </Neuron>
        <Neuron NSynapses="10">
          -1.7820758322363253e+00 -2.3765830027379134e-01 -1.1286248337277367e+00 -3.9551107929712270e-01 -5.0874655191138640e-01 7.7322475278634428e-01 -3.5516200694542199e-01 1.4338667622432377e+00 -4.9395611978709697e-01 1.6543865010673606e+00 
        </Neuron>
        <Neuron NSynapses="10">
          -7.1596400916684055e-01 -3.9895087519389416e-01 6.4495180662000540e-01 -1.0140243899970108e-01 -7.6319666445324019e-01 -1.7570816313549964e-01 1.5253212723102341e+00 -9.5621898260491112e-01 -2.3840185401454033e+00 -1.8588389607569039e-01 
        </Neuron>
        <Neuron NSynapses="10">
          8.3281466807309479e-01 1.6036658242027062e+00 -3.0721874894613055e-01 -1.5305397219844702e-01 1.6009598376732179e-01 -3.5356034153114324e-01 -1.6265489792618080e+00 1.6257909946866416e+00 -8.8083567927801576e-01 1.0169523212050240e+00 
        </Neuron>
        <Neuron NSynapses="10">
          7.6588743719370334e-01 9.5666754258482889e-01 1.8418398157263001e+00 1.1210808351483346e+00 -6.1013244558329982e-01 -1.2589488114584062e+00 1.1112491222958256e+00 5.3110197058622111e-01 1.1500005510562636e+00 1.4231068477035402e+00 
        </Neuron>
        <Neuron NSynapses="10">
          1.5449280041414675e+00 1.2488006511220047e+00 -1.6909497429895368e+00 1.3155839649356238e+00 -1.8150972845582427e+00 -9.0194545612326937e-01 -1.1782356859746321e+00 -1.5783461172815536e+00 1.5191006656731090e+00 6.2156892563593147e-01 
        </Neuron>
        <Neuron NSynapses="10">
          -1.4678457947235204e+00 3.5254704661843755e-01 -3.0267010119951621e-01 7.2650470712489090e-01 1.7805227933098486e+00 -3.8252956014566714e-01 3.6471782005712813e-02 -1.2508202956979031e+00 8.0961701528373076e-01 -8.3974982329986358e-01 
        </Neuron>
        <Neuron NSynapses="10">
          -8.5893912857575960e-01 -1.3392769812256491e+00 7.3310695799725256e-01 1.0675509510977628e+00 1.3795580268100651e+00 -2.4833058039236441e-01 -1.7641099184540325e+00 -1.7793048149385489e+00 9.1216726469847331e-01 4.8470348970593774e-01 
        </Neuron>
        <Neuron NSynapses="10">
          1.7951021012886641e+00 6.5972054936995250e-01 9.8894873119774918e-01 -8.1736996326549738e-01 -8.1219926071789128e-01 -1.4051851910516067e-01 1.2977549225349567e+00 -1.0279700431977030e+00 -1.9379795610860642e+00 -1.5890954514652693e+00 
        </Neuron>
        <Neuron NSynapses="10">
          -4.2434899741016491e-01 -6.7929144495584737e-02 1.8598659125802748e+00 -1.6303792964033117e+00 -1.2274384306143358e+00 1.7508803238071333e+00 -9.4265515896823537e-01 -1.7614497867934864e+00 -1.5296254803120772e+00 1.4240702200849187e-01 
        </Neuron>
      </Layer>
      <Layer Index="1" NNeurons="11">
        <Neuron NSynapses="9">
          -1.7777209948354797e+00 -1.7975729204121054e+00 4.9274844151592423e-01 1.4522711290599413e+00 -9.5750552257612320e-01 1.3594876515552023e+00 -1.2447455584524043e+00 -1.0585812182688024e+00 3.8763305710047857e-01 
        </Neuron>
        <Neuron NSynapses="9">
          2.6092474387830145e-01 -2.0684880089506645e+00 3.5333233227057170e-02 -3.7592750237623673e-01 3.2702254483837978e-01 -1.8149846495650601e+00 1.4108093104857449e+00 -5.7843119852912239e-02 -1.2147177318475186e+00 
        </Neuron>
        <Neuron NSynapses="9">
          8.7597297906782401e-01 -1.5059534559139149e+00 -2.0868531117421050e+00 -5.4612105076737782e-01 -3.5218308971878481e-01 1.0292059209620339e+00 1.5845287312903095e-01 -6.2185296336831875e-01 -3.0776094631267764e-01 
        </Neuron>
        <Neuron NSynapses="9">
          2.8877983957444597e-01 -1.8645884801076553e+00 9.2407319301804269e-01 -6.2020017790248412e-02 -1.5955533837258773e+00 2.4094672604753964e-01 -1.6713004583457591e+00 2.8887606892942487e-02 1.1528400774824397e+00 
        </Neuron>
        <Neuron NSynapses="9">
          1.4365778968070939e+00 -2.1177728479710893e+00 3.5538559556365651e-01 1.0476179379253876e+00 1.0953558266706154e+00 4.2511616364332822e-01 -1.4415160304601402e+00 -6.3840417375569225e-01 -1.5853768182048038e+00 
        </Neuron>
        <Neuron NSynapses="9">
          1.3689523749511077e+00 7.4196195356094419e-01 -8.8038220208627260e-01 -9.8928161341332299e-01 -4.5694161794051985e-01 -1.6335833305839031e+00 2.2748752939707617e-01 9.5819018327749461e-01 -6.2653340318257100e-01 
        </Neuron>
        <Neuron NSynapses="9">
          -4.6659777190094165e-01 1.0813698150494241e-01 7.7026059981010497e-01 3.3561943428659397e-01 1.0830386944038457e+00 -1.9088841146660878e+00 1.2107103198158200e+00 5.6810844505079683e-01 5.2140907106163725e-01 
        </Neuron>
        <Neuron NSynapses="9">
          5.4086678075365680e-01 8.0347636079871809e-01 -5.5138258416907482e-01 -1.0383790170234586e+00 6.1698204313948957e-01 -9.2769197534763193e-01 -5.9129551795584401e-01 1.3938408756692555e+00 4.3804727445527036e-01 
        </Neuron>
        <Neuron NSynapses="9">
          -4.6687949072327301e-01 1.3660353963983751e+00 1.8418910741947638e+00 -2.2929419291669171e+00 5.0351817191978776e-01 2.0065007990602301e-02 3.8140239177188234e-01 -1.9791982962407531e+00 -1.4529561132914979e+00 
        </Neuron>
        <Neuron NSynapses="9">
          1.3388596904875909e+00 1.4888426056590265e+00 -2.0895579457387519e+00 -4.0763687007390687e-01 -6.5064400698531877e-01 -1.2291299199746117e-01 1.4103101626390384e+00 -7.3369038234000938e-01 -2.6648264045627357e-01 
        </Neuron>
        <Neuron NSynapses="9">
          -1.0431064348058945e+00 5.1574610241068564e-01 1.0733648743569724e+00 3.6678382961014899e-01 -3.5839359015560054e-02 -1.5011679621459193e+00 -2.5921758220207063e+00 3.3911077981594134e-01 4.6289751635694987e-01 
        </Neuron>
      </Layer>
      <Layer Index="2" NNeurons="10">
        <Neuron NSynapses="1">
          -6.3396419750093702e-01 
        </Neuron>
        <Neuron NSynapses="1">
          -8.0223410542676662e-02 
        </Neuron>
        <Neuron NSynapses="1">
          3.8354984853343171e-01 
        </Neuron>
        <Neuron NSynapses="1">
          -8.6970945462576466e-01 
        </Neuron>
        <Neuron NSynapses="1">
          1.8875394407070101e-01 
        </Neuron>
        <Neuron NSynapses="1">
          6.8215058861984934e-01 
        </Neuron>
        <Neuron NSynapses="1">
          -2.5455778568859683e-02 
        </Neuron>
        <Neuron NSynapses="1">
          -1.4500401833050172e-01 
        </Neuron>
        <Neuron NSynapses="1">
          -5.0739227894904326e-01 
        </Neuron>
        <Neuron NSynapses="1">
          8.2731491521476852e-01 
        </Neuron>
      </Layer>
      <Layer Index="3" NNeurons="1">
        <Neuron NSynapses="0"/>
      </Layer>
    </Layout>
  </Weights>
</MethodSetup>
