<?xml version="1.0"?>
<MethodSetup Method="MLP::kMLP_pca_ce_500">
  <GeneralInfo>
    <Info name="TMVA Release" value="4.2.0 [262656]"/>
    <Info name="ROOT Release" value="5.34/34 [336418]"/>
    <Info name="Creator" value="knowakow"/>
    <Info name="Date" value="Thu Mar 28 21:41:05 2019"/>
    <Info name="Host" value="Linux lxbuild05 3.16.0-4-amd64 #1 SMP Debian 3.16.7-ckt20-1+deb8u4 (2016-02-29) x86_64 GNU/Linux"/>
    <Info name="Dir" value="/lustre/nyx/hades/user/knowakow/PP/FAT/TMVA"/>
    <Info name="Training events" value="20749"/>
    <Info name="TrainingTime" value="1.39006216e+02"/>
    <Info name="AnalysisType" value="Classification"/>
  </GeneralInfo>
  <Options>
    <Option name="NCycles" modified="Yes">500</Option>
    <Option name="HiddenLayers" modified="Yes">N+1,N</Option>
    <Option name="NeuronType" modified="Yes">sigmoid</Option>
    <Option name="RandomSeed" modified="No">1</Option>
    <Option name="EstimatorType" modified="Yes">CE</Option>
    <Option name="NeuronInputType" modified="Yes">sum</Option>
    <Option name="V" modified="Yes">False</Option>
    <Option name="VerbosityLevel" modified="No">Default</Option>
    <Option name="VarTransform" modified="Yes">N,P</Option>
    <Option name="H" modified="Yes">False</Option>
    <Option name="CreateMVAPdfs" modified="No">False</Option>
    <Option name="IgnoreNegWeightsInTraining" modified="No">False</Option>
    <Option name="TrainingMethod" modified="Yes">BP</Option>
    <Option name="LearningRate" modified="No">2.000000e-02</Option>
    <Option name="DecayRate" modified="No">1.000000e-02</Option>
    <Option name="TestRate" modified="No">10</Option>
    <Option name="EpochMonitoring" modified="No">False</Option>
    <Option name="Sampling" modified="No">1.000000e+00</Option>
    <Option name="SamplingEpoch" modified="No">1.000000e+00</Option>
    <Option name="SamplingImportance" modified="No">1.000000e+00</Option>
    <Option name="SamplingTraining" modified="No">True</Option>
    <Option name="SamplingTesting" modified="No">False</Option>
    <Option name="ResetStep" modified="No">50</Option>
    <Option name="Tau" modified="No">3.000000e+00</Option>
    <Option name="BPMode" modified="Yes">sequential</Option>
    <Option name="BatchSize" modified="No">-1</Option>
    <Option name="ConvergenceImprove" modified="No">1.000000e-30</Option>
    <Option name="ConvergenceTests" modified="No">-1</Option>
    <Option name="UseRegulator" modified="No">False</Option>
    <Option name="UpdateLimit" modified="No">10000</Option>
    <Option name="CalculateErrors" modified="No">False</Option>
    <Option name="WeightRange" modified="No">1.000000e+00</Option>
  </Options>
  <Variables NVar="9">
    <Variable VarIndex="0" Expression="dist_p_pim" Label="dist_p_pim" Title="dist_p_pim" Unit="mm" Internal="dist_p_pim" Type="F" Min="3.92466871e-04" Max="3.69215057e+02"/>
    <Variable VarIndex="1" Expression="dist_pip_pim" Label="dist_pip_pim" Title="dist_pip_pim" Unit="mm" Internal="dist_pip_pim" Type="F" Min="6.03823981e-04" Max="4.60604095e+02"/>
    <Variable VarIndex="2" Expression="eVert_x" Label="eVert_x" Title="eVert_x" Unit="mm" Internal="eVert_x" Type="F" Min="-2.64420898e+02" Max="2.08465637e+02"/>
    <Variable VarIndex="3" Expression="eVert_y" Label="eVert_y" Title="eVert_y" Unit="mm" Internal="eVert_y" Type="F" Min="-1.49419037e+02" Max="1.92305557e+02"/>
    <Variable VarIndex="4" Expression="eVert_z" Label="eVert_z" Title="eVert_z" Unit="mm" Internal="eVert_z" Type="F" Min="-9.92704697e+01" Max="4.89156738e+02"/>
    <Variable VarIndex="5" Expression="dist_p_eVert" Label="dist_p_eVert" Title="dist_p_eVert" Unit="mm" Internal="dist_p_eVert" Type="F" Min="7.28023797e-02" Max="4.04899658e+02"/>
    <Variable VarIndex="6" Expression="dist_pim_eVert" Label="dist_pim_eVert" Title="dist_pim_eVert" Unit="mm" Internal="dist_pim_eVert" Type="F" Min="5.47629409e-02" Max="3.57598816e+02"/>
    <Variable VarIndex="7" Expression="dist_lambda_eVert" Label="dist_lambda_eVert" Title="dist_lambda_eVert" Unit="mm" Internal="dist_lambda_eVert" Type="F" Min="1.58101276e-01" Max="3.63446533e+02"/>
    <Variable VarIndex="8" Expression="dist_lambda_ver_pip_pim" Label="dist_lambda_ver_pip_pim" Title="dist_lambda_ver_pip_pim" Unit="mm" Internal="dist_lambda_ver_pip_pim" Type="F" Min="4.63410437e-01" Max="3.57604688e+03"/>
  </Variables>
  <Spectators NSpec="0"/>
  <Classes NClass="2">
    <Class Name="Signal" Index="0"/>
    <Class Name="Background" Index="1"/>
  </Classes>
  <Transformations NTransformations="2">
    <Transform Name="Normalize">
      <Selection>
        <Input NInputs="9">
          <Input Type="Variable" Label="dist_p_pim" Expression="dist_p_pim"/>
          <Input Type="Variable" Label="dist_pip_pim" Expression="dist_pip_pim"/>
          <Input Type="Variable" Label="eVert_x" Expression="eVert_x"/>
          <Input Type="Variable" Label="eVert_y" Expression="eVert_y"/>
          <Input Type="Variable" Label="eVert_z" Expression="eVert_z"/>
          <Input Type="Variable" Label="dist_p_eVert" Expression="dist_p_eVert"/>
          <Input Type="Variable" Label="dist_pim_eVert" Expression="dist_pim_eVert"/>
          <Input Type="Variable" Label="dist_lambda_eVert" Expression="dist_lambda_eVert"/>
          <Input Type="Variable" Label="dist_lambda_ver_pip_pim" Expression="dist_lambda_ver_pip_pim"/>
        </Input>
        <Output NOutputs="9">
          <Output Type="Variable" Label="dist_p_pim" Expression="dist_p_pim"/>
          <Output Type="Variable" Label="dist_pip_pim" Expression="dist_pip_pim"/>
          <Output Type="Variable" Label="eVert_x" Expression="eVert_x"/>
          <Output Type="Variable" Label="eVert_y" Expression="eVert_y"/>
          <Output Type="Variable" Label="eVert_z" Expression="eVert_z"/>
          <Output Type="Variable" Label="dist_p_eVert" Expression="dist_p_eVert"/>
          <Output Type="Variable" Label="dist_pim_eVert" Expression="dist_pim_eVert"/>
          <Output Type="Variable" Label="dist_lambda_eVert" Expression="dist_lambda_eVert"/>
          <Output Type="Variable" Label="dist_lambda_ver_pip_pim" Expression="dist_lambda_ver_pip_pim"/>
        </Output>
      </Selection>
      <Class ClassIndex="0">
        <Ranges>
          <Range Index="0" Min="3.9246687083505094e-04" Max="1.4628904724121094e+02"/>
          <Range Index="1" Min="6.0382398078218102e-04" Max="2.2523158264160156e+02"/>
          <Range Index="2" Min="-6.9596122741699219e+01" Max="3.7107215881347656e+01"/>
          <Range Index="3" Min="-6.6592407226562500e+01" Max="8.1387428283691406e+01"/>
          <Range Index="4" Min="-7.0005859375000000e+01" Max="2.1443231201171875e+02"/>
          <Range Index="5" Min="7.2802379727363586e-02" Max="1.4354609680175781e+02"/>
          <Range Index="6" Min="6.2037980556488037e-01" Max="1.4977827453613281e+02"/>
          <Range Index="7" Min="6.4272022247314453e-01" Max="1.4250509643554688e+02"/>
          <Range Index="8" Min="2.0683512687683105e+00" Max="6.8535784912109375e+02"/>
        </Ranges>
      </Class>
      <Class ClassIndex="1">
        <Ranges>
          <Range Index="0" Min="7.5488456059247255e-04" Max="3.6921505737304688e+02"/>
          <Range Index="1" Min="1.0538299102336168e-03" Max="4.6060409545898438e+02"/>
          <Range Index="2" Min="-2.6442089843750000e+02" Max="2.0846563720703125e+02"/>
          <Range Index="3" Min="-1.4941903686523438e+02" Max="1.9230555725097656e+02"/>
          <Range Index="4" Min="-9.9270469665527344e+01" Max="4.8915673828125000e+02"/>
          <Range Index="5" Min="1.7538926005363464e-01" Max="4.0489965820312500e+02"/>
          <Range Index="6" Min="5.4762940853834152e-02" Max="3.5759881591796875e+02"/>
          <Range Index="7" Min="1.5810127556324005e-01" Max="3.6344653320312500e+02"/>
          <Range Index="8" Min="4.6341043710708618e-01" Max="3.5760468750000000e+03"/>
        </Ranges>
      </Class>
      <Class ClassIndex="2">
        <Ranges>
          <Range Index="0" Min="3.9246687083505094e-04" Max="3.6921505737304688e+02"/>
          <Range Index="1" Min="6.0382398078218102e-04" Max="4.6060409545898438e+02"/>
          <Range Index="2" Min="-2.6442089843750000e+02" Max="2.0846563720703125e+02"/>
          <Range Index="3" Min="-1.4941903686523438e+02" Max="1.9230555725097656e+02"/>
          <Range Index="4" Min="-9.9270469665527344e+01" Max="4.8915673828125000e+02"/>
          <Range Index="5" Min="7.2802379727363586e-02" Max="4.0489965820312500e+02"/>
          <Range Index="6" Min="5.4762940853834152e-02" Max="3.5759881591796875e+02"/>
          <Range Index="7" Min="1.5810127556324005e-01" Max="3.6344653320312500e+02"/>
          <Range Index="8" Min="4.6341043710708618e-01" Max="3.5760468750000000e+03"/>
        </Ranges>
      </Class>
    </Transform>
    <Transform Name="PCA">
      <Selection>
        <Input NInputs="9">
          <Input Type="Variable" Label="dist_p_pim" Expression="dist_p_pim"/>
          <Input Type="Variable" Label="dist_pip_pim" Expression="dist_pip_pim"/>
          <Input Type="Variable" Label="eVert_x" Expression="eVert_x"/>
          <Input Type="Variable" Label="eVert_y" Expression="eVert_y"/>
          <Input Type="Variable" Label="eVert_z" Expression="eVert_z"/>
          <Input Type="Variable" Label="dist_p_eVert" Expression="dist_p_eVert"/>
          <Input Type="Variable" Label="dist_pim_eVert" Expression="dist_pim_eVert"/>
          <Input Type="Variable" Label="dist_lambda_eVert" Expression="dist_lambda_eVert"/>
          <Input Type="Variable" Label="dist_lambda_ver_pip_pim" Expression="dist_lambda_ver_pip_pim"/>
        </Input>
        <Output NOutputs="9">
          <Output Type="Variable" Label="dist_p_pim" Expression="dist_p_pim"/>
          <Output Type="Variable" Label="dist_pip_pim" Expression="dist_pip_pim"/>
          <Output Type="Variable" Label="eVert_x" Expression="eVert_x"/>
          <Output Type="Variable" Label="eVert_y" Expression="eVert_y"/>
          <Output Type="Variable" Label="eVert_z" Expression="eVert_z"/>
          <Output Type="Variable" Label="dist_p_eVert" Expression="dist_p_eVert"/>
          <Output Type="Variable" Label="dist_pim_eVert" Expression="dist_pim_eVert"/>
          <Output Type="Variable" Label="dist_lambda_eVert" Expression="dist_lambda_eVert"/>
          <Output Type="Variable" Label="dist_lambda_ver_pip_pim" Expression="dist_lambda_ver_pip_pim"/>
        </Output>
      </Selection>
      <Statistics Class="Signal" ClassIndex="0" NRows="9">
        -9.61386298e-01 -9.46985460e-01 1.17086790e-01 -1.23293792e-01 -7.40976290e-01 -8.53535716e-01 -8.56513681e-01 -8.49442496e-01 -9.72377929e-01 
      </Statistics>
      <Statistics Class="Background" ClassIndex="1" NRows="9">
        -9.14224445e-01 -9.23652571e-01 1.17429613e-01 -1.26204901e-01 -7.39674753e-01 -8.52427830e-01 -8.40507109e-01 -8.45209401e-01 -9.65293253e-01 
      </Statistics>
      <Statistics Class="Combined" ClassIndex="2" NRows="9">
        -9.16899731e-01 -9.24976144e-01 1.17410166e-01 -1.26039766e-01 -7.39748583e-01 -8.52490676e-01 -8.41415092e-01 -8.45449526e-01 -9.65695136e-01 
      </Statistics>
      <Eigenvectors Class="Signal" ClassIndex="0" NRows="9" NCols="9">
        1.07441427e-01 -2.40294942e-01 2.54063994e-02 9.58222934e-01 1.07548921e-01 5.72292525e-04 1.73432169e-02 5.70230649e-05 -3.18057784e-03 -2.95473235e-02 -1.01378713e-02 -9.96894408e-01 3.15790340e-02 -2.98352964e-02 -6.57705443e-03 -5.68988677e-02 -7.34990131e-03 -1.89171392e-03 -1.31939037e-02 1.19923503e-02 1.02442853e-02 9.52860685e-03 -3.84282696e-02 1.45887462e-01 -4.18131238e-02 -9.83998891e-01 8.20019879e-02 -3.73546868e-03 -3.05408953e-02 -8.65164892e-03 -1.05678319e-02 2.62011903e-02 9.87948943e-01 5.40502746e-03 1.46716466e-01 2.41291962e-02 -1.44942403e-01 -4.04428746e-01 -2.58086944e-02 -1.84026425e-01 8.80571785e-01 -3.27849437e-02 4.44344036e-02 -4.43608471e-02 2.17589996e-02 4.92620797e-01 4.26508202e-01 -2.27415690e-02 1.75420102e-02 2.97761504e-01 3.37402935e-02 -5.24756936e-02 -6.34869541e-02 -6.91379773e-01 6.57404670e-01 -6.75809246e-01 -1.10893757e-02 -2.15185659e-01 -2.46622470e-01 -1.04803010e-02 -1.16520022e-02 -1.55112657e-02 -5.80023472e-02 5.36494942e-01 3.68747744e-01 -2.56772132e-02 8.69997577e-03 2.45082512e-01 -1.73130974e-02 -4.58725646e-02 4.64905637e-02 7.14725418e-01 6.08604091e-02 5.39824885e-02 -5.84011707e-02 -7.42266753e-03 -2.05715265e-02 2.70363609e-03 9.93839023e-01 -4.20236408e-02 -1.90289512e-03 
      </Eigenvectors>
      <Eigenvectors Class="Background" ClassIndex="1" NRows="9" NCols="9">
        5.18534857e-01 1.34189867e-01 7.99097120e-01 2.66288179e-01 -5.27749245e-02 2.12222939e-02 1.05851927e-02 -5.59948228e-03 1.64347531e-02 8.94002426e-02 9.63121938e-01 -2.29842782e-01 1.99785530e-02 -1.10443250e-02 1.04925886e-01 -6.68936524e-03 -7.87669019e-04 3.08623784e-04 -2.64179459e-03 -6.31637587e-03 -8.52928150e-03 1.30148284e-02 -5.60737992e-03 2.47024505e-02 -9.83388208e-02 -9.94596000e-01 1.33270356e-02 -1.25393070e-02 -3.55214638e-03 -1.19600163e-02 -1.83904904e-03 -8.57168310e-02 7.07579270e-02 9.89052554e-01 -9.54183905e-02 -2.00116419e-04 -7.50184349e-03 5.38218839e-02 1.29554057e-01 -2.11161568e-01 9.61346107e-01 -5.71186254e-02 8.68080074e-02 -1.93803918e-02 1.77020075e-02 4.22886177e-01 -1.36824566e-01 -3.62452202e-01 4.04074766e-01 1.62849226e-01 4.46250924e-02 1.18155359e-02 -2.11166264e-03 -6.92201538e-01 5.77905115e-01 -6.62459799e-02 -1.09453333e-01 -7.88963997e-01 -1.47688577e-01 1.00935294e-02 -1.01417046e-02 -9.36943936e-03 -7.13336601e-02 4.54703226e-01 -1.41739185e-01 -3.82527156e-01 3.10896096e-01 1.19061737e-01 2.77319623e-02 1.11896934e-02 1.55667918e-02 7.17536953e-01 5.78501762e-02 9.07767277e-02 -4.40157703e-02 3.91471475e-02 -5.49562699e-02 -9.88331119e-01 6.35958069e-02 -3.05284039e-02 -1.21677401e-02 
      </Eigenvectors>
      <Eigenvectors Class="Combined" ClassIndex="2" NRows="9" NCols="9">
        5.07235335e-01 1.59078076e-01 7.98638730e-01 2.75849832e-01 -5.15196501e-02 2.10572601e-02 1.11196110e-02 -4.81144919e-03 1.56541514e-02 8.70097224e-02 9.57022177e-01 -2.55480741e-01 1.80502005e-02 -1.10311163e-02 1.03780267e-01 -6.98675599e-03 -8.85535254e-04 1.14906623e-04 -2.96493602e-03 -6.32492759e-03 -7.52989680e-03 1.30526632e-02 -6.39481113e-03 2.49976754e-02 -8.63740276e-02 -9.95674851e-01 1.51484117e-02 -1.22872199e-02 -3.87745292e-03 -1.20118301e-02 -2.64162734e-03 -8.10272832e-02 7.42897467e-02 9.90274688e-01 -8.33835111e-02 1.25425890e-03 -1.18276740e-02 5.96803899e-02 1.36743950e-01 -2.30337934e-01 9.55990712e-01 -5.67867834e-02 8.20072322e-02 -1.88042621e-02 1.79476804e-02 4.25848468e-01 -1.43971742e-01 -3.55977785e-01 3.98649381e-01 1.75715481e-01 4.52396870e-02 1.29820736e-02 -4.08597166e-03 -6.92225338e-01 5.83015478e-01 -6.66942434e-02 -9.52763758e-02 -7.84375055e-01 -1.61301147e-01 1.02164282e-02 -1.09675362e-02 -9.70498262e-03 -7.06123686e-02 4.58465449e-01 -1.48939389e-01 -3.74193586e-01 3.07530463e-01 1.30232079e-01 2.83125252e-02 1.03853011e-02 1.63329128e-02 7.17561184e-01 5.82874851e-02 8.84703521e-02 -4.67682448e-02 4.00949381e-02 -5.33394814e-02 -9.88162464e-01 6.78324996e-02 -3.03908047e-02 -1.20701544e-02 
      </Eigenvectors>
    </Transform>
  </Transformations>
  <MVAPdfs/>
  <Weights>
    <Layout NLayers="4">
      <Layer Index="0" NNeurons="10">
        <Neuron NSynapses="10">
          -1.9711604813380268e+00 2.5585341570821627e+00 7.0662847087380043e-01 1.6820342470662843e+00 -2.4329055051249910e+00 -1.4491038231775830e+00 -7.0687284430687211e-02 4.2404709137309062e+00 -2.8260541112430446e+00 -1.2078922655277724e+00 
        </Neuron>
        <Neuron NSynapses="10">
          -4.5059772259472295e+00 1.4049038131116354e-02 -1.5200070654760183e+00 -8.9357095283366006e-01 -7.5697210426165729e-01 1.7517152653700088e+00 6.8401929721905219e-01 1.8579240429587685e+00 -4.9871950734968945e-01 1.7600724920364150e+00 
        </Neuron>
        <Neuron NSynapses="10">
          -4.3571461890110097e+00 -1.3685340068969540e-01 4.5464441499945207e-01 -3.7947830262731425e-01 -2.2433618878026436e+00 1.6457703381788524e+00 3.4102001187597004e+00 1.0343838706954105e+00 -4.4498077815372090e+00 4.4308902664743677e-01 
        </Neuron>
        <Neuron NSynapses="10">
          1.1148004045286471e-01 1.7907607974225674e+00 -2.0756089571659456e-01 -5.3352640099005288e-01 4.5965105814892054e-01 2.1872784152079339e-01 -1.0344468533804434e+00 2.5568122323502656e+00 -2.6198730549712952e+00 1.3629381295478813e+00 
        </Neuron>
        <Neuron NSynapses="10">
          1.4136880547297348e+00 1.3210947134707414e+00 1.7588981569025595e+00 9.4862092504316786e-01 -1.1302814973806360e-01 -2.6236225473673280e+00 1.4319162240176135e+00 7.2966505196931220e-01 2.2501585013044760e+00 1.4910927256765583e+00 
        </Neuron>
        <Neuron NSynapses="10">
          2.4954292458859038e+00 1.1817556064177130e+00 -1.7022677294148307e+00 1.4129261003575155e+00 -1.5426800595822994e+00 -1.5327004003082760e+00 -2.0971405292662850e+00 -2.5954876707164569e+00 2.6558784342778670e+00 5.5644240201227491e-01 
        </Neuron>
        <Neuron NSynapses="10">
          -1.4953531267077356e+00 5.4740517637538522e-01 -3.2704862998115419e-01 7.8239900986919186e-01 1.8743338253248572e+00 -8.8334368704720934e-01 2.3087879738066722e-01 -1.2234955438872606e+00 1.2397571018233824e+00 -9.7014845196685751e-01 
        </Neuron>
        <Neuron NSynapses="10">
          -1.6948089518195182e+00 -1.0550526056338314e+00 7.4696494461932150e-01 1.0325432967602990e+00 9.4651479421026397e-01 7.6170170266845139e-02 -1.0669572456798035e+00 -1.6622232781211470e+00 5.5099919029582689e-01 5.6327306037151526e-01 
        </Neuron>
        <Neuron NSynapses="10">
          -9.1434769736227073e-01 1.1866456425795344e+00 1.0707121336623824e+00 -1.0052639911408054e+00 -1.7636796173135776e+00 1.3579354226367779e+00 3.1462419805684774e+00 9.5254731929395664e-01 -4.7501454675907020e+00 -1.5801840049070701e+00 
        </Neuron>
        <Neuron NSynapses="10">
          -8.0320227873875338e-01 -1.4240142073205775e+00 1.1404961314835809e+00 -1.1344582096173572e+00 -1.0055150258912549e+00 -3.4197017822494319e-01 1.0753197209533426e-01 -1.2339764921955940e+00 -5.8568778248033737e-01 -4.3022507580699654e-01 
        </Neuron>
      </Layer>
      <Layer Index="1" NNeurons="11">
        <Neuron NSynapses="9">
          -2.4511445781887167e+00 -2.2714227136331444e+00 5.7443462437501958e-01 1.3116692120470896e+00 -1.8930025485957851e+00 3.2188831996527214e+00 -1.2151615582588040e+00 -2.2244212648637420e+00 -4.0941278672694664e-01 
        </Neuron>
        <Neuron NSynapses="9">
          4.6559703274510389e-01 -2.0459614252146152e+00 -2.4578290965062372e-01 -2.2552258803102382e-02 1.1307062306302507e+00 -2.1915777015336610e+00 1.5669196562144823e+00 1.1884054948844218e+00 -3.1889537297235354e-01 
        </Neuron>
        <Neuron NSynapses="9">
          9.4720425786943385e-01 -1.2873177684304764e+00 -2.5492941323744218e+00 -6.0201091197410173e-01 3.8303082327441379e-01 1.0175768395469029e+00 3.2941532286333702e-01 6.0834576026142340e-01 7.3078049571218984e-01 
        </Neuron>
        <Neuron NSynapses="9">
          2.9905286093377798e-01 -1.9962450433376535e+00 8.5269817774976464e-01 -7.9982896386749450e-02 -1.3160485724671236e+00 1.4757132200056544e-01 -1.5657132183306210e+00 2.1943144597605466e-01 1.5154587374086890e+00 
        </Neuron>
        <Neuron NSynapses="9">
          1.2226990730105252e+00 -2.4150859679964829e+00 2.2609279524212195e-01 1.2736513121305260e+00 9.8158518299743469e-01 1.1227821374369484e+00 -1.5595371951746893e+00 -1.3411917894345837e+00 -1.8556746985484789e+00 
        </Neuron>
        <Neuron NSynapses="9">
          1.4021373042289798e+00 1.1165839384489944e+00 -1.3152229943434202e+00 -9.4894500177704000e-01 4.0412213291309740e-01 -2.0306153771106148e+00 2.7770555106547562e-01 2.2148191769459227e+00 1.3069956860850781e-03 
        </Neuron>
        <Neuron NSynapses="9">
          -2.8427024329817502e-01 4.0005298460219763e-01 3.0244657716486273e-01 1.5916743156768759e-01 1.7006219991653770e+00 -2.9531229589010262e+00 1.4055403878152561e+00 2.2278053649810117e+00 1.3695214763798333e+00 
        </Neuron>
        <Neuron NSynapses="9">
          9.6895972630244642e-01 1.0752788050218125e+00 -1.1379281665558025e+00 -8.9258786766031029e-01 2.0170310407145773e+00 -2.2938623395716844e+00 -7.5588614522372644e-01 3.0619106211190967e+00 1.8353459222101136e+00 
        </Neuron>
        <Neuron NSynapses="9">
          -1.2776462888072411e+00 5.8184045629973047e-01 2.1782913288836396e+00 -2.3162909270935557e+00 -5.4166464760431987e-01 1.7974436033126597e+00 2.9431584137235783e-01 -4.4767835085818071e+00 -2.8274507196609697e+00 
        </Neuron>
        <Neuron NSynapses="9">
          1.1284339319863492e+00 1.6780701627578836e+00 -2.3165665667223019e+00 -5.4422381692377297e-01 -3.7894014268436071e-01 1.2991502000691404e-01 1.5275560174090002e+00 -1.0664342108560754e+00 -5.2495003424483588e-01 
        </Neuron>
        <Neuron NSynapses="9">
          -1.1027374482801990e+00 7.1769112301675930e-01 5.5801042930106692e-01 2.1962258619013506e-01 8.0448781122412416e-01 -1.4118166999053583e+00 -2.4971288600642776e+00 1.2968623761517859e+00 1.3689370057739809e+00 
        </Neuron>
      </Layer>
      <Layer Index="2" NNeurons="10">
        <Neuron NSynapses="1">
          -7.6807557763413793e-03 
        </Neuron>
        <Neuron NSynapses="1">
          2.6002634844415445e-01 
        </Neuron>
        <Neuron NSynapses="1">
          8.7802459777897557e-01 
        </Neuron>
        <Neuron NSynapses="1">
          -3.1508152389389704e-01 
        </Neuron>
        <Neuron NSynapses="1">
          -1.4640833928319412e+00 
        </Neuron>
        <Neuron NSynapses="1">
          2.6760211681753878e+00 
        </Neuron>
        <Neuron NSynapses="1">
          5.5898264272489451e-01 
        </Neuron>
        <Neuron NSynapses="1">
          -3.1153037014081884e+00 
        </Neuron>
        <Neuron NSynapses="1">
          -1.1000854516168745e+00 
        </Neuron>
        <Neuron NSynapses="1">
          8.2117705508374150e-01 
        </Neuron>
      </Layer>
      <Layer Index="3" NNeurons="1">
        <Neuron NSynapses="0"/>
      </Layer>
    </Layout>
  </Weights>
</MethodSetup>
