<?xml version="1.0"?>
<MethodSetup Method="MLP::kMLP_pca_ce_1000">
  <GeneralInfo>
    <Info name="TMVA Release" value="4.2.0 [262656]"/>
    <Info name="ROOT Release" value="5.34/34 [336418]"/>
    <Info name="Creator" value="knowakow"/>
    <Info name="Date" value="Thu Mar 28 10:20:27 2019"/>
    <Info name="Host" value="Linux lxbuild05 3.16.0-4-amd64 #1 SMP Debian 3.16.7-ckt20-1+deb8u4 (2016-02-29) x86_64 GNU/Linux"/>
    <Info name="Dir" value="/lustre/nyx/hades/user/knowakow/PP/FAT/TMVA"/>
    <Info name="Training events" value="20749"/>
    <Info name="TrainingTime" value="3.28158585e+02"/>
    <Info name="AnalysisType" value="Classification"/>
  </GeneralInfo>
  <Options>
    <Option name="NCycles" modified="Yes">1000</Option>
    <Option name="HiddenLayers" modified="Yes">N+2,N</Option>
    <Option name="NeuronType" modified="Yes">sigmoid</Option>
    <Option name="RandomSeed" modified="No">1</Option>
    <Option name="EstimatorType" modified="Yes">CE</Option>
    <Option name="NeuronInputType" modified="Yes">sum</Option>
    <Option name="V" modified="Yes">False</Option>
    <Option name="VerbosityLevel" modified="No">Default</Option>
    <Option name="VarTransform" modified="Yes">N,P</Option>
    <Option name="H" modified="Yes">False</Option>
    <Option name="CreateMVAPdfs" modified="No">False</Option>
    <Option name="IgnoreNegWeightsInTraining" modified="No">False</Option>
    <Option name="TrainingMethod" modified="Yes">BP</Option>
    <Option name="LearningRate" modified="No">2.000000e-02</Option>
    <Option name="DecayRate" modified="No">1.000000e-02</Option>
    <Option name="TestRate" modified="No">10</Option>
    <Option name="EpochMonitoring" modified="No">False</Option>
    <Option name="Sampling" modified="No">1.000000e+00</Option>
    <Option name="SamplingEpoch" modified="No">1.000000e+00</Option>
    <Option name="SamplingImportance" modified="No">1.000000e+00</Option>
    <Option name="SamplingTraining" modified="No">True</Option>
    <Option name="SamplingTesting" modified="No">False</Option>
    <Option name="ResetStep" modified="No">50</Option>
    <Option name="Tau" modified="No">3.000000e+00</Option>
    <Option name="BPMode" modified="Yes">sequential</Option>
    <Option name="BatchSize" modified="No">-1</Option>
    <Option name="ConvergenceImprove" modified="No">1.000000e-30</Option>
    <Option name="ConvergenceTests" modified="No">-1</Option>
    <Option name="UseRegulator" modified="No">False</Option>
    <Option name="UpdateLimit" modified="No">10000</Option>
    <Option name="CalculateErrors" modified="No">False</Option>
    <Option name="WeightRange" modified="No">1.000000e+00</Option>
  </Options>
  <Variables NVar="9">
    <Variable VarIndex="0" Expression="dist_p_pim" Label="dist_p_pim" Title="dist_p_pim" Unit="mm" Internal="dist_p_pim" Type="F" Min="3.92466871e-04" Max="3.69215057e+02"/>
    <Variable VarIndex="1" Expression="dist_pip_pim" Label="dist_pip_pim" Title="dist_pip_pim" Unit="mm" Internal="dist_pip_pim" Type="F" Min="6.03823981e-04" Max="4.60604095e+02"/>
    <Variable VarIndex="2" Expression="eVert_x" Label="eVert_x" Title="eVert_x" Unit="mm" Internal="eVert_x" Type="F" Min="-1.36909439e+02" Max="1.11190132e+02"/>
    <Variable VarIndex="3" Expression="eVert_y" Label="eVert_y" Title="eVert_y" Unit="mm" Internal="eVert_y" Type="F" Min="-1.49419037e+02" Max="1.92305557e+02"/>
    <Variable VarIndex="4" Expression="eVert_z" Label="eVert_z" Title="eVert_z" Unit="mm" Internal="eVert_z" Type="F" Min="-9.92704697e+01" Max="4.83683044e+02"/>
    <Variable VarIndex="5" Expression="dist_p_eVert" Label="dist_p_eVert" Title="dist_p_eVert" Unit="mm" Internal="dist_p_eVert" Type="F" Min="7.28023797e-02" Max="3.32382172e+02"/>
    <Variable VarIndex="6" Expression="dist_pim_eVert" Label="dist_pim_eVert" Title="dist_pim_eVert" Unit="mm" Internal="dist_pim_eVert" Type="F" Min="5.47629409e-02" Max="3.57598816e+02"/>
    <Variable VarIndex="7" Expression="dist_lambda_eVert" Label="dist_lambda_eVert" Title="dist_lambda_eVert" Unit="mm" Internal="dist_lambda_eVert" Type="F" Min="5.17100155e-01" Max="5.28234912e+03"/>
    <Variable VarIndex="8" Expression="dist_lambda_ver_pip_pim" Label="dist_lambda_ver_pip_pim" Title="dist_lambda_ver_pip_pim" Unit="mm" Internal="dist_lambda_ver_pip_pim" Type="F" Min="4.63410437e-01" Max="3.57604688e+03"/>
  </Variables>
  <Spectators NSpec="0"/>
  <Classes NClass="2">
    <Class Name="Signal" Index="0"/>
    <Class Name="Background" Index="1"/>
  </Classes>
  <Transformations NTransformations="2">
    <Transform Name="Normalize">
      <Selection>
        <Input NInputs="9">
          <Input Type="Variable" Label="dist_p_pim" Expression="dist_p_pim"/>
          <Input Type="Variable" Label="dist_pip_pim" Expression="dist_pip_pim"/>
          <Input Type="Variable" Label="eVert_x" Expression="eVert_x"/>
          <Input Type="Variable" Label="eVert_y" Expression="eVert_y"/>
          <Input Type="Variable" Label="eVert_z" Expression="eVert_z"/>
          <Input Type="Variable" Label="dist_p_eVert" Expression="dist_p_eVert"/>
          <Input Type="Variable" Label="dist_pim_eVert" Expression="dist_pim_eVert"/>
          <Input Type="Variable" Label="dist_lambda_eVert" Expression="dist_lambda_eVert"/>
          <Input Type="Variable" Label="dist_lambda_ver_pip_pim" Expression="dist_lambda_ver_pip_pim"/>
        </Input>
        <Output NOutputs="9">
          <Output Type="Variable" Label="dist_p_pim" Expression="dist_p_pim"/>
          <Output Type="Variable" Label="dist_pip_pim" Expression="dist_pip_pim"/>
          <Output Type="Variable" Label="eVert_x" Expression="eVert_x"/>
          <Output Type="Variable" Label="eVert_y" Expression="eVert_y"/>
          <Output Type="Variable" Label="eVert_z" Expression="eVert_z"/>
          <Output Type="Variable" Label="dist_p_eVert" Expression="dist_p_eVert"/>
          <Output Type="Variable" Label="dist_pim_eVert" Expression="dist_pim_eVert"/>
          <Output Type="Variable" Label="dist_lambda_eVert" Expression="dist_lambda_eVert"/>
          <Output Type="Variable" Label="dist_lambda_ver_pip_pim" Expression="dist_lambda_ver_pip_pim"/>
        </Output>
      </Selection>
      <Class ClassIndex="0">
        <Ranges>
          <Range Index="0" Min="9.1887889429926872e-03" Max="1.9873777770996094e+02"/>
          <Range Index="1" Min="6.0382398078218102e-04" Max="1.7122592163085938e+02"/>
          <Range Index="2" Min="-2.6192224502563477e+01" Max="8.9008644104003906e+01"/>
          <Range Index="3" Min="-9.1798484802246094e+01" Max="6.4377006530761719e+01"/>
          <Range Index="4" Min="-7.3763862609863281e+01" Max="4.2728643798828125e+02"/>
          <Range Index="5" Min="7.2802379727363586e-02" Max="2.7312484741210938e+02"/>
          <Range Index="6" Min="2.0325586199760437e-01" Max="1.5776969909667969e+02"/>
          <Range Index="7" Min="6.4272022247314453e-01" Max="2.3916937255859375e+02"/>
          <Range Index="8" Min="2.1955311298370361e+00" Max="6.8535784912109375e+02"/>
        </Ranges>
      </Class>
      <Class ClassIndex="1">
        <Ranges>
          <Range Index="0" Min="3.9246687083505094e-04" Max="3.6921505737304688e+02"/>
          <Range Index="1" Min="1.0538299102336168e-03" Max="4.6060409545898438e+02"/>
          <Range Index="2" Min="-1.3690943908691406e+02" Max="1.1119013214111328e+02"/>
          <Range Index="3" Min="-1.4941903686523438e+02" Max="1.9230555725097656e+02"/>
          <Range Index="4" Min="-9.9270469665527344e+01" Max="4.8368304443359375e+02"/>
          <Range Index="5" Min="7.2802379727363586e-02" Max="3.3238217163085938e+02"/>
          <Range Index="6" Min="5.4762940853834152e-02" Max="3.5759881591796875e+02"/>
          <Range Index="7" Min="5.1710015535354614e-01" Max="5.2823491210937500e+03"/>
          <Range Index="8" Min="4.6341043710708618e-01" Max="3.5760468750000000e+03"/>
        </Ranges>
      </Class>
      <Class ClassIndex="2">
        <Ranges>
          <Range Index="0" Min="3.9246687083505094e-04" Max="3.6921505737304688e+02"/>
          <Range Index="1" Min="6.0382398078218102e-04" Max="4.6060409545898438e+02"/>
          <Range Index="2" Min="-1.3690943908691406e+02" Max="1.1119013214111328e+02"/>
          <Range Index="3" Min="-1.4941903686523438e+02" Max="1.9230555725097656e+02"/>
          <Range Index="4" Min="-9.9270469665527344e+01" Max="4.8368304443359375e+02"/>
          <Range Index="5" Min="7.2802379727363586e-02" Max="3.3238217163085938e+02"/>
          <Range Index="6" Min="5.4762940853834152e-02" Max="3.5759881591796875e+02"/>
          <Range Index="7" Min="5.1710015535354614e-01" Max="5.2823491210937500e+03"/>
          <Range Index="8" Min="4.6341043710708618e-01" Max="3.5760468750000000e+03"/>
        </Ranges>
      </Class>
    </Transform>
    <Transform Name="PCA">
      <Selection>
        <Input NInputs="9">
          <Input Type="Variable" Label="dist_p_pim" Expression="dist_p_pim"/>
          <Input Type="Variable" Label="dist_pip_pim" Expression="dist_pip_pim"/>
          <Input Type="Variable" Label="eVert_x" Expression="eVert_x"/>
          <Input Type="Variable" Label="eVert_y" Expression="eVert_y"/>
          <Input Type="Variable" Label="eVert_z" Expression="eVert_z"/>
          <Input Type="Variable" Label="dist_p_eVert" Expression="dist_p_eVert"/>
          <Input Type="Variable" Label="dist_pim_eVert" Expression="dist_pim_eVert"/>
          <Input Type="Variable" Label="dist_lambda_eVert" Expression="dist_lambda_eVert"/>
          <Input Type="Variable" Label="dist_lambda_ver_pip_pim" Expression="dist_lambda_ver_pip_pim"/>
        </Input>
        <Output NOutputs="9">
          <Output Type="Variable" Label="dist_p_pim" Expression="dist_p_pim"/>
          <Output Type="Variable" Label="dist_pip_pim" Expression="dist_pip_pim"/>
          <Output Type="Variable" Label="eVert_x" Expression="eVert_x"/>
          <Output Type="Variable" Label="eVert_y" Expression="eVert_y"/>
          <Output Type="Variable" Label="eVert_z" Expression="eVert_z"/>
          <Output Type="Variable" Label="dist_p_eVert" Expression="dist_p_eVert"/>
          <Output Type="Variable" Label="dist_pim_eVert" Expression="dist_pim_eVert"/>
          <Output Type="Variable" Label="dist_lambda_eVert" Expression="dist_lambda_eVert"/>
          <Output Type="Variable" Label="dist_lambda_ver_pip_pim" Expression="dist_lambda_ver_pip_pim"/>
        </Output>
      </Selection>
      <Statistics Class="Signal" ClassIndex="0" NRows="9">
        -9.61512352e-01 -9.47166313e-01 1.01642112e-01 -1.24213032e-01 -7.39057479e-01 -8.24015025e-01 -8.58255462e-01 -9.89939525e-01 -9.73080317e-01 
      </Statistics>
      <Statistics Class="Background" ClassIndex="1" NRows="9">
        -9.15303065e-01 -9.22909217e-01 1.01729188e-01 -1.26358340e-01 -7.37554668e-01 -8.22033709e-01 -8.41030432e-01 -9.72095695e-01 -9.65154293e-01 
      </Statistics>
      <Statistics Class="Combined" ClassIndex="2" NRows="9">
        -9.17924316e-01 -9.24285216e-01 1.01724248e-01 -1.26236646e-01 -7.37639916e-01 -8.22146101e-01 -8.42007533e-01 -9.73107897e-01 -9.65603902e-01 
      </Statistics>
      <Eigenvectors Class="Signal" ClassIndex="0" NRows="9" NCols="9">
        2.17562079e-01 3.59911510e-01 1.75009642e-01 -3.09383790e-01 -8.31696454e-01 2.69353155e-02 6.10811575e-02 2.46508178e-02 8.17529744e-04 9.66549389e-03 4.26829716e-01 -8.93832684e-01 -8.52901035e-02 2.62439680e-02 -6.29564844e-02 -1.92194993e-03 -8.27953080e-02 -8.25996754e-04 5.15065007e-02 1.65339986e-01 1.54111009e-01 -7.36394737e-02 1.39811837e-01 -9.00606822e-01 3.31860088e-01 -8.07975324e-03 6.29619909e-04 -2.32349721e-02 -9.86102644e-02 -7.37976598e-02 4.29862176e-03 1.40912170e-02 3.15956515e-01 9.40046563e-01 2.35964286e-02 -4.07007006e-04 -3.55932376e-02 5.04158063e-01 2.88777946e-01 -5.87853555e-01 4.96661190e-01 2.58092449e-01 -1.79457431e-02 4.45262597e-02 -2.13961691e-03 6.52919091e-01 4.08365630e-01 1.49519666e-01 5.75988542e-01 1.68609102e-01 1.26755097e-01 2.47313662e-02 -7.01076143e-02 5.28454287e-02 7.19425185e-01 -4.78512402e-01 -1.70347891e-01 -4.57763258e-01 1.11677129e-01 -3.34602095e-02 -3.38498133e-02 -1.07133629e-02 5.97719157e-03 3.93603850e-02 1.78815031e-02 6.95547482e-03 2.90246899e-02 7.96643405e-03 5.23477353e-03 9.43824824e-04 2.74858723e-04 -9.98573166e-01 5.18505654e-02 3.14180827e-02 -8.01426586e-02 6.19821243e-02 1.44823205e-02 -2.37539015e-02 -1.91402464e-02 9.92422633e-01 4.09582364e-03 
      </Eigenvectors>
      <Eigenvectors Class="Background" ClassIndex="1" NRows="9" NCols="9">
        5.83527862e-01 4.18304238e-02 7.86194037e-01 1.81364040e-01 7.06140213e-02 2.22274598e-02 -2.89049419e-02 1.92595839e-02 -8.04016465e-03 1.22680567e-01 9.73946098e-01 -1.52951977e-01 1.97511600e-02 2.28709420e-02 3.95531546e-03 -1.07258282e-01 -2.34222826e-02 1.54747955e-03 -1.18452879e-02 -5.26496771e-03 -3.43225844e-02 5.55479914e-02 1.03692634e-02 9.93882602e-01 1.80278298e-02 8.44875029e-02 -1.39664638e-02 -1.55978786e-02 -6.69185719e-03 7.40496461e-03 -1.94441054e-03 1.25766393e-01 9.20602140e-03 -5.99291745e-02 5.41532910e-02 9.88548072e-01 5.47841262e-03 5.04894197e-02 1.17522548e-01 -1.43721802e-01 -9.69202365e-01 2.56825672e-02 7.36887011e-02 -3.14971043e-02 1.28523887e-01 5.00536447e-01 -1.58558281e-01 -4.97612408e-01 6.57024548e-01 -1.58640326e-01 -3.52866293e-02 -4.42407606e-02 -1.23794401e-01 3.64550993e-02 6.13535193e-01 -1.11582331e-01 -2.89870637e-01 -7.12934325e-01 7.45210071e-02 4.46239870e-02 1.12657594e-02 -1.05417641e-01 6.25585305e-03 1.12864727e-01 -2.40688250e-02 -1.01486915e-01 -1.55794306e-02 -6.44123129e-02 -8.03496401e-02 -1.75863032e-01 9.65337645e-01 -5.22527271e-02 6.58063898e-02 9.42702413e-02 -3.89553347e-02 5.26529591e-02 6.59057609e-02 -3.53668453e-02 9.72266251e-01 1.72345524e-01 4.35173774e-02 
      </Eigenvectors>
      <Eigenvectors Class="Combined" ClassIndex="2" NRows="9" NCols="9">
        5.75871526e-01 5.55457291e-02 7.89332342e-01 1.78496883e-01 -9.44620355e-02 2.13947907e-02 2.78660947e-02 1.37110858e-02 -5.88633194e-03 1.22338438e-01 9.71697512e-01 -1.67574581e-01 1.65781687e-02 -2.26026302e-02 5.35079895e-03 1.06623142e-01 -2.39279690e-02 7.89394367e-04 -9.60344722e-03 -7.29703919e-03 -3.22364639e-02 5.83367555e-02 1.27572166e-02 9.93995235e-01 -1.04967065e-02 8.39342247e-02 -8.23112152e-03 -1.62029245e-02 -6.12426156e-03 4.51811930e-03 -1.30026702e-02 -1.23821159e-01 6.81038016e-03 6.10977181e-02 5.11651637e-02 9.88828403e-01 5.58165068e-03 5.32368697e-02 1.32701645e-01 -8.81098009e-02 9.74565378e-01 3.26659152e-04 -7.06129437e-02 -3.09313982e-02 1.26652653e-01 5.04987241e-01 -1.64249594e-01 -4.90037145e-01 6.64736792e-01 1.27498140e-01 -4.19196699e-02 4.57991808e-02 -1.20220148e-01 3.78822823e-02 6.17348470e-01 -1.16652973e-01 -2.82828175e-01 -7.15710388e-01 -2.76311135e-02 4.66710001e-02 -9.13323778e-03 -1.00021437e-01 3.23272684e-03 1.12023013e-01 -2.24547249e-02 -9.16317018e-02 -8.92819971e-03 6.17226694e-02 -8.26975738e-02 1.68314379e-01 9.67973784e-01 -5.01895908e-02 6.58708889e-02 9.32932958e-02 -4.09797046e-02 4.82946039e-02 -6.68206569e-02 -2.58125299e-02 -9.73917335e-01 1.64892269e-01 4.59342919e-02 
      </Eigenvectors>
    </Transform>
  </Transformations>
  <MVAPdfs/>
  <Weights>
    <Layout NLayers="4">
      <Layer Index="0" NNeurons="10">
        <Neuron NSynapses="11">
          1.0382116271201560e+00 2.1812769892261255e+00 1.9322363316744091e+00 2.8343418321750167e+00 -2.0957927430209762e+00 -1.3305521255008157e+00 -1.0288956631807458e+00 1.6508490654170256e+00 -2.4804046974556351e+00 1.9139394125173534e+00 -2.9852749658743387e+00 
        </Neuron>
        <Neuron NSynapses="11">
          1.1211081972584103e+00 -1.0269439422870836e+00 -3.5564068653771974e-01 -2.8621897191983367e-02 3.8458319406054964e-01 -5.4342294266544300e-01 3.1187573105472270e+00 -8.3017357445534645e-01 3.7122621356620489e-01 -3.5383548167500339e-01 -8.3861452917486590e-01 
        </Neuron>
        <Neuron NSynapses="11">
          3.5871199923015507e+00 -1.0162980171792856e-01 -1.4869039415283907e+00 -1.8102481523531750e+00 9.0339648049314458e-01 -8.5217623089873851e-01 -2.3390179406102778e+00 1.2787955169287628e+00 -7.4819461986648361e-01 -9.3971149471601045e-01 -3.0410728712306843e-02 
        </Neuron>
        <Neuron NSynapses="11">
          -8.5208371375709255e+00 -6.6124576665040691e-01 -1.9849431696311106e+00 -3.9230545040490097e+00 3.3937756799264105e+00 -1.1816327257744217e+00 2.9819147387243068e+00 2.1086663197703035e+00 1.1422248946422197e+01 6.2145970408239730e+00 2.0504884651567368e+00 
        </Neuron>
        <Neuron NSynapses="11">
          -2.3976553326573828e+00 -1.2786970349756390e+00 7.0573121552964979e-01 8.9633816516693654e-01 1.4569896287891506e+00 1.7669302758260941e+00 1.5415328689991228e+00 3.8621190267022891e+00 -3.0165854437021853e+00 2.7587423547150265e+00 -2.2772516853929803e+00 
        </Neuron>
        <Neuron NSynapses="11">
          2.1366189251581900e+00 -1.7615083661695554e+00 -3.2990633447052797e+00 -1.4650599732941469e+00 8.7390090978801593e-01 -2.0212688412570508e+00 4.8109695651791928e-01 1.4540405665150031e+00 -5.0754339508134616e-01 -1.7251052759837919e+00 1.5100145024771652e+00 
        </Neuron>
        <Neuron NSynapses="11">
          -1.5824112816804989e+00 -9.7956860644366339e-01 2.3770601787141219e+00 5.3600967982389340e+00 -1.5402071268648858e+00 -1.1787770414170569e+00 -3.4441073622484564e-01 -1.4360067997961548e+00 -7.9163527740215833e-01 3.3586635974864771e+00 -4.7335237995373891e+00 
        </Neuron>
        <Neuron NSynapses="11">
          -1.3491810189494897e+01 2.0405610338203704e+00 9.0859268800567889e+00 3.1293073854481833e+01 -2.0835913528295498e+00 1.5298131393906576e+00 -4.0372906848544368e+00 -1.3937080167529690e+01 -1.1498271236050023e+01 2.4212007859011866e+01 -1.3988683091620027e+01 
        </Neuron>
        <Neuron NSynapses="11">
          -8.0162371070385041e-01 -1.8592412084347336e+00 -1.0642725313443471e+00 -1.6223948057630553e+00 1.7006626998196541e+00 -1.6451962792385775e+00 -6.8597692418329881e-01 2.4093948932434546e+00 -1.7751407070578085e-01 -2.3268024440420212e+00 -7.7394112011739491e-01 
        </Neuron>
        <Neuron NSynapses="11">
          -5.7084843333754787e-01 -1.6558574205881142e+00 -1.7981892612654526e-01 5.0171854527637139e-01 -9.1388941119630840e-01 -2.0180083585832107e+00 -1.0394102786843062e+00 -6.9910359447551818e-01 -7.3137590898157390e-01 5.5867636743344007e-01 -4.0368972756813581e-01 
        </Neuron>
      </Layer>
      <Layer Index="1" NNeurons="12">
        <Neuron NSynapses="9">
          -5.0939796600851661e+00 -3.7818247989187732e+00 -5.0328717924156781e+00 -2.5350429839691562e+00 -2.3742101954806847e+00 6.6470334577818937e+00 7.5042727953057542e-01 -3.2851646692311500e+00 4.1331323092698922e+00 
        </Neuron>
        <Neuron NSynapses="9">
          -2.1031136020070478e+00 -1.0252871133661425e+00 1.3381847654848160e+00 3.4743688702557435e-01 2.0659503901762206e+00 -6.0295020050385972e-01 -2.3000113806349764e-02 8.3700795807294143e-02 2.1201774869897841e-02 
        </Neuron>
        <Neuron NSynapses="9">
          -3.8490806764217500e+00 2.2863417105268393e+00 2.6800159808704134e+00 -2.4060889503811153e-01 1.1848879792325735e+00 -4.6563128540988199e+00 -9.0060732190154306e-04 2.1306465066925329e+00 1.1780250523997682e+00 
        </Neuron>
        <Neuron NSynapses="9">
          -9.6353747602152975e+00 4.3241535325777383e+00 8.9454619581551267e+00 5.5689825299890421e+00 1.5684559795173603e+00 -1.0099793366339840e+01 -3.1076708320907126e-01 1.4952029173260466e+00 7.4541293858507129e-01 
        </Neuron>
        <Neuron NSynapses="9">
          2.1997200003575621e+00 -1.0312049738302178e+00 -8.8848150199548226e-01 5.1186721258115142e-01 -1.2295651342094602e+00 1.1337140380532618e+00 1.6547561250741567e+00 -5.4813022053824645e-01 -1.8856518574936774e+00 
        </Neuron>
        <Neuron NSynapses="9">
          -9.0119051923414539e-01 1.1281563005061777e+00 1.0621275571929785e+00 1.4288461057705257e+00 -1.4245886132528693e+00 5.2373543621242047e-01 7.5890730135833151e-01 7.0793385226102845e-01 3.3914698573767227e-01 
        </Neuron>
        <Neuron NSynapses="9">
          2.5510023494855365e+00 -2.0228800803986973e+00 -2.5745888467465314e+00 6.3051091736582454e-01 -9.1906563923184803e-01 9.3019610916623130e-01 1.5652293119886829e+00 3.9664900523055968e-01 -1.4580718812231130e+00 
        </Neuron>
        <Neuron NSynapses="9">
          3.2469215840525636e+00 -9.8684020344728851e-01 -5.7004335742332932e+00 -1.2968959835809044e+00 -5.0668824446032790e-01 4.7946473498895488e+00 -1.4886630429068566e+00 -2.9765609787620413e+00 1.6984151249203807e+00 
        </Neuron>
        <Neuron NSynapses="9">
          8.2637995530204087e+00 -2.5990801121854155e+00 -2.5132230911281561e+00 -1.0906816379332793e+00 1.8028428775741664e-01 4.5263279964749454e+00 -4.1848515682583382e-01 -1.1882836244174539e+00 -2.7895874087571695e+00 
        </Neuron>
        <Neuron NSynapses="9">
          1.7168860620373094e+00 5.6057858369980993e+00 7.7092555116292765e+00 4.4628469041226593e+00 7.1521098417791651e-01 -8.9379509969787847e+00 7.3391475930144390e-01 3.2309744796868891e+00 -5.2262160183408604e+00 
        </Neuron>
        <Neuron NSynapses="9">
          3.0625374152404778e+00 -2.5468344218933789e+00 -4.5731284022375185e+00 -3.7895190714533573e+00 8.5286618200348985e-01 5.1000950553239566e+00 -4.4590307908484289e-01 -1.9665067769146616e+00 1.5715691031654655e+00 
        </Neuron>
        <Neuron NSynapses="9">
          -5.4524679536218568e-01 -1.2878908882923035e+00 -1.9856671883375314e+00 -2.1186400772713112e+00 -9.0132310597379905e-01 2.7557558569428005e+00 1.4826321804563309e+00 1.2736339594429372e-01 1.2530911392067576e-01 
        </Neuron>
      </Layer>
      <Layer Index="2" NNeurons="10">
        <Neuron NSynapses="1">
          1.1180685550422325e+01 
        </Neuron>
        <Neuron NSynapses="1">
          -7.3283779268378364e+00 
        </Neuron>
        <Neuron NSynapses="1">
          -1.2754730501582589e+01 
        </Neuron>
        <Neuron NSynapses="1">
          -6.5421427376221031e+00 
        </Neuron>
        <Neuron NSynapses="1">
          -2.2997201256441713e+00 
        </Neuron>
        <Neuron NSynapses="1">
          1.5338872859891072e+01 
        </Neuron>
        <Neuron NSynapses="1">
          1.0967263314671669e+00 
        </Neuron>
        <Neuron NSynapses="1">
          -4.8807818994781780e+00 
        </Neuron>
        <Neuron NSynapses="1">
          6.1240803818933349e+00 
        </Neuron>
        <Neuron NSynapses="1">
          4.2595743776350545e-02 
        </Neuron>
      </Layer>
      <Layer Index="3" NNeurons="1">
        <Neuron NSynapses="0"/>
      </Layer>
    </Layout>
  </Weights>
</MethodSetup>
