<?xml version="1.0"?>
<MethodSetup Method="MLP::kMLP_n_ce">
  <GeneralInfo>
    <Info name="TMVA Release" value="4.2.0 [262656]"/>
    <Info name="ROOT Release" value="5.34/34 [336418]"/>
    <Info name="Creator" value="knowakow"/>
    <Info name="Date" value="Wed Mar 27 20:09:34 2019"/>
    <Info name="Host" value="Linux lxbuild05 3.16.0-4-amd64 #1 SMP Debian 3.16.7-ckt20-1+deb8u4 (2016-02-29) x86_64 GNU/Linux"/>
    <Info name="Dir" value="/lustre/nyx/hades/user/knowakow/PP/FAT/TMVA"/>
    <Info name="Training events" value="2354"/>
    <Info name="TrainingTime" value="2.53280859e+01"/>
    <Info name="AnalysisType" value="Classification"/>
  </GeneralInfo>
  <Options>
    <Option name="NCycles" modified="Yes">1000</Option>
    <Option name="HiddenLayers" modified="Yes">N+1,N</Option>
    <Option name="NeuronType" modified="Yes">sigmoid</Option>
    <Option name="RandomSeed" modified="No">1</Option>
    <Option name="EstimatorType" modified="Yes">CE</Option>
    <Option name="NeuronInputType" modified="Yes">sum</Option>
    <Option name="V" modified="Yes">False</Option>
    <Option name="VerbosityLevel" modified="No">Default</Option>
    <Option name="VarTransform" modified="Yes">N</Option>
    <Option name="H" modified="Yes">False</Option>
    <Option name="CreateMVAPdfs" modified="No">False</Option>
    <Option name="IgnoreNegWeightsInTraining" modified="No">False</Option>
    <Option name="TrainingMethod" modified="Yes">BP</Option>
    <Option name="LearningRate" modified="No">2.000000e-02</Option>
    <Option name="DecayRate" modified="No">1.000000e-02</Option>
    <Option name="TestRate" modified="No">10</Option>
    <Option name="EpochMonitoring" modified="No">False</Option>
    <Option name="Sampling" modified="No">1.000000e+00</Option>
    <Option name="SamplingEpoch" modified="No">1.000000e+00</Option>
    <Option name="SamplingImportance" modified="No">1.000000e+00</Option>
    <Option name="SamplingTraining" modified="No">True</Option>
    <Option name="SamplingTesting" modified="No">False</Option>
    <Option name="ResetStep" modified="No">50</Option>
    <Option name="Tau" modified="No">3.000000e+00</Option>
    <Option name="BPMode" modified="Yes">sequential</Option>
    <Option name="BatchSize" modified="No">-1</Option>
    <Option name="ConvergenceImprove" modified="No">1.000000e-30</Option>
    <Option name="ConvergenceTests" modified="No">-1</Option>
    <Option name="UseRegulator" modified="No">False</Option>
    <Option name="UpdateLimit" modified="No">10000</Option>
    <Option name="CalculateErrors" modified="No">False</Option>
    <Option name="WeightRange" modified="No">1.000000e+00</Option>
  </Options>
  <Variables NVar="9">
    <Variable VarIndex="0" Expression="dist_p_pim" Label="dist_p_pim" Title="dist_p_pim" Unit="mm" Internal="dist_p_pim" Type="F" Min="3.92466871e-04" Max="1.93118484e+02"/>
    <Variable VarIndex="1" Expression="dist_pip_pim" Label="dist_pip_pim" Title="dist_pip_pim" Unit="mm" Internal="dist_pip_pim" Type="F" Min="2.90864613e-03" Max="2.75433563e+02"/>
    <Variable VarIndex="2" Expression="eVert_x" Label="eVert_x" Title="eVert_x" Unit="mm" Internal="eVert_x" Type="F" Min="-6.95961227e+01" Max="4.73017960e+01"/>
    <Variable VarIndex="3" Expression="eVert_y" Label="eVert_y" Title="eVert_y" Unit="mm" Internal="eVert_y" Type="F" Min="-6.65924072e+01" Max="3.28105011e+01"/>
    <Variable VarIndex="4" Expression="eVert_z" Label="eVert_z" Title="eVert_z" Unit="mm" Internal="eVert_z" Type="F" Min="-8.99312820e+01" Max="1.82428162e+02"/>
    <Variable VarIndex="5" Expression="dist_p_eVert" Label="dist_p_eVert" Title="dist_p_eVert" Unit="mm" Internal="dist_p_eVert" Type="F" Min="7.28023797e-02" Max="1.73723068e+02"/>
    <Variable VarIndex="6" Expression="dist_pim_eVert" Label="dist_pim_eVert" Title="dist_pim_eVert" Unit="mm" Internal="dist_pim_eVert" Type="F" Min="4.10466492e-01" Max="1.57769699e+02"/>
    <Variable VarIndex="7" Expression="dist_lambda_eVert" Label="dist_lambda_eVert" Title="dist_lambda_eVert" Unit="mm" Internal="dist_lambda_eVert" Type="F" Min="3.41899633e-01" Max="1.30440125e+03"/>
    <Variable VarIndex="8" Expression="dist_lambda_ver_pip_pim" Label="dist_lambda_ver_pip_pim" Title="dist_lambda_ver_pip_pim" Unit="mm" Internal="dist_lambda_ver_pip_pim" Type="F" Min="1.46781886e+00" Max="6.85357849e+02"/>
  </Variables>
  <Spectators NSpec="0"/>
  <Classes NClass="2">
    <Class Name="Signal" Index="0"/>
    <Class Name="Background" Index="1"/>
  </Classes>
  <Transformations NTransformations="1">
    <Transform Name="Normalize">
      <Selection>
        <Input NInputs="9">
          <Input Type="Variable" Label="dist_p_pim" Expression="dist_p_pim"/>
          <Input Type="Variable" Label="dist_pip_pim" Expression="dist_pip_pim"/>
          <Input Type="Variable" Label="eVert_x" Expression="eVert_x"/>
          <Input Type="Variable" Label="eVert_y" Expression="eVert_y"/>
          <Input Type="Variable" Label="eVert_z" Expression="eVert_z"/>
          <Input Type="Variable" Label="dist_p_eVert" Expression="dist_p_eVert"/>
          <Input Type="Variable" Label="dist_pim_eVert" Expression="dist_pim_eVert"/>
          <Input Type="Variable" Label="dist_lambda_eVert" Expression="dist_lambda_eVert"/>
          <Input Type="Variable" Label="dist_lambda_ver_pip_pim" Expression="dist_lambda_ver_pip_pim"/>
        </Input>
        <Output NOutputs="9">
          <Output Type="Variable" Label="dist_p_pim" Expression="dist_p_pim"/>
          <Output Type="Variable" Label="dist_pip_pim" Expression="dist_pip_pim"/>
          <Output Type="Variable" Label="eVert_x" Expression="eVert_x"/>
          <Output Type="Variable" Label="eVert_y" Expression="eVert_y"/>
          <Output Type="Variable" Label="eVert_z" Expression="eVert_z"/>
          <Output Type="Variable" Label="dist_p_eVert" Expression="dist_p_eVert"/>
          <Output Type="Variable" Label="dist_pim_eVert" Expression="dist_pim_eVert"/>
          <Output Type="Variable" Label="dist_lambda_eVert" Expression="dist_lambda_eVert"/>
          <Output Type="Variable" Label="dist_lambda_ver_pip_pim" Expression="dist_lambda_ver_pip_pim"/>
        </Output>
      </Selection>
      <Class ClassIndex="0">
        <Ranges>
          <Range Index="0" Min="3.9246687083505094e-04" Max="1.4628904724121094e+02"/>
          <Range Index="1" Min="1.4665067195892334e-02" Max="2.2523158264160156e+02"/>
          <Range Index="2" Min="-6.9596122741699219e+01" Max="3.9888107299804688e+01"/>
          <Range Index="3" Min="-6.6592407226562500e+01" Max="3.2810501098632812e+01"/>
          <Range Index="4" Min="-7.1911727905273438e+01" Max="1.8242816162109375e+02"/>
          <Range Index="5" Min="7.2802379727363586e-02" Max="1.4354609680175781e+02"/>
          <Range Index="6" Min="4.7674450278282166e-01" Max="1.5776969909667969e+02"/>
          <Range Index="7" Min="3.4189963340759277e-01" Max="1.4250509643554688e+02"/>
          <Range Index="8" Min="2.0683512687683105e+00" Max="6.8535784912109375e+02"/>
        </Ranges>
      </Class>
      <Class ClassIndex="1">
        <Ranges>
          <Range Index="0" Min="7.7364118769764900e-03" Max="1.9311848449707031e+02"/>
          <Range Index="1" Min="2.9086461290717125e-03" Max="2.7543356323242188e+02"/>
          <Range Index="2" Min="-5.1974723815917969e+01" Max="4.7301795959472656e+01"/>
          <Range Index="3" Min="-2.5652727127075195e+01" Max="2.8827011108398438e+01"/>
          <Range Index="4" Min="-8.9931282043457031e+01" Max="1.5992741394042969e+02"/>
          <Range Index="5" Min="1.4438147544860840e+00" Max="1.7372306823730469e+02"/>
          <Range Index="6" Min="4.1046649217605591e-01" Max="1.5776969909667969e+02"/>
          <Range Index="7" Min="3.0571944713592529e+00" Max="1.3044012451171875e+03"/>
          <Range Index="8" Min="1.4678188562393188e+00" Max="5.7386712646484375e+02"/>
        </Ranges>
      </Class>
      <Class ClassIndex="2">
        <Ranges>
          <Range Index="0" Min="3.9246687083505094e-04" Max="1.9311848449707031e+02"/>
          <Range Index="1" Min="2.9086461290717125e-03" Max="2.7543356323242188e+02"/>
          <Range Index="2" Min="-6.9596122741699219e+01" Max="4.7301795959472656e+01"/>
          <Range Index="3" Min="-6.6592407226562500e+01" Max="3.2810501098632812e+01"/>
          <Range Index="4" Min="-8.9931282043457031e+01" Max="1.8242816162109375e+02"/>
          <Range Index="5" Min="7.2802379727363586e-02" Max="1.7372306823730469e+02"/>
          <Range Index="6" Min="4.1046649217605591e-01" Max="1.5776969909667969e+02"/>
          <Range Index="7" Min="3.4189963340759277e-01" Max="1.3044012451171875e+03"/>
          <Range Index="8" Min="1.4678188562393188e+00" Max="6.8535784912109375e+02"/>
        </Ranges>
      </Class>
    </Transform>
  </Transformations>
  <MVAPdfs/>
  <Weights>
    <Layout NLayers="4">
      <Layer Index="0" NNeurons="10">
        <Neuron NSynapses="10">
          -3.2820253216489176e-01 2.3736423275094052e+00 1.0673619744462202e+00 1.8003988164351943e+00 -1.3453231953187847e+00 -1.4744978421187738e+00 -1.6164498416967091e-01 1.4743834247353593e+00 -1.8810283098322060e+00 -3.0403165264258025e-01 
        </Neuron>
        <Neuron NSynapses="10">
          -2.4622750159464080e-01 -4.9294542288051502e-01 -1.3237802938687033e+00 -3.1652633813209524e-01 -3.6498376694495949e-01 8.8341007976677843e-01 -5.1811997663619758e-01 9.8949259450423266e-01 7.0011036366263879e-02 7.9527193469696533e-01 
        </Neuron>
        <Neuron NSynapses="10">
          -5.9823793138184123e-01 -7.0570190617394923e-01 9.7224182317409324e-01 4.7743253478946417e-02 -2.0202743170200313e-01 -1.6676807019227327e-01 1.2261264003898800e+00 -8.9269019543086681e-01 -1.8854389596792154e+00 3.1051823319335703e-02 
        </Neuron>
        <Neuron NSynapses="10">
          8.7702139517039412e-01 1.5994369988586186e+00 -6.0655630444834352e-01 -2.0316456377986447e-01 -8.9829236855284350e-02 -4.6434514464771126e-01 -2.5150247286258707e+00 2.0515803988059429e+00 -1.0212312460622157e+00 1.3975156756280842e+00 
        </Neuron>
        <Neuron NSynapses="10">
          5.6467743478573540e-01 1.1296622758601256e+00 2.9543026825934162e+00 1.2860649232046286e+00 2.4215815593082149e-01 -1.6920039488223135e+00 -5.9259824755961599e-01 5.7081988935650496e-01 1.1374971423664362e+00 3.3090651384120184e-01 
        </Neuron>
        <Neuron NSynapses="10">
          9.7787522344197308e-01 1.3489239312205701e+00 -1.4163631832223427e+00 1.2773657500749416e+00 -6.8414203780661840e+00 -5.9923798045674115e-01 -2.8879306515911879e-01 -1.4707280016025124e+00 1.4317797999330080e+00 3.1640537514652817e-01 
        </Neuron>
        <Neuron NSynapses="10">
          1.2635232130258236e+00 3.1911033102539593e-01 -9.7555941460782669e-01 7.7563566277341001e-01 6.1535652644948255e+00 -7.9749839162172742e-01 1.0141609965835798e+00 -1.7742946061332907e+00 6.1198183207322743e-01 4.5928783744319429e-01 
        </Neuron>
        <Neuron NSynapses="10">
          -1.9611264166921146e+01 -9.1783613732000935e-01 2.4874393316351178e+00 1.1761314193499697e+00 3.1885606775942672e+00 -5.7257058069600013e-02 -1.0588245146929626e+01 1.3740118805593107e+00 2.6483443907001397e-01 -4.8471351267914136e+00 
        </Neuron>
        <Neuron NSynapses="10">
          1.9772566561086199e-01 7.9939101106410448e-01 1.3799619910130323e+00 -6.7731412106630906e-01 -1.3856976595814263e-01 -2.7954857320240900e-01 9.8276112289088191e-01 6.7544566936976158e-01 -1.7686909246928897e+00 -2.5238569466989085e+00 
        </Neuron>
        <Neuron NSynapses="10">
          -1.7406705365775412e+01 2.0903742446468029e-01 3.3567281795347053e+00 -1.8153374192850771e+00 2.5125593933344188e+00 1.7152373923438504e+00 -8.9307599469250754e+00 -1.2281833826309654e+00 -1.6009091371722692e+00 -5.5161766899776188e+00 
        </Neuron>
      </Layer>
      <Layer Index="1" NNeurons="11">
        <Neuron NSynapses="9">
          -8.0279834051377801e+00 -3.8662515959953097e+00 2.2354376955980166e+00 1.9949187085637934e+00 -6.7062998138786778e+00 6.2382996348463493e+00 3.8389098238874313e+00 -4.1309733799718247e+00 -4.0713855863384762e-01 
        </Neuron>
        <Neuron NSynapses="9">
          -3.3527832876315089e-01 -1.9095714983808838e+00 3.3381797623642995e-01 3.3832066244646913e-01 -7.9978960375152123e-03 -1.3515883463101728e+00 2.1082116949876823e+00 9.2738113137076750e-02 -9.9611280600948326e-01 
        </Neuron>
        <Neuron NSynapses="9">
          2.4314991400158421e+00 -4.5049563731982450e-01 -2.3347012419282929e+00 -3.8514883961462437e-01 1.0848589105149808e+00 2.2684102561730799e-03 -9.1929785368776484e-01 5.8393220509155819e-01 -2.4842155481913958e-01 
        </Neuron>
        <Neuron NSynapses="9">
          3.7892915181798231e-01 -1.7222431577698054e+00 9.8901965115243429e-01 1.1982940193495115e-01 -1.5739288987018361e+00 5.0002821431791200e-01 -1.6365826528781988e+00 1.4689900601195605e-01 1.2052466765425471e+00 
        </Neuron>
        <Neuron NSynapses="9">
          4.0522571192973116e+00 -1.0184979874554601e+00 -6.1250601588737663e-01 6.1339573487316779e-01 3.5063177958366332e+00 -1.6736555742239194e+00 -3.3210738629801817e+00 7.9587471699719758e-01 -1.4406614436419181e+00 
        </Neuron>
        <Neuron NSynapses="9">
          2.6993069013994750e+00 1.4854681627789219e+00 -9.4918476398485108e-01 -9.9112861774300609e-01 1.3784385925134168e+00 -2.1236565186127820e+00 -4.4855961234373815e-01 1.7799845234342659e+00 -6.1303197780000207e-01 
        </Neuron>
        <Neuron NSynapses="9">
          -4.5612600586715768e+00 -1.1912430406015329e+00 1.8702259531976995e+00 5.6132723893448466e-01 -3.0020531773441284e+00 1.5712024177973600e+00 4.6270366983870455e+00 -1.4197918614093454e+00 2.1229996317124977e-01 
        </Neuron>
        <Neuron NSynapses="9">
          3.5608297218461116e-01 8.6809690300572473e-01 -5.8463328372217449e-01 -6.3731944507997795e-01 9.1503415750352468e-01 -1.1143447881174824e+00 -5.1602178677908017e-01 1.4865642028898816e+00 9.5790262077358679e-01 
        </Neuron>
        <Neuron NSynapses="9">
          -1.0525714917519373e-01 1.5717953937359974e+00 1.7950862410614117e+00 -2.0432533319626351e+00 8.9150930728475763e-01 8.8642225259485743e-02 3.7457957412122339e-01 -1.6383741906698295e+00 -1.5672309304816496e+00 
        </Neuron>
        <Neuron NSynapses="9">
          -1.1674029504998431e+00 1.0017694253455138e+00 -1.1950897109674137e+00 -3.5606869803769570e-01 -2.4066086181086606e+00 2.0091328486288051e+00 3.2535200389914309e+00 -1.4848174887452663e+00 -7.7457726800344195e-01 
        </Neuron>
        <Neuron NSynapses="9">
          1.8170384732921538e-01 1.3566258810226877e+00 1.1096181995409657e+00 4.9566198567929437e-01 1.6554385865847128e+00 -1.6761507172055017e+00 -3.1454140129726404e+00 1.1985160117333546e+00 4.3672654422436252e-01 
        </Neuron>
      </Layer>
      <Layer Index="2" NNeurons="10">
        <Neuron NSynapses="1">
          -8.9540911200011166e+00 
        </Neuron>
        <Neuron NSynapses="1">
          -2.4720794596568285e+00 
        </Neuron>
        <Neuron NSynapses="1">
          2.7934997288728978e+00 
        </Neuron>
        <Neuron NSynapses="1">
          1.6573348536009134e+00 
        </Neuron>
        <Neuron NSynapses="1">
          -7.3543164460027377e+00 
        </Neuron>
        <Neuron NSynapses="1">
          6.0894842410331167e+00 
        </Neuron>
        <Neuron NSynapses="1">
          7.0065520295433670e+00 
        </Neuron>
        <Neuron NSynapses="1">
          -3.7735508404813674e+00 
        </Neuron>
        <Neuron NSynapses="1">
          -4.0783292846220903e-01 
        </Neuron>
        <Neuron NSynapses="1">
          1.9193794379503930e+00 
        </Neuron>
      </Layer>
      <Layer Index="3" NNeurons="1">
        <Neuron NSynapses="0"/>
      </Layer>
    </Layout>
  </Weights>
</MethodSetup>
