<?xml version="1.0"?>
<MethodSetup Method="MLP::kMLP_pca_mse">
  <GeneralInfo>
    <Info name="TMVA Release" value="4.2.0 [262656]"/>
    <Info name="ROOT Release" value="5.34/34 [336418]"/>
    <Info name="Creator" value="knowakow"/>
    <Info name="Date" value="Wed Mar 27 12:52:05 2019"/>
    <Info name="Host" value="Linux lxbuild05 3.16.0-4-amd64 #1 SMP Debian 3.16.7-ckt20-1+deb8u4 (2016-02-29) x86_64 GNU/Linux"/>
    <Info name="Dir" value="/lustre/nyx/hades/user/knowakow/PP/FAT/TMVA"/>
    <Info name="Training events" value="108"/>
    <Info name="TrainingTime" value="1.48244810e+00"/>
    <Info name="AnalysisType" value="Classification"/>
  </GeneralInfo>
  <Options>
    <Option name="NCycles" modified="Yes">1000</Option>
    <Option name="HiddenLayers" modified="Yes">N+1,N</Option>
    <Option name="NeuronType" modified="Yes">sigmoid</Option>
    <Option name="RandomSeed" modified="No">1</Option>
    <Option name="EstimatorType" modified="Yes">MSE</Option>
    <Option name="NeuronInputType" modified="Yes">sum</Option>
    <Option name="V" modified="Yes">False</Option>
    <Option name="VerbosityLevel" modified="No">Default</Option>
    <Option name="VarTransform" modified="Yes">P</Option>
    <Option name="H" modified="Yes">False</Option>
    <Option name="CreateMVAPdfs" modified="No">False</Option>
    <Option name="IgnoreNegWeightsInTraining" modified="No">False</Option>
    <Option name="TrainingMethod" modified="Yes">BP</Option>
    <Option name="LearningRate" modified="No">2.000000e-02</Option>
    <Option name="DecayRate" modified="No">1.000000e-02</Option>
    <Option name="TestRate" modified="No">10</Option>
    <Option name="EpochMonitoring" modified="No">False</Option>
    <Option name="Sampling" modified="No">1.000000e+00</Option>
    <Option name="SamplingEpoch" modified="No">1.000000e+00</Option>
    <Option name="SamplingImportance" modified="No">1.000000e+00</Option>
    <Option name="SamplingTraining" modified="No">True</Option>
    <Option name="SamplingTesting" modified="No">False</Option>
    <Option name="ResetStep" modified="No">50</Option>
    <Option name="Tau" modified="No">3.000000e+00</Option>
    <Option name="BPMode" modified="Yes">sequential</Option>
    <Option name="BatchSize" modified="No">-1</Option>
    <Option name="ConvergenceImprove" modified="No">1.000000e-30</Option>
    <Option name="ConvergenceTests" modified="No">-1</Option>
    <Option name="UseRegulator" modified="No">False</Option>
    <Option name="UpdateLimit" modified="No">10000</Option>
    <Option name="CalculateErrors" modified="No">False</Option>
    <Option name="WeightRange" modified="No">1.000000e+00</Option>
  </Options>
  <Variables NVar="9">
    <Variable VarIndex="0" Expression="dist_p_pim" Label="dist_p_pim" Title="dist_p_pim" Unit="mm" Internal="dist_p_pim" Type="F" Min="5.58451051e-03" Max="6.37781677e+01"/>
    <Variable VarIndex="1" Expression="dist_pip_pim" Label="dist_pip_pim" Title="dist_pip_pim" Unit="mm" Internal="dist_pip_pim" Type="F" Min="2.20608681e-01" Max="8.78612442e+01"/>
    <Variable VarIndex="2" Expression="eVert_x" Label="eVert_x" Title="eVert_x" Unit="mm" Internal="eVert_x" Type="F" Min="-6.95961227e+01" Max="3.71072159e+01"/>
    <Variable VarIndex="3" Expression="eVert_y" Label="eVert_y" Title="eVert_y" Unit="mm" Internal="eVert_y" Type="F" Min="-6.65924072e+01" Max="1.36942568e+01"/>
    <Variable VarIndex="4" Expression="eVert_z" Label="eVert_z" Title="eVert_z" Unit="mm" Internal="eVert_z" Type="F" Min="-6.18079605e+01" Max="1.82428162e+02"/>
    <Variable VarIndex="5" Expression="dist_p_eVert" Label="dist_p_eVert" Title="dist_p_eVert" Unit="mm" Internal="dist_p_eVert" Type="F" Min="5.65902138e+00" Max="9.22974243e+01"/>
    <Variable VarIndex="6" Expression="dist_pim_eVert" Label="dist_pim_eVert" Title="dist_pim_eVert" Unit="mm" Internal="dist_pim_eVert" Type="F" Min="8.92934513e+00" Max="1.57769699e+02"/>
    <Variable VarIndex="7" Expression="dist_lambda_eVert" Label="dist_lambda_eVert" Title="dist_lambda_eVert" Unit="mm" Internal="dist_lambda_eVert" Type="F" Min="1.51481476e+01" Max="8.11329712e+02"/>
    <Variable VarIndex="8" Expression="dist_lambda_ver_pip_pim" Label="dist_lambda_ver_pip_pim" Title="dist_lambda_ver_pip_pim" Unit="mm" Internal="dist_lambda_ver_pip_pim" Type="F" Min="7.79223251e+00" Max="6.85357849e+02"/>
  </Variables>
  <Spectators NSpec="0"/>
  <Classes NClass="2">
    <Class Name="Signal" Index="0"/>
    <Class Name="Background" Index="1"/>
  </Classes>
  <Transformations NTransformations="1">
    <Transform Name="PCA">
      <Selection>
        <Input NInputs="9">
          <Input Type="Variable" Label="dist_p_pim" Expression="dist_p_pim"/>
          <Input Type="Variable" Label="dist_pip_pim" Expression="dist_pip_pim"/>
          <Input Type="Variable" Label="eVert_x" Expression="eVert_x"/>
          <Input Type="Variable" Label="eVert_y" Expression="eVert_y"/>
          <Input Type="Variable" Label="eVert_z" Expression="eVert_z"/>
          <Input Type="Variable" Label="dist_p_eVert" Expression="dist_p_eVert"/>
          <Input Type="Variable" Label="dist_pim_eVert" Expression="dist_pim_eVert"/>
          <Input Type="Variable" Label="dist_lambda_eVert" Expression="dist_lambda_eVert"/>
          <Input Type="Variable" Label="dist_lambda_ver_pip_pim" Expression="dist_lambda_ver_pip_pim"/>
        </Input>
        <Output NOutputs="9">
          <Output Type="Variable" Label="dist_p_pim" Expression="dist_p_pim"/>
          <Output Type="Variable" Label="dist_pip_pim" Expression="dist_pip_pim"/>
          <Output Type="Variable" Label="eVert_x" Expression="eVert_x"/>
          <Output Type="Variable" Label="eVert_y" Expression="eVert_y"/>
          <Output Type="Variable" Label="eVert_z" Expression="eVert_z"/>
          <Output Type="Variable" Label="dist_p_eVert" Expression="dist_p_eVert"/>
          <Output Type="Variable" Label="dist_pim_eVert" Expression="dist_pim_eVert"/>
          <Output Type="Variable" Label="dist_lambda_eVert" Expression="dist_lambda_eVert"/>
          <Output Type="Variable" Label="dist_lambda_ver_pip_pim" Expression="dist_lambda_ver_pip_pim"/>
        </Output>
      </Selection>
      <Statistics Class="Signal" ClassIndex="0" NRows="9">
        3.61811242e+00 9.76904968e+00 -3.75166615e-01 -9.52962196e-01 -3.09176468e+01 6.04880806e+01 5.18712650e+01 5.72207599e+01 7.97703331e+01 
      </Statistics>
      <Statistics Class="Background" ClassIndex="1" NRows="9">
        1.31038318e+01 2.06324111e+01 -1.93766470e-01 1.23536239e+00 -2.58286267e+01 3.48905044e+01 3.20100802e+01 8.74210838e+01 7.13560581e+01 
      </Statistics>
      <Statistics Class="Combined" ClassIndex="2" NRows="9">
        8.36097211e+00 1.52007304e+01 -2.84466542e-01 1.41200098e-01 -2.83731367e+01 4.76892925e+01 4.19406726e+01 7.23209218e+01 7.55631956e+01 
      </Statistics>
      <Eigenvectors Class="Signal" ClassIndex="0" NRows="9" NCols="9">
        2.45359203e-03 9.85002589e-03 3.63993122e-03 2.03839252e-02 -1.03716630e-02 -9.77409569e-02 -6.69886081e-02 -3.78398768e-02 -9.91911290e-01 1.81477948e-02 2.38738856e-02 -5.92090327e-02 9.87594697e-01 -1.34716594e-01 -3.72211850e-02 6.44675422e-03 8.16012529e-03 2.46895641e-02 -3.35855101e-03 1.19807115e-01 -4.51796298e-02 -1.09843310e-01 -8.66876206e-01 3.87265288e-01 2.59417033e-01 2.04152125e-02 -4.86362575e-02 9.37081378e-03 1.75687008e-01 -1.14073332e-01 -6.62676228e-02 -3.39091954e-01 -2.80994004e-01 -8.43255588e-01 2.00340701e-01 8.05280897e-02 -7.82152037e-02 -7.76615181e-01 5.47825085e-01 1.47336733e-02 -2.37060998e-01 -1.61932357e-01 -8.74150423e-02 -2.37034493e-03 1.88367992e-02 -4.16711954e-03 -6.03452979e-02 1.19950876e-01 6.46620417e-02 1.55437152e-01 7.24006299e-01 -4.52402230e-01 -4.73519015e-01 -2.31910470e-02 -9.41734510e-02 -5.62982051e-01 -8.15626424e-01 -3.47297383e-02 -2.46346628e-02 3.24312675e-02 -2.44173855e-02 -7.35586778e-02 -8.01324299e-03 -4.24876638e-03 -1.29084172e-01 2.60898719e-02 4.24028344e-02 1.84492847e-01 4.56804357e-01 -6.46697697e-02 8.53379833e-01 -7.54545783e-02 9.92241841e-01 -1.17171404e-01 -3.16138661e-02 -1.95408212e-02 -1.68242620e-02 1.97088496e-04 -2.49537042e-03 -7.38137072e-03 1.37988940e-03 
      </Eigenvectors>
      <Eigenvectors Class="Background" ClassIndex="1" NRows="9" NCols="9">
        -4.33096323e-03 7.66229724e-03 -3.01727100e-01 -1.55357858e-01 7.94478560e-01 4.35130224e-01 -2.46942462e-01 -1.08286147e-02 -5.58112160e-02 2.21997513e-02 -8.40081002e-02 -7.51568950e-01 4.55018637e-01 9.20233215e-02 -3.99784377e-01 2.20362331e-01 5.99194873e-02 -1.03064079e-02 -4.68045075e-03 -1.50329903e-03 -6.66101832e-02 -8.19271770e-03 -1.19268211e-02 -9.07142220e-02 -9.73920518e-02 -9.80527327e-01 1.27206240e-01 6.57532043e-03 -2.02458959e-02 -3.78593315e-03 6.87437438e-04 5.44151101e-02 -8.39073885e-02 -1.93817391e-01 1.51643265e-01 9.63830767e-01 2.63104720e-03 3.47598036e-02 4.38344303e-01 9.21048265e-02 5.03977602e-01 -7.02718136e-01 -1.81587679e-01 2.96423613e-02 -1.28440064e-01 -3.36240237e-02 -6.52948375e-02 -3.38690175e-01 -4.08934895e-01 -2.98585497e-01 -2.61529657e-01 -7.18189885e-01 1.03940844e-01 -1.68866089e-01 -3.13114393e-02 -1.54708595e-02 -1.50067543e-01 -7.68532622e-01 1.13870625e-01 -2.68426116e-01 5.42441976e-01 -3.30770945e-03 7.96508060e-02 -9.98093951e-01 -3.24495439e-02 5.53801855e-03 4.89930411e-02 7.91564950e-03 5.66270704e-03 1.23720383e-02 3.23535980e-03 8.13920070e-03 3.33741605e-02 -9.92828178e-01 1.01222138e-01 7.91366130e-04 3.25018895e-02 3.56291222e-02 1.55663168e-02 -1.26135350e-02 -1.43041006e-02 
      </Eigenvectors>
      <Eigenvectors Class="Combined" ClassIndex="2" NRows="9" NCols="9">
        -1.20497646e-02 3.46248956e-03 4.56429647e-02 1.59954699e-02 -2.39935347e-01 1.44936359e-01 -9.51191405e-01 1.05407793e-01 5.52473352e-02 1.71859639e-02 -4.33935848e-02 1.55777747e-01 3.43598362e-02 -9.29870394e-01 -2.58911336e-01 1.99486021e-01 -1.69215324e-02 -2.44805048e-02 -2.31496388e-03 1.84582854e-03 8.89955209e-02 -7.99086339e-02 5.11366307e-03 -1.42468289e-02 -7.77657624e-02 -9.05987572e-01 3.98240537e-01 9.67230802e-03 -1.12862890e-02 1.34337131e-01 -9.71603215e-02 4.73343214e-03 1.06200110e-01 -7.40109482e-02 -3.71084070e-01 -9.04328810e-01 -2.09752931e-02 5.14542984e-02 -5.92680500e-01 7.67481530e-01 -4.75761296e-02 -1.06646658e-01 -4.45412399e-02 -1.69319732e-01 -1.11014984e-01 -1.03725017e-02 -3.57635768e-02 -2.03174775e-01 -2.92636417e-01 1.65254998e-01 -8.93281584e-01 -1.97491924e-01 -1.59144009e-04 -8.62150071e-02 -2.67099672e-02 2.99921763e-02 -7.42180901e-01 -5.54062879e-01 -2.17894604e-01 2.98371024e-01 5.14574355e-02 -3.70913616e-02 -6.47455518e-03 -9.88096753e-01 -1.49876916e-01 2.92525997e-02 6.24356749e-03 -4.21778381e-03 5.23352163e-03 1.50610271e-02 5.54070316e-04 -5.89054577e-03 1.47866039e-01 -9.85233486e-01 -5.86939311e-02 3.23944531e-02 2.55924727e-02 4.58124473e-02 -7.30886408e-03 -6.38113287e-03 1.04087205e-02 
      </Eigenvectors>
    </Transform>
  </Transformations>
  <MVAPdfs/>
  <Weights>
    <Layout NLayers="4">
      <Layer Index="0" NNeurons="10">
        <Neuron NSynapses="10">
          -nan nan -nan nan -nan -nan -nan nan -nan -nan 
        </Neuron>
        <Neuron NSynapses="10">
          -nan nan -nan nan -nan -nan -nan nan -nan -nan 
        </Neuron>
        <Neuron NSynapses="10">
          -nan nan -nan nan -nan -nan -nan nan -nan -nan 
        </Neuron>
        <Neuron NSynapses="10">
          -nan nan -nan nan -nan -nan -nan nan -nan -nan 
        </Neuron>
        <Neuron NSynapses="10">
          -nan nan -nan nan -nan -nan -nan nan -nan -nan 
        </Neuron>
        <Neuron NSynapses="10">
          -nan nan -nan nan -nan -nan -nan nan -nan -nan 
        </Neuron>
        <Neuron NSynapses="10">
          -nan nan -nan nan -nan -nan -nan nan -nan -nan 
        </Neuron>
        <Neuron NSynapses="10">
          -nan nan -nan nan -nan -nan -nan nan -nan -nan 
        </Neuron>
        <Neuron NSynapses="10">
          -nan nan -nan nan -nan -nan -nan nan -nan -nan 
        </Neuron>
        <Neuron NSynapses="10">
          -nan nan -nan nan -nan -nan -nan nan -nan -nan 
        </Neuron>
      </Layer>
      <Layer Index="1" NNeurons="11">
        <Neuron NSynapses="9">
          -nan -nan -nan -nan -nan -nan -nan -nan -nan 
        </Neuron>
        <Neuron NSynapses="9">
          -nan -nan -nan -nan -nan -nan -nan -nan -nan 
        </Neuron>
        <Neuron NSynapses="9">
          -nan -nan -nan -nan -nan -nan -nan -nan -nan 
        </Neuron>
        <Neuron NSynapses="9">
          -nan -nan -nan -nan -nan -nan -nan -nan -nan 
        </Neuron>
        <Neuron NSynapses="9">
          -nan -nan -nan -nan -nan -nan -nan -nan -nan 
        </Neuron>
        <Neuron NSynapses="9">
          -nan -nan -nan -nan -nan -nan -nan -nan -nan 
        </Neuron>
        <Neuron NSynapses="9">
          -nan -nan -nan -nan -nan -nan -nan -nan -nan 
        </Neuron>
        <Neuron NSynapses="9">
          -nan -nan -nan -nan -nan -nan -nan -nan -nan 
        </Neuron>
        <Neuron NSynapses="9">
          -nan -nan -nan -nan -nan -nan -nan -nan -nan 
        </Neuron>
        <Neuron NSynapses="9">
          -nan -nan -nan -nan -nan -nan -nan -nan -nan 
        </Neuron>
        <Neuron NSynapses="9">
          -nan -nan -nan -nan -nan -nan -nan -nan -nan 
        </Neuron>
      </Layer>
      <Layer Index="2" NNeurons="10">
        <Neuron NSynapses="1">
          -nan 
        </Neuron>
        <Neuron NSynapses="1">
          -nan 
        </Neuron>
        <Neuron NSynapses="1">
          -nan 
        </Neuron>
        <Neuron NSynapses="1">
          -nan 
        </Neuron>
        <Neuron NSynapses="1">
          -nan 
        </Neuron>
        <Neuron NSynapses="1">
          -nan 
        </Neuron>
        <Neuron NSynapses="1">
          -nan 
        </Neuron>
        <Neuron NSynapses="1">
          -nan 
        </Neuron>
        <Neuron NSynapses="1">
          -nan 
        </Neuron>
        <Neuron NSynapses="1">
          -nan 
        </Neuron>
      </Layer>
      <Layer Index="3" NNeurons="1">
        <Neuron NSynapses="0"/>
      </Layer>
    </Layout>
  </Weights>
</MethodSetup>
