<?xml version="1.0"?>
<MethodSetup Method="MLP::kMLP_pca_mse_500">
  <GeneralInfo>
    <Info name="TMVA Release" value="4.2.0 [262656]"/>
    <Info name="ROOT Release" value="5.34/34 [336418]"/>
    <Info name="Creator" value="knowakow"/>
    <Info name="Date" value="Wed Mar 27 21:13:38 2019"/>
    <Info name="Host" value="Linux lxbuild05 3.16.0-4-amd64 #1 SMP Debian 3.16.7-ckt20-1+deb8u4 (2016-02-29) x86_64 GNU/Linux"/>
    <Info name="Dir" value="/lustre/nyx/hades/user/knowakow/PP/FAT/TMVA"/>
    <Info name="Training events" value="2354"/>
    <Info name="TrainingTime" value="1.62836440e+01"/>
    <Info name="AnalysisType" value="Classification"/>
  </GeneralInfo>
  <Options>
    <Option name="NCycles" modified="Yes">500</Option>
    <Option name="HiddenLayers" modified="Yes">N+1,N</Option>
    <Option name="NeuronType" modified="Yes">sigmoid</Option>
    <Option name="RandomSeed" modified="No">1</Option>
    <Option name="EstimatorType" modified="Yes">MSE</Option>
    <Option name="NeuronInputType" modified="Yes">sum</Option>
    <Option name="V" modified="Yes">False</Option>
    <Option name="VerbosityLevel" modified="No">Default</Option>
    <Option name="VarTransform" modified="Yes">N,P</Option>
    <Option name="H" modified="Yes">False</Option>
    <Option name="CreateMVAPdfs" modified="No">False</Option>
    <Option name="IgnoreNegWeightsInTraining" modified="No">False</Option>
    <Option name="TrainingMethod" modified="Yes">BP</Option>
    <Option name="LearningRate" modified="No">2.000000e-02</Option>
    <Option name="DecayRate" modified="No">1.000000e-02</Option>
    <Option name="TestRate" modified="No">10</Option>
    <Option name="EpochMonitoring" modified="No">False</Option>
    <Option name="Sampling" modified="No">1.000000e+00</Option>
    <Option name="SamplingEpoch" modified="No">1.000000e+00</Option>
    <Option name="SamplingImportance" modified="No">1.000000e+00</Option>
    <Option name="SamplingTraining" modified="No">True</Option>
    <Option name="SamplingTesting" modified="No">False</Option>
    <Option name="ResetStep" modified="No">50</Option>
    <Option name="Tau" modified="No">3.000000e+00</Option>
    <Option name="BPMode" modified="Yes">sequential</Option>
    <Option name="BatchSize" modified="No">-1</Option>
    <Option name="ConvergenceImprove" modified="No">1.000000e-30</Option>
    <Option name="ConvergenceTests" modified="No">-1</Option>
    <Option name="UseRegulator" modified="No">False</Option>
    <Option name="UpdateLimit" modified="No">10000</Option>
    <Option name="CalculateErrors" modified="No">False</Option>
    <Option name="WeightRange" modified="No">1.000000e+00</Option>
  </Options>
  <Variables NVar="9">
    <Variable VarIndex="0" Expression="dist_p_pim" Label="dist_p_pim" Title="dist_p_pim" Unit="mm" Internal="dist_p_pim" Type="F" Min="4.67730599e-04" Max="1.93118484e+02"/>
    <Variable VarIndex="1" Expression="dist_pip_pim" Label="dist_pip_pim" Title="dist_pip_pim" Unit="mm" Internal="dist_pip_pim" Type="F" Min="6.16299547e-03" Max="2.75433563e+02"/>
    <Variable VarIndex="2" Expression="eVert_x" Label="eVert_x" Title="eVert_x" Unit="mm" Internal="eVert_x" Type="F" Min="-5.19747238e+01" Max="4.73017960e+01"/>
    <Variable VarIndex="3" Expression="eVert_y" Label="eVert_y" Title="eVert_y" Unit="mm" Internal="eVert_y" Type="F" Min="-2.56527271e+01" Max="6.43770065e+01"/>
    <Variable VarIndex="4" Expression="eVert_z" Label="eVert_z" Title="eVert_z" Unit="mm" Internal="eVert_z" Type="F" Min="-8.99312820e+01" Max="2.14432312e+02"/>
    <Variable VarIndex="5" Expression="dist_p_eVert" Label="dist_p_eVert" Title="dist_p_eVert" Unit="mm" Internal="dist_p_eVert" Type="F" Min="8.93397331e-01" Max="1.73723068e+02"/>
    <Variable VarIndex="6" Expression="dist_pim_eVert" Label="dist_pim_eVert" Title="dist_pim_eVert" Unit="mm" Internal="dist_pim_eVert" Type="F" Min="4.10466492e-01" Max="1.49376495e+02"/>
    <Variable VarIndex="7" Expression="dist_lambda_eVert" Label="dist_lambda_eVert" Title="dist_lambda_eVert" Unit="mm" Internal="dist_lambda_eVert" Type="F" Min="6.87124670e-01" Max="1.30440125e+03"/>
    <Variable VarIndex="8" Expression="dist_lambda_ver_pip_pim" Label="dist_lambda_ver_pip_pim" Title="dist_lambda_ver_pip_pim" Unit="mm" Internal="dist_lambda_ver_pip_pim" Type="F" Min="1.46781886e+00" Max="6.85357849e+02"/>
  </Variables>
  <Spectators NSpec="0"/>
  <Classes NClass="2">
    <Class Name="Signal" Index="0"/>
    <Class Name="Background" Index="1"/>
  </Classes>
  <Transformations NTransformations="2">
    <Transform Name="Normalize">
      <Selection>
        <Input NInputs="9">
          <Input Type="Variable" Label="dist_p_pim" Expression="dist_p_pim"/>
          <Input Type="Variable" Label="dist_pip_pim" Expression="dist_pip_pim"/>
          <Input Type="Variable" Label="eVert_x" Expression="eVert_x"/>
          <Input Type="Variable" Label="eVert_y" Expression="eVert_y"/>
          <Input Type="Variable" Label="eVert_z" Expression="eVert_z"/>
          <Input Type="Variable" Label="dist_p_eVert" Expression="dist_p_eVert"/>
          <Input Type="Variable" Label="dist_pim_eVert" Expression="dist_pim_eVert"/>
          <Input Type="Variable" Label="dist_lambda_eVert" Expression="dist_lambda_eVert"/>
          <Input Type="Variable" Label="dist_lambda_ver_pip_pim" Expression="dist_lambda_ver_pip_pim"/>
        </Input>
        <Output NOutputs="9">
          <Output Type="Variable" Label="dist_p_pim" Expression="dist_p_pim"/>
          <Output Type="Variable" Label="dist_pip_pim" Expression="dist_pip_pim"/>
          <Output Type="Variable" Label="eVert_x" Expression="eVert_x"/>
          <Output Type="Variable" Label="eVert_y" Expression="eVert_y"/>
          <Output Type="Variable" Label="eVert_z" Expression="eVert_z"/>
          <Output Type="Variable" Label="dist_p_eVert" Expression="dist_p_eVert"/>
          <Output Type="Variable" Label="dist_pim_eVert" Expression="dist_pim_eVert"/>
          <Output Type="Variable" Label="dist_lambda_eVert" Expression="dist_lambda_eVert"/>
          <Output Type="Variable" Label="dist_lambda_ver_pip_pim" Expression="dist_lambda_ver_pip_pim"/>
        </Output>
      </Selection>
      <Class ClassIndex="0">
        <Ranges>
          <Range Index="0" Min="4.6773059875704348e-04" Max="1.0768445587158203e+02"/>
          <Range Index="1" Min="6.1629954725503922e-03" Max="2.2523158264160156e+02"/>
          <Range Index="2" Min="-2.8668344497680664e+01" Max="3.9888107299804688e+01"/>
          <Range Index="3" Min="-2.3910804748535156e+01" Max="6.4377006530761719e+01"/>
          <Range Index="4" Min="-7.3763862609863281e+01" Max="2.1443231201171875e+02"/>
          <Range Index="5" Min="8.9339733123779297e-01" Max="1.4354609680175781e+02"/>
          <Range Index="6" Min="6.3308006525039673e-01" Max="1.4937649536132812e+02"/>
          <Range Index="7" Min="6.8712466955184937e-01" Max="1.4250509643554688e+02"/>
          <Range Index="8" Min="2.1955311298370361e+00" Max="6.8535784912109375e+02"/>
        </Ranges>
      </Class>
      <Class ClassIndex="1">
        <Ranges>
          <Range Index="0" Min="1.5611188486218452e-02" Max="1.9311848449707031e+02"/>
          <Range Index="1" Min="2.5495314970612526e-02" Max="2.7543356323242188e+02"/>
          <Range Index="2" Min="-5.1974723815917969e+01" Max="4.7301795959472656e+01"/>
          <Range Index="3" Min="-2.5652727127075195e+01" Max="2.8827011108398438e+01"/>
          <Range Index="4" Min="-8.9931282043457031e+01" Max="1.5992741394042969e+02"/>
          <Range Index="5" Min="1.4438147544860840e+00" Max="1.7372306823730469e+02"/>
          <Range Index="6" Min="4.1046649217605591e-01" Max="1.2746899414062500e+02"/>
          <Range Index="7" Min="3.0571944713592529e+00" Max="1.3044012451171875e+03"/>
          <Range Index="8" Min="1.4678188562393188e+00" Max="5.5627954101562500e+02"/>
        </Ranges>
      </Class>
      <Class ClassIndex="2">
        <Ranges>
          <Range Index="0" Min="4.6773059875704348e-04" Max="1.9311848449707031e+02"/>
          <Range Index="1" Min="6.1629954725503922e-03" Max="2.7543356323242188e+02"/>
          <Range Index="2" Min="-5.1974723815917969e+01" Max="4.7301795959472656e+01"/>
          <Range Index="3" Min="-2.5652727127075195e+01" Max="6.4377006530761719e+01"/>
          <Range Index="4" Min="-8.9931282043457031e+01" Max="2.1443231201171875e+02"/>
          <Range Index="5" Min="8.9339733123779297e-01" Max="1.7372306823730469e+02"/>
          <Range Index="6" Min="4.1046649217605591e-01" Max="1.4937649536132812e+02"/>
          <Range Index="7" Min="6.8712466955184937e-01" Max="1.3044012451171875e+03"/>
          <Range Index="8" Min="1.4678188562393188e+00" Max="6.8535784912109375e+02"/>
        </Ranges>
      </Class>
    </Transform>
    <Transform Name="PCA">
      <Selection>
        <Input NInputs="9">
          <Input Type="Variable" Label="dist_p_pim" Expression="dist_p_pim"/>
          <Input Type="Variable" Label="dist_pip_pim" Expression="dist_pip_pim"/>
          <Input Type="Variable" Label="eVert_x" Expression="eVert_x"/>
          <Input Type="Variable" Label="eVert_y" Expression="eVert_y"/>
          <Input Type="Variable" Label="eVert_z" Expression="eVert_z"/>
          <Input Type="Variable" Label="dist_p_eVert" Expression="dist_p_eVert"/>
          <Input Type="Variable" Label="dist_pim_eVert" Expression="dist_pim_eVert"/>
          <Input Type="Variable" Label="dist_lambda_eVert" Expression="dist_lambda_eVert"/>
          <Input Type="Variable" Label="dist_lambda_ver_pip_pim" Expression="dist_lambda_ver_pip_pim"/>
        </Input>
        <Output NOutputs="9">
          <Output Type="Variable" Label="dist_p_pim" Expression="dist_p_pim"/>
          <Output Type="Variable" Label="dist_pip_pim" Expression="dist_pip_pim"/>
          <Output Type="Variable" Label="eVert_x" Expression="eVert_x"/>
          <Output Type="Variable" Label="eVert_y" Expression="eVert_y"/>
          <Output Type="Variable" Label="eVert_z" Expression="eVert_z"/>
          <Output Type="Variable" Label="dist_p_eVert" Expression="dist_p_eVert"/>
          <Output Type="Variable" Label="dist_pim_eVert" Expression="dist_pim_eVert"/>
          <Output Type="Variable" Label="dist_lambda_eVert" Expression="dist_lambda_eVert"/>
          <Output Type="Variable" Label="dist_lambda_ver_pip_pim" Expression="dist_lambda_ver_pip_pim"/>
        </Output>
      </Selection>
      <Statistics Class="Signal" ClassIndex="0" NRows="9">
        -9.34719199e-01 -9.07064223e-01 4.69407424e-02 -4.28455398e-01 -5.61957606e-01 -6.70915437e-01 -6.72008952e-01 -9.59692570e-01 -8.60632129e-01 
      </Statistics>
      <Statistics Class="Background" ClassIndex="1" NRows="9">
        -8.38309153e-01 -8.74063916e-01 4.56287995e-02 -4.45781909e-01 -5.56267381e-01 -6.76653328e-01 -6.45598773e-01 -8.98957136e-01 -8.39097257e-01 
      </Statistics>
      <Statistics Class="Combined" ClassIndex="2" NRows="9">
        -8.86514176e-01 -8.90564070e-01 4.62847709e-02 -4.37118654e-01 -5.59112493e-01 -6.73784382e-01 -6.58803863e-01 -9.29324853e-01 -8.49864693e-01 
      </Statistics>
      <Eigenvectors Class="Signal" ClassIndex="0" NRows="9" NCols="9">
        6.50787665e-02 -5.27292019e-02 -6.97296303e-02 -1.53885160e-01 -3.39495196e-01 -3.49894186e-01 -8.18225597e-01 2.39296815e-01 1.58049217e-03 3.70346131e-02 2.71691479e-01 -8.41182503e-01 -3.04877222e-01 -2.72532913e-01 5.47569957e-02 2.14095000e-01 3.41010055e-02 -1.41074492e-03 -9.51004819e-03 -3.83657324e-02 5.15903395e-02 -9.31966879e-02 1.77988043e-01 -5.90622278e-01 3.90615488e-01 6.73790826e-01 -1.21987554e-03 4.89546096e-02 -7.17403693e-02 -9.51995562e-02 -3.85241638e-01 6.02440042e-01 5.03771465e-01 -2.63470714e-01 3.85802886e-01 1.52092573e-03 -1.19972853e-01 -3.00474057e-01 -2.11578958e-01 -3.09183953e-01 4.67424726e-01 -4.78390135e-01 -6.44757401e-02 -5.50818540e-01 -7.76549056e-03 5.18664273e-01 6.00073362e-01 3.48042636e-01 -4.28315447e-01 4.97311255e-02 -1.26394068e-01 3.24300872e-02 -1.86936283e-01 1.08931192e-01 8.16036466e-01 -5.35316642e-01 -1.33431805e-01 1.21392980e-01 -6.22634019e-02 3.73725348e-02 9.79566894e-02 4.81747699e-04 1.05401434e-02 6.68749599e-02 6.25571516e-02 3.87856772e-02 -4.25010199e-02 2.37026904e-03 -9.10630124e-03 2.26783209e-03 -1.60650814e-02 -9.93957697e-01 1.95223743e-01 4.19445776e-01 -3.01027491e-01 6.56262953e-01 4.37051104e-01 -1.60134794e-01 -2.18777143e-01 1.14741247e-02 1.55056386e-03 
      </Eigenvectors>
      <Eigenvectors Class="Background" ClassIndex="1" NRows="9" NCols="9">
        4.73091211e-01 -7.31279172e-01 -3.81509428e-01 -1.76112523e-01 -2.57026798e-02 2.02379551e-01 4.83018866e-02 -1.15819494e-02 -1.44100974e-01 4.95127932e-02 2.29517800e-01 -7.05818303e-01 4.26863357e-01 4.71042744e-01 -1.96372271e-01 5.90895123e-02 -2.23639904e-02 6.57313480e-03 -2.63902090e-02 9.44089495e-02 6.25378999e-02 -2.39741542e-02 1.24106414e-01 7.51770700e-02 -3.27442689e-01 -6.31272792e-01 -6.77588896e-01 -5.98900682e-02 1.67891991e-01 -6.52500862e-02 -3.05654492e-02 2.26666899e-01 8.81020784e-01 -1.20368858e-01 -1.17247282e-01 3.27448540e-01 -7.66128913e-02 -2.50850789e-01 -4.78379890e-02 -1.13100659e-02 -2.73668162e-02 -3.08816641e-01 -5.02737461e-01 -4.66274623e-01 6.02091618e-01 4.47475683e-01 4.37726539e-01 -9.71219474e-02 -6.36595299e-01 5.78218823e-02 -1.56128334e-01 2.67015213e-01 -2.60119819e-01 1.63694445e-01 7.19958486e-01 1.06751373e-01 4.10380382e-01 5.33869795e-01 1.65316821e-02 2.20468432e-02 -6.30479082e-02 -5.64893766e-02 9.43899302e-02 1.83734868e-01 1.23101250e-01 5.31888794e-03 -2.86502230e-01 2.72776811e-01 -7.16193606e-02 -6.92676790e-01 5.45332256e-01 -1.10683496e-01 1.06052724e-01 3.07198905e-01 -4.09806080e-01 1.13053388e-01 -7.94924539e-01 1.15204445e-01 -2.54263107e-01 3.82201995e-02 -4.87028004e-02 
      </Eigenvectors>
      <Eigenvectors Class="Combined" ClassIndex="2" NRows="9" NCols="9">
        3.03120351e-01 -5.75150260e-01 -6.02524238e-01 -3.60531799e-01 -6.70600409e-02 -1.55922890e-01 -1.60792690e-01 -1.28760203e-01 -1.14276503e-01 5.53877491e-02 2.75126850e-01 -6.49473058e-01 5.16137938e-01 4.20614255e-01 2.30839576e-01 3.44367865e-02 -1.18991045e-02 -3.86399690e-02 -1.68316207e-02 3.51504870e-02 7.98400903e-02 8.24867179e-03 1.24257506e-01 -1.75538242e-01 4.01455197e-01 -8.82850509e-01 -7.20677496e-02 -1.53738238e-02 1.33665112e-01 6.57026694e-02 1.35093150e-01 3.33535984e-01 -8.15106403e-01 -4.27717937e-01 2.72185155e-02 1.44907509e-03 -1.01509666e-01 -2.50982895e-01 -7.97198350e-02 1.06686947e-01 8.20870977e-02 -3.80526839e-01 7.62553376e-01 4.19439458e-01 3.15279372e-03 4.88640545e-01 5.21298918e-01 8.38846582e-03 -5.57652172e-01 2.64456644e-01 -7.29972259e-03 1.99705320e-01 1.53771330e-01 -2.11927123e-01 7.81742662e-01 -2.40636844e-01 3.35335816e-01 4.65316141e-01 -2.02438992e-02 3.58523018e-02 1.14354640e-02 6.36489255e-03 -1.16882359e-02 1.44832533e-01 3.23754229e-02 -6.83533662e-02 -1.48070463e-01 1.21366935e-01 -4.06656956e-03 5.03114860e-02 -4.70703675e-02 9.65341903e-01 1.52835681e-01 4.25095567e-01 -2.84447003e-01 1.56519099e-01 -7.74651575e-01 -2.84663193e-01 6.94192230e-02 -3.58069820e-02 5.75093341e-02 
      </Eigenvectors>
    </Transform>
  </Transformations>
  <MVAPdfs/>
  <Weights>
    <Layout NLayers="4">
      <Layer Index="0" NNeurons="10">
        <Neuron NSynapses="10">
          1.7897722418006723e-01 1.9782586327406260e+00 7.4685231245568517e-01 1.0776501951236699e+00 -2.0746449133865204e+00 -1.8526746677098516e+00 -6.3689600244170774e-01 1.7056387021750827e+00 -9.0243891822815714e-01 -5.0025691912165093e-01 
        </Neuron>
        <Neuron NSynapses="10">
          -3.3165678771635293e-01 -8.9042460021377223e-02 -1.5929703370109103e+00 -4.4737670041853073e-01 -2.9650105097555352e-01 8.6120556622278444e-01 -1.2534273730405152e-01 1.8435516620189136e+00 9.4461478419073419e-01 -7.7635959436160995e-01 
        </Neuron>
        <Neuron NSynapses="10">
          -2.2706573124528004e-01 -1.1596363886848184e+00 3.4413172008552056e-01 5.4497366881095251e-02 -8.9117443584230516e-01 3.9360268393087045e-01 1.1583792890186264e+00 -1.2576840555680817e+00 -2.1510597847028183e+00 1.7807015120552692e+00 
        </Neuron>
        <Neuron NSynapses="10">
          -4.8203713212449352e-02 1.0626197800869475e+00 -3.4156775553762697e-01 7.5885032606114108e-02 -4.4149124759662695e-01 -6.3164573255381606e-02 -1.5483352604496201e+00 1.6571172618803494e+00 -1.1467287977347038e+00 2.1844744167313017e+00 
        </Neuron>
        <Neuron NSynapses="10">
          1.4979705746252241e+00 4.8039961901040890e-01 1.7278127294882979e+00 1.3437599044665225e+00 -2.1810333381402630e-01 -1.5983897515107752e+00 7.2571939434116128e-01 2.0227859331305198e-01 1.6690364748586750e+00 -1.8650877634713459e-01 
        </Neuron>
        <Neuron NSynapses="10">
          1.3292332341060222e+00 8.7526008097352215e-01 -1.4444221746871426e+00 1.6714618555968328e+00 -1.3490319061730913e+00 -3.5710402882667946e-01 -1.4374290498418951e+00 -1.1283180433020048e+00 6.4567024007321361e-01 8.0745156006812735e-01 
        </Neuron>
        <Neuron NSynapses="10">
          -7.0434306894298959e-01 3.3412458804980516e-01 -3.8075055777779740e-02 6.3799229324414974e-01 7.4505565602385271e-01 -4.9223019481683139e-01 9.6568927748856212e-02 -1.4411274929219353e+00 9.4359234780754375e-01 -9.7756946696331071e-01 
        </Neuron>
        <Neuron NSynapses="10">
          -6.3066237941138237e-01 -1.0281083431697240e+00 6.3748499547108162e-01 7.7363537943284344e-01 1.7051320154377387e+00 -3.6668809169420241e-01 -1.7479920483581981e+00 -1.7199128531938728e+00 9.5093711743595799e-01 6.7365571817545389e-01 
        </Neuron>
        <Neuron NSynapses="10">
          6.1332918937893126e+00 4.1598424425183644e+00 1.6472326300899049e+00 -1.5780548187555626e-01 1.1414037221597915e+00 -1.3598234842739512e+00 2.0799571897368221e+00 -1.4256143511594621e+00 -3.5082740325456441e+00 -8.6625742862436290e+00 
        </Neuron>
        <Neuron NSynapses="10">
          4.3721680767196444e-02 2.6120868141640946e-01 1.0041371650043858e+00 -1.8392955955507939e+00 -8.6905939571066226e-01 4.8142758520673357e-01 -5.0709489909372463e-01 -1.3210434889984175e+00 -9.4823874432192878e-01 -3.3765956027798205e-01 
        </Neuron>
      </Layer>
      <Layer Index="1" NNeurons="11">
        <Neuron NSynapses="9">
          -2.2866579089086092e+00 -5.4716085591672075e+00 8.1743921175743262e-01 1.8849044802747836e+00 2.8818858236112732e-01 6.2558284124618280e-01 -2.1316557615867957e+00 -9.0602671893803988e-01 7.6553794090407509e-02 
        </Neuron>
        <Neuron NSynapses="9">
          -5.7795219815978849e-01 -3.9746988173648603e+00 1.0189168005018467e-01 2.2005067920137533e-01 1.2514291166541933e+00 -1.9395999236336643e+00 1.3012290850453181e+00 7.8270965888403057e-02 -8.9115011627735274e-01 
        </Neuron>
        <Neuron NSynapses="9">
          3.1243309266868269e-01 -2.0813387634317295e+00 -1.7013979863811317e+00 2.1656536845186592e-03 1.6358915145371494e-01 1.2772060494044046e+00 2.3180251297970952e-01 -4.0439453197209274e-01 -3.3111201098161502e-01 
        </Neuron>
        <Neuron NSynapses="9">
          4.1964010986601097e-01 -1.3306422682034280e+00 8.9310711258258613e-01 7.1493851081158175e-02 -1.8321414773421667e+00 5.8804582452192755e-01 -1.3702906336828145e+00 -1.0177745188830463e-03 1.2048330831728300e+00 
        </Neuron>
        <Neuron NSynapses="9">
          1.0327250565475863e+00 -2.2312682595416073e+00 2.2702589992392588e-01 1.3511764969719608e+00 1.4413342196465417e+00 2.2283316590405072e-01 -1.1507970312408293e+00 -4.4031528229872452e-01 -1.5090728274096148e+00 
        </Neuron>
        <Neuron NSynapses="9">
          1.8283157221911148e+00 1.2355652662134513e+00 -4.6750685654836971e-01 -4.5885547524854525e-01 6.9253334721191351e-01 -1.8571387429186474e+00 -1.7445741795233974e-01 1.4494033933989359e+00 -7.1987484616529918e-01 
        </Neuron>
        <Neuron NSynapses="9">
          -1.1908103059953257e+00 -8.2921900401878268e-01 1.0009123011728578e+00 5.6916141531170239e-01 1.2198545146424808e+00 -1.7320671412629929e+00 1.3423671761328348e+00 5.6212965214516097e-01 5.4511019084776380e-01 
        </Neuron>
        <Neuron NSynapses="9">
          4.3487176593926458e-01 9.8896628565026212e-01 -7.3869368035841498e-01 -7.6706660346766520e-01 7.9694380088699468e-01 -8.6378372684724813e-01 -4.9593319207136904e-01 1.4616356492921250e+00 9.8359048384537706e-01 
        </Neuron>
        <Neuron NSynapses="9">
          2.2465045640662273e-01 3.0378468681169175e+00 1.7114830599319599e+00 -2.1295838905834836e+00 7.7570063007003931e-01 -9.4184697364533998e-02 4.6264674282613033e-01 -1.8248739007332735e+00 -1.5368122837158242e+00 
        </Neuron>
        <Neuron NSynapses="9">
          2.7168310017219168e+00 7.0592449471940997e+00 -2.0696550980377677e+00 -5.4342620123438468e-01 -1.6822464962860395e+00 8.2845699701450970e-01 2.2908803327391514e+00 -5.5190999372046290e-01 -5.2217640113478558e-01 
        </Neuron>
        <Neuron NSynapses="9">
          -1.0437885840549630e+00 7.8988923503374231e-01 1.4634372629688279e+00 9.7589909844972800e-01 9.3395246450347424e-01 -1.4349384107257888e+00 -2.7434395448486768e+00 7.1286038739286406e-01 4.0563389175693393e-01 
        </Neuron>
      </Layer>
      <Layer Index="2" NNeurons="10">
        <Neuron NSynapses="1">
          -1.9175120773328054e+00 
        </Neuron>
        <Neuron NSynapses="1">
          5.7816774252031182e+00 
        </Neuron>
        <Neuron NSynapses="1">
          -6.1778844530405469e-02 
        </Neuron>
        <Neuron NSynapses="1">
          -2.9896926787863010e-01 
        </Neuron>
        <Neuron NSynapses="1">
          -1.0835622640637872e+00 
        </Neuron>
        <Neuron NSynapses="1">
          8.7038928954525951e-01 
        </Neuron>
        <Neuron NSynapses="1">
          1.1253994116714565e+00 
        </Neuron>
        <Neuron NSynapses="1">
          9.8505822731843301e-02 
        </Neuron>
        <Neuron NSynapses="1">
          -4.6059288484255967e-01 
        </Neuron>
        <Neuron NSynapses="1">
          1.6129831180016021e+00 
        </Neuron>
      </Layer>
      <Layer Index="3" NNeurons="1">
        <Neuron NSynapses="0"/>
      </Layer>
    </Layout>
  </Weights>
</MethodSetup>
